<?xml version="1.0" encoding="UTF-8" standalone="yes"?>
<PMML xmlns="http://www.dmg.org/PMML-4_3" xmlns:data="http://jpmml.org/jpmml-model/InlineTable" version="4.3">
	<Header>
		<Application name="JPMML-SkLearn" version="1.5.12"/>
		<Timestamp>2019-03-20T03:00:09Z</Timestamp>
	</Header>
	<MiningBuildTask>
		<Extension>PMMLPipeline(steps=[('knr_x', KNeighborsRegressor(algorithm='auto', leaf_size=3, metric='minkowski',
          metric_params=None, n_jobs=1, n_neighbors=5, p=2,
          weights='uniform'))])</Extension>
	</MiningBuildTask>
	<DataDictionary>
		<DataField name="y" optype="continuous" dataType="double"/>
		<DataField name="x1" optype="continuous" dataType="float"/>
		<DataField name="x2" optype="continuous" dataType="float"/>
		<DataField name="x3" optype="continuous" dataType="float"/>
		<DataField name="x4" optype="continuous" dataType="float"/>
		<DataField name="x5" optype="continuous" dataType="float"/>
		<DataField name="x6" optype="continuous" dataType="float"/>
		<DataField name="x7" optype="continuous" dataType="float"/>
		<DataField name="x8" optype="continuous" dataType="float"/>
		<DataField name="x9" optype="continuous" dataType="float"/>
		<DataField name="x10" optype="continuous" dataType="float"/>
		<DataField name="x11" optype="continuous" dataType="float"/>
		<DataField name="x12" optype="continuous" dataType="float"/>
		<DataField name="x13" optype="continuous" dataType="float"/>
		<DataField name="x14" optype="continuous" dataType="float"/>
		<DataField name="x15" optype="continuous" dataType="float"/>
		<DataField name="x16" optype="continuous" dataType="float"/>
		<DataField name="x17" optype="continuous" dataType="float"/>
		<DataField name="x18" optype="continuous" dataType="float"/>
		<DataField name="x19" optype="continuous" dataType="float"/>
		<DataField name="x20" optype="continuous" dataType="float"/>
		<DataField name="x21" optype="continuous" dataType="float"/>
		<DataField name="x22" optype="continuous" dataType="float"/>
		<DataField name="x23" optype="continuous" dataType="float"/>
		<DataField name="x24" optype="continuous" dataType="float"/>
		<DataField name="x25" optype="continuous" dataType="float"/>
		<DataField name="x26" optype="continuous" dataType="float"/>
		<DataField name="x27" optype="continuous" dataType="float"/>
		<DataField name="x28" optype="continuous" dataType="float"/>
		<DataField name="x29" optype="continuous" dataType="float"/>
		<DataField name="x30" optype="continuous" dataType="float"/>
		<DataField name="x31" optype="continuous" dataType="float"/>
		<DataField name="x32" optype="continuous" dataType="float"/>
		<DataField name="x33" optype="continuous" dataType="float"/>
		<DataField name="x34" optype="continuous" dataType="float"/>
		<DataField name="x35" optype="continuous" dataType="float"/>
		<DataField name="x36" optype="continuous" dataType="float"/>
		<DataField name="x37" optype="continuous" dataType="float"/>
		<DataField name="x38" optype="continuous" dataType="float"/>
		<DataField name="x39" optype="continuous" dataType="float"/>
		<DataField name="x40" optype="continuous" dataType="float"/>
		<DataField name="x41" optype="continuous" dataType="float"/>
		<DataField name="x42" optype="continuous" dataType="float"/>
		<DataField name="x43" optype="continuous" dataType="float"/>
		<DataField name="x44" optype="continuous" dataType="float"/>
		<DataField name="x45" optype="continuous" dataType="float"/>
		<DataField name="x46" optype="continuous" dataType="float"/>
		<DataField name="x47" optype="continuous" dataType="float"/>
		<DataField name="x48" optype="continuous" dataType="float"/>
		<DataField name="x49" optype="continuous" dataType="float"/>
		<DataField name="x50" optype="continuous" dataType="float"/>
		<DataField name="x51" optype="continuous" dataType="float"/>
		<DataField name="x52" optype="continuous" dataType="float"/>
		<DataField name="x53" optype="continuous" dataType="float"/>
		<DataField name="x54" optype="continuous" dataType="float"/>
		<DataField name="x55" optype="continuous" dataType="float"/>
		<DataField name="x56" optype="continuous" dataType="float"/>
		<DataField name="x57" optype="continuous" dataType="float"/>
		<DataField name="x58" optype="continuous" dataType="float"/>
		<DataField name="x59" optype="continuous" dataType="float"/>
		<DataField name="x60" optype="continuous" dataType="float"/>
	</DataDictionary>
	<NearestNeighborModel functionName="regression" numberOfNeighbors="5" continuousScoringMethod="average">
		<MiningSchema>
			<MiningField name="y" usageType="target"/>
			<MiningField name="x1"/>
			<MiningField name="x2"/>
			<MiningField name="x3"/>
			<MiningField name="x4"/>
			<MiningField name="x5"/>
			<MiningField name="x6"/>
			<MiningField name="x7"/>
			<MiningField name="x8"/>
			<MiningField name="x9"/>
			<MiningField name="x10"/>
			<MiningField name="x11"/>
			<MiningField name="x12"/>
			<MiningField name="x13"/>
			<MiningField name="x14"/>
			<MiningField name="x15"/>
			<MiningField name="x16"/>
			<MiningField name="x17"/>
			<MiningField name="x18"/>
			<MiningField name="x19"/>
			<MiningField name="x20"/>
			<MiningField name="x21"/>
			<MiningField name="x22"/>
			<MiningField name="x23"/>
			<MiningField name="x24"/>
			<MiningField name="x25"/>
			<MiningField name="x26"/>
			<MiningField name="x27"/>
			<MiningField name="x28"/>
			<MiningField name="x29"/>
			<MiningField name="x30"/>
			<MiningField name="x31"/>
			<MiningField name="x32"/>
			<MiningField name="x33"/>
			<MiningField name="x34"/>
			<MiningField name="x35"/>
			<MiningField name="x36"/>
			<MiningField name="x37"/>
			<MiningField name="x38"/>
			<MiningField name="x39"/>
			<MiningField name="x40"/>
			<MiningField name="x41"/>
			<MiningField name="x42"/>
			<MiningField name="x43"/>
			<MiningField name="x44"/>
			<MiningField name="x45"/>
			<MiningField name="x46"/>
			<MiningField name="x47"/>
			<MiningField name="x48"/>
			<MiningField name="x49"/>
			<MiningField name="x50"/>
			<MiningField name="x51"/>
			<MiningField name="x52"/>
			<MiningField name="x53"/>
			<MiningField name="x54"/>
			<MiningField name="x55"/>
			<MiningField name="x56"/>
			<MiningField name="x57"/>
			<MiningField name="x58"/>
			<MiningField name="x59"/>
			<MiningField name="x60"/>
		</MiningSchema>
		<Output>
			<OutputField name="neighbor(1)" optype="categorical" dataType="string" feature="entityId" rank="1"/>
			<OutputField name="neighbor(2)" optype="categorical" dataType="string" feature="entityId" rank="2"/>
			<OutputField name="neighbor(3)" optype="categorical" dataType="string" feature="entityId" rank="3"/>
			<OutputField name="neighbor(4)" optype="categorical" dataType="string" feature="entityId" rank="4"/>
			<OutputField name="neighbor(5)" optype="categorical" dataType="string" feature="entityId" rank="5"/>
		</Output>
		<TrainingInstances isTransformed="true">
			<InstanceFields>
				<InstanceField field="y" column="data:y"/>
				<InstanceField field="x1" column="data:x1"/>
				<InstanceField field="x2" column="data:x2"/>
				<InstanceField field="x3" column="data:x3"/>
				<InstanceField field="x4" column="data:x4"/>
				<InstanceField field="x5" column="data:x5"/>
				<InstanceField field="x6" column="data:x6"/>
				<InstanceField field="x7" column="data:x7"/>
				<InstanceField field="x8" column="data:x8"/>
				<InstanceField field="x9" column="data:x9"/>
				<InstanceField field="x10" column="data:x10"/>
				<InstanceField field="x11" column="data:x11"/>
				<InstanceField field="x12" column="data:x12"/>
				<InstanceField field="x13" column="data:x13"/>
				<InstanceField field="x14" column="data:x14"/>
				<InstanceField field="x15" column="data:x15"/>
				<InstanceField field="x16" column="data:x16"/>
				<InstanceField field="x17" column="data:x17"/>
				<InstanceField field="x18" column="data:x18"/>
				<InstanceField field="x19" column="data:x19"/>
				<InstanceField field="x20" column="data:x20"/>
				<InstanceField field="x21" column="data:x21"/>
				<InstanceField field="x22" column="data:x22"/>
				<InstanceField field="x23" column="data:x23"/>
				<InstanceField field="x24" column="data:x24"/>
				<InstanceField field="x25" column="data:x25"/>
				<InstanceField field="x26" column="data:x26"/>
				<InstanceField field="x27" column="data:x27"/>
				<InstanceField field="x28" column="data:x28"/>
				<InstanceField field="x29" column="data:x29"/>
				<InstanceField field="x30" column="data:x30"/>
				<InstanceField field="x31" column="data:x31"/>
				<InstanceField field="x32" column="data:x32"/>
				<InstanceField field="x33" column="data:x33"/>
				<InstanceField field="x34" column="data:x34"/>
				<InstanceField field="x35" column="data:x35"/>
				<InstanceField field="x36" column="data:x36"/>
				<InstanceField field="x37" column="data:x37"/>
				<InstanceField field="x38" column="data:x38"/>
				<InstanceField field="x39" column="data:x39"/>
				<InstanceField field="x40" column="data:x40"/>
				<InstanceField field="x41" column="data:x41"/>
				<InstanceField field="x42" column="data:x42"/>
				<InstanceField field="x43" column="data:x43"/>
				<InstanceField field="x44" column="data:x44"/>
				<InstanceField field="x45" column="data:x45"/>
				<InstanceField field="x46" column="data:x46"/>
				<InstanceField field="x47" column="data:x47"/>
				<InstanceField field="x48" column="data:x48"/>
				<InstanceField field="x49" column="data:x49"/>
				<InstanceField field="x50" column="data:x50"/>
				<InstanceField field="x51" column="data:x51"/>
				<InstanceField field="x52" column="data:x52"/>
				<InstanceField field="x53" column="data:x53"/>
				<InstanceField field="x54" column="data:x54"/>
				<InstanceField field="x55" column="data:x55"/>
				<InstanceField field="x56" column="data:x56"/>
				<InstanceField field="x57" column="data:x57"/>
				<InstanceField field="x58" column="data:x58"/>
				<InstanceField field="x59" column="data:x59"/>
				<InstanceField field="x60" column="data:x60"/>
			</InstanceFields>
			<InlineTable>
				<row>
					<data:y>9.0</data:y>
					<data:x1>0.0</data:x1>
					<data:x2>0.6868686868686869</data:x2>
					<data:x3>0.0</data:x3>
					<data:x4>0.0</data:x4>
					<data:x5>0.0</data:x5>
					<data:x6>0.0</data:x6>
					<data:x7>0.0</data:x7>
					<data:x8>0.0</data:x8>
					<data:x9>0.0</data:x9>
					<data:x10>0.0</data:x10>
					<data:x11>0.7070707070707071</data:x11>
					<data:x12>0.0</data:x12>
					<data:x13>0.35353535353535354</data:x13>
					<data:x14>0.3939393939393939</data:x14>
					<data:x15>0.5050505050505051</data:x15>
					<data:x16>0.0</data:x16>
					<data:x17>0.0</data:x17>
					<data:x18>0.0</data:x18>
					<data:x19>0.0</data:x19>
					<data:x20>0.0</data:x20>
					<data:x21>0.0</data:x21>
					<data:x22>0.0</data:x22>
					<data:x23>0.0</data:x23>
					<data:x24>0.0</data:x24>
					<data:x25>0.6868686868686869</data:x25>
					<data:x26>0.0</data:x26>
					<data:x27>0.0</data:x27>
					<data:x28>0.0</data:x28>
					<data:x29>0.0</data:x29>
					<data:x30>0.0</data:x30>
					<data:x31>0.3939393939393939</data:x31>
					<data:x32>0.0</data:x32>
					<data:x33>0.3333333333333333</data:x33>
					<data:x34>0.4444444444444444</data:x34>
					<data:x35>1.0</data:x35>
					<data:x36>0.5252525252525253</data:x36>
					<data:x37>0.0</data:x37>
					<data:x38>1.0</data:x38>
					<data:x39>0.0</data:x39>
					<data:x40>0.0</data:x40>
					<data:x41>0.3333333333333333</data:x41>
					<data:x42>0.26262626262626265</data:x42>
					<data:x43>0.0</data:x43>
					<data:x44>0.0</data:x44>
					<data:x45>0.0</data:x45>
					<data:x46>0.0</data:x46>
					<data:x47>0.0</data:x47>
					<data:x48>0.0</data:x48>
					<data:x49>0.0</data:x49>
					<data:x50>0.0</data:x50>
					<data:x51>0.0</data:x51>
					<data:x52>0.0</data:x52>
					<data:x53>0.0</data:x53>
					<data:x54>0.0</data:x54>
					<data:x55>0.0</data:x55>
					<data:x56>0.0</data:x56>
					<data:x57>0.0</data:x57>
					<data:x58>0.0</data:x58>
					<data:x59>0.1919191919191919</data:x59>
					<data:x60>0.21944444444444444</data:x60>
				</row>
				<row>
					<data:y>9.0</data:y>
					<data:x1>0.0</data:x1>
					<data:x2>0.6868686868686869</data:x2>
					<data:x3>0.0</data:x3>
					<data:x4>0.0</data:x4>
					<data:x5>0.0</data:x5>
					<data:x6>0.0</data:x6>
					<data:x7>0.0</data:x7>
					<data:x8>0.0</data:x8>
					<data:x9>0.0</data:x9>
					<data:x10>0.0</data:x10>
					<data:x11>0.7070707070707071</data:x11>
					<data:x12>0.0</data:x12>
					<data:x13>0.35353535353535354</data:x13>
					<data:x14>0.3939393939393939</data:x14>
					<data:x15>0.5050505050505051</data:x15>
					<data:x16>0.0</data:x16>
					<data:x17>0.0</data:x17>
					<data:x18>0.0</data:x18>
					<data:x19>0.0</data:x19>
					<data:x20>0.0</data:x20>
					<data:x21>0.0</data:x21>
					<data:x22>0.0</data:x22>
					<data:x23>0.0</data:x23>
					<data:x24>0.0</data:x24>
					<data:x25>0.6868686868686869</data:x25>
					<data:x26>0.0</data:x26>
					<data:x27>0.0</data:x27>
					<data:x28>0.0</data:x28>
					<data:x29>0.0</data:x29>
					<data:x30>0.0</data:x30>
					<data:x31>0.3939393939393939</data:x31>
					<data:x32>0.0</data:x32>
					<data:x33>0.3333333333333333</data:x33>
					<data:x34>0.4444444444444444</data:x34>
					<data:x35>1.0</data:x35>
					<data:x36>0.5252525252525253</data:x36>
					<data:x37>0.0</data:x37>
					<data:x38>1.0</data:x38>
					<data:x39>0.0</data:x39>
					<data:x40>0.0</data:x40>
					<data:x41>0.3333333333333333</data:x41>
					<data:x42>0.26262626262626265</data:x42>
					<data:x43>0.0</data:x43>
					<data:x44>0.0</data:x44>
					<data:x45>0.0</data:x45>
					<data:x46>0.0</data:x46>
					<data:x47>0.0</data:x47>
					<data:x48>0.0</data:x48>
					<data:x49>0.0</data:x49>
					<data:x50>0.0</data:x50>
					<data:x51>0.0</data:x51>
					<data:x52>0.0</data:x52>
					<data:x53>0.0</data:x53>
					<data:x54>0.0</data:x54>
					<data:x55>0.0</data:x55>
					<data:x56>0.0</data:x56>
					<data:x57>0.0</data:x57>
					<data:x58>0.0</data:x58>
					<data:x59>0.1919191919191919</data:x59>
					<data:x60>0.4638888888888889</data:x60>
				</row>
				<row>
					<data:y>9.0</data:y>
					<data:x1>0.0</data:x1>
					<data:x2>0.6868686868686869</data:x2>
					<data:x3>0.0</data:x3>
					<data:x4>0.0</data:x4>
					<data:x5>0.0</data:x5>
					<data:x6>0.0</data:x6>
					<data:x7>0.0</data:x7>
					<data:x8>0.0</data:x8>
					<data:x9>0.0</data:x9>
					<data:x10>0.0</data:x10>
					<data:x11>0.7070707070707071</data:x11>
					<data:x12>0.0</data:x12>
					<data:x13>0.35353535353535354</data:x13>
					<data:x14>0.3939393939393939</data:x14>
					<data:x15>0.5050505050505051</data:x15>
					<data:x16>0.0</data:x16>
					<data:x17>0.0</data:x17>
					<data:x18>0.0</data:x18>
					<data:x19>0.0</data:x19>
					<data:x20>0.0</data:x20>
					<data:x21>0.0</data:x21>
					<data:x22>0.0</data:x22>
					<data:x23>0.0</data:x23>
					<data:x24>0.0</data:x24>
					<data:x25>0.6868686868686869</data:x25>
					<data:x26>0.0</data:x26>
					<data:x27>0.0</data:x27>
					<data:x28>0.0</data:x28>
					<data:x29>0.0</data:x29>
					<data:x30>0.0</data:x30>
					<data:x31>0.3939393939393939</data:x31>
					<data:x32>0.0</data:x32>
					<data:x33>0.3333333333333333</data:x33>
					<data:x34>0.4444444444444444</data:x34>
					<data:x35>1.0</data:x35>
					<data:x36>0.5252525252525253</data:x36>
					<data:x37>0.0</data:x37>
					<data:x38>1.0</data:x38>
					<data:x39>0.0</data:x39>
					<data:x40>0.0</data:x40>
					<data:x41>0.3333333333333333</data:x41>
					<data:x42>0.26262626262626265</data:x42>
					<data:x43>0.0</data:x43>
					<data:x44>0.0</data:x44>
					<data:x45>0.0</data:x45>
					<data:x46>0.0</data:x46>
					<data:x47>0.0</data:x47>
					<data:x48>0.0</data:x48>
					<data:x49>0.0</data:x49>
					<data:x50>0.0</data:x50>
					<data:x51>0.0</data:x51>
					<data:x52>0.0</data:x52>
					<data:x53>0.0</data:x53>
					<data:x54>0.0</data:x54>
					<data:x55>0.0</data:x55>
					<data:x56>0.0</data:x56>
					<data:x57>0.0</data:x57>
					<data:x58>0.0</data:x58>
					<data:x59>0.1919191919191919</data:x59>
					<data:x60>0.7194444444444444</data:x60>
				</row>
				<row>
					<data:y>9.0</data:y>
					<data:x1>0.0</data:x1>
					<data:x2>0.6868686868686869</data:x2>
					<data:x3>0.0</data:x3>
					<data:x4>0.0</data:x4>
					<data:x5>0.0</data:x5>
					<data:x6>0.0</data:x6>
					<data:x7>0.0</data:x7>
					<data:x8>0.0</data:x8>
					<data:x9>0.0</data:x9>
					<data:x10>0.0</data:x10>
					<data:x11>0.7070707070707071</data:x11>
					<data:x12>0.0</data:x12>
					<data:x13>0.35353535353535354</data:x13>
					<data:x14>0.3939393939393939</data:x14>
					<data:x15>0.5050505050505051</data:x15>
					<data:x16>0.0</data:x16>
					<data:x17>0.0</data:x17>
					<data:x18>0.0</data:x18>
					<data:x19>0.0</data:x19>
					<data:x20>0.0</data:x20>
					<data:x21>0.0</data:x21>
					<data:x22>0.0</data:x22>
					<data:x23>0.0</data:x23>
					<data:x24>0.0</data:x24>
					<data:x25>0.6868686868686869</data:x25>
					<data:x26>0.0</data:x26>
					<data:x27>0.0</data:x27>
					<data:x28>0.0</data:x28>
					<data:x29>0.0</data:x29>
					<data:x30>0.0</data:x30>
					<data:x31>0.3939393939393939</data:x31>
					<data:x32>0.0</data:x32>
					<data:x33>0.0</data:x33>
					<data:x34>0.4444444444444444</data:x34>
					<data:x35>0.9090909090909091</data:x35>
					<data:x36>0.0</data:x36>
					<data:x37>0.0</data:x37>
					<data:x38>0.7777777777777778</data:x38>
					<data:x39>0.0</data:x39>
					<data:x40>0.0</data:x40>
					<data:x41>0.0</data:x41>
					<data:x42>0.0</data:x42>
					<data:x43>0.0</data:x43>
					<data:x44>0.0</data:x44>
					<data:x45>0.0</data:x45>
					<data:x46>0.0</data:x46>
					<data:x47>0.0</data:x47>
					<data:x48>0.0</data:x48>
					<data:x49>0.0</data:x49>
					<data:x50>0.0</data:x50>
					<data:x51>0.0</data:x51>
					<data:x52>0.0</data:x52>
					<data:x53>0.0</data:x53>
					<data:x54>0.0</data:x54>
					<data:x55>0.0</data:x55>
					<data:x56>0.0</data:x56>
					<data:x57>0.0</data:x57>
					<data:x58>0.0</data:x58>
					<data:x59>0.1919191919191919</data:x59>
					<data:x60>0.9722222222222222</data:x60>
				</row>
				<row>
					<data:y>9.0</data:y>
					<data:x1>0.0</data:x1>
					<data:x2>0.6161616161616161</data:x2>
					<data:x3>0.30303030303030304</data:x3>
					<data:x4>0.0</data:x4>
					<data:x5>0.0</data:x5>
					<data:x6>0.0</data:x6>
					<data:x7>0.0</data:x7>
					<data:x8>0.0</data:x8>
					<data:x9>0.0</data:x9>
					<data:x10>0.0</data:x10>
					<data:x11>0.7272727272727273</data:x11>
					<data:x12>0.0</data:x12>
					<data:x13>0.48484848484848486</data:x13>
					<data:x14>0.0</data:x14>
					<data:x15>0.48484848484848486</data:x15>
					<data:x16>0.0</data:x16>
					<data:x17>0.0</data:x17>
					<data:x18>0.0</data:x18>
					<data:x19>0.0</data:x19>
					<data:x20>0.0</data:x20>
					<data:x21>0.0</data:x21>
					<data:x22>0.0</data:x22>
					<data:x23>0.0</data:x23>
					<data:x24>0.0</data:x24>
					<data:x25>0.797979797979798</data:x25>
					<data:x26>0.0</data:x26>
					<data:x27>0.0</data:x27>
					<data:x28>0.0</data:x28>
					<data:x29>0.0</data:x29>
					<data:x30>0.0</data:x30>
					<data:x31>0.41414141414141414</data:x31>
					<data:x32>0.3333333333333333</data:x32>
					<data:x33>0.0</data:x33>
					<data:x34>0.5555555555555556</data:x34>
					<data:x35>1.0</data:x35>
					<data:x36>0.0</data:x36>
					<data:x37>0.0</data:x37>
					<data:x38>1.0</data:x38>
					<data:x39>0.0</data:x39>
					<data:x40>0.0</data:x40>
					<data:x41>0.0</data:x41>
					<data:x42>0.0</data:x42>
					<data:x43>0.0</data:x43>
					<data:x44>0.2222222222222222</data:x44>
					<data:x45>0.0</data:x45>
					<data:x46>0.0</data:x46>
					<data:x47>0.0</data:x47>
					<data:x48>0.0</data:x48>
					<data:x49>0.35353535353535354</data:x49>
					<data:x50>0.0</data:x50>
					<data:x51>0.0</data:x51>
					<data:x52>0.0</data:x52>
					<data:x53>0.0</data:x53>
					<data:x54>0.0</data:x54>
					<data:x55>0.0</data:x55>
					<data:x56>0.0</data:x56>
					<data:x57>0.0</data:x57>
					<data:x58>0.0</data:x58>
					<data:x59>0.0</data:x59>
					<data:x60>0.2111111111111111</data:x60>
				</row>
				<row>
					<data:y>9.0</data:y>
					<data:x1>0.0</data:x1>
					<data:x2>0.6161616161616161</data:x2>
					<data:x3>0.30303030303030304</data:x3>
					<data:x4>0.0</data:x4>
					<data:x5>0.0</data:x5>
					<data:x6>0.0</data:x6>
					<data:x7>0.0</data:x7>
					<data:x8>0.0</data:x8>
					<data:x9>0.0</data:x9>
					<data:x10>0.0</data:x10>
					<data:x11>0.7272727272727273</data:x11>
					<data:x12>0.0</data:x12>
					<data:x13>0.48484848484848486</data:x13>
					<data:x14>0.0</data:x14>
					<data:x15>0.48484848484848486</data:x15>
					<data:x16>0.0</data:x16>
					<data:x17>0.0</data:x17>
					<data:x18>0.0</data:x18>
					<data:x19>0.0</data:x19>
					<data:x20>0.0</data:x20>
					<data:x21>0.0</data:x21>
					<data:x22>0.0</data:x22>
					<data:x23>0.0</data:x23>
					<data:x24>0.0</data:x24>
					<data:x25>0.797979797979798</data:x25>
					<data:x26>0.0</data:x26>
					<data:x27>0.0</data:x27>
					<data:x28>0.0</data:x28>
					<data:x29>0.0</data:x29>
					<data:x30>0.0</data:x30>
					<data:x31>0.41414141414141414</data:x31>
					<data:x32>0.3333333333333333</data:x32>
					<data:x33>0.0</data:x33>
					<data:x34>0.5555555555555556</data:x34>
					<data:x35>1.0</data:x35>
					<data:x36>0.0</data:x36>
					<data:x37>0.0</data:x37>
					<data:x38>1.0</data:x38>
					<data:x39>0.0</data:x39>
					<data:x40>0.0</data:x40>
					<data:x41>0.0</data:x41>
					<data:x42>0.0</data:x42>
					<data:x43>0.0</data:x43>
					<data:x44>0.2222222222222222</data:x44>
					<data:x45>0.0</data:x45>
					<data:x46>0.0</data:x46>
					<data:x47>0.0</data:x47>
					<data:x48>0.0</data:x48>
					<data:x49>0.35353535353535354</data:x49>
					<data:x50>0.0</data:x50>
					<data:x51>0.0</data:x51>
					<data:x52>0.0</data:x52>
					<data:x53>0.0</data:x53>
					<data:x54>0.0</data:x54>
					<data:x55>0.0</data:x55>
					<data:x56>0.0</data:x56>
					<data:x57>0.0</data:x57>
					<data:x58>0.0</data:x58>
					<data:x59>0.0</data:x59>
					<data:x60>0.4583333333333333</data:x60>
				</row>
				<row>
					<data:y>9.0</data:y>
					<data:x1>0.0</data:x1>
					<data:x2>0.6161616161616161</data:x2>
					<data:x3>0.30303030303030304</data:x3>
					<data:x4>0.0</data:x4>
					<data:x5>0.0</data:x5>
					<data:x6>0.0</data:x6>
					<data:x7>0.0</data:x7>
					<data:x8>0.0</data:x8>
					<data:x9>0.0</data:x9>
					<data:x10>0.0</data:x10>
					<data:x11>0.6161616161616161</data:x11>
					<data:x12>0.0</data:x12>
					<data:x13>0.4444444444444444</data:x13>
					<data:x14>0.0</data:x14>
					<data:x15>0.48484848484848486</data:x15>
					<data:x16>0.0</data:x16>
					<data:x17>0.0</data:x17>
					<data:x18>0.0</data:x18>
					<data:x19>0.0</data:x19>
					<data:x20>0.0</data:x20>
					<data:x21>0.0</data:x21>
					<data:x22>0.0</data:x22>
					<data:x23>0.0</data:x23>
					<data:x24>0.0</data:x24>
					<data:x25>0.5252525252525253</data:x25>
					<data:x26>0.0</data:x26>
					<data:x27>0.0</data:x27>
					<data:x28>0.0</data:x28>
					<data:x29>0.0</data:x29>
					<data:x30>0.0</data:x30>
					<data:x31>0.41414141414141414</data:x31>
					<data:x32>0.3333333333333333</data:x32>
					<data:x33>0.0</data:x33>
					<data:x34>0.37373737373737376</data:x34>
					<data:x35>0.8888888888888888</data:x35>
					<data:x36>0.3939393939393939</data:x36>
					<data:x37>0.0</data:x37>
					<data:x38>0.7070707070707071</data:x38>
					<data:x39>0.0</data:x39>
					<data:x40>0.0</data:x40>
					<data:x41>0.0</data:x41>
					<data:x42>0.0</data:x42>
					<data:x43>0.0</data:x43>
					<data:x44>0.2222222222222222</data:x44>
					<data:x45>0.0</data:x45>
					<data:x46>0.0</data:x46>
					<data:x47>0.0</data:x47>
					<data:x48>0.0</data:x48>
					<data:x49>0.35353535353535354</data:x49>
					<data:x50>0.0</data:x50>
					<data:x51>0.0</data:x51>
					<data:x52>0.0</data:x52>
					<data:x53>0.0</data:x53>
					<data:x54>0.0</data:x54>
					<data:x55>0.0</data:x55>
					<data:x56>0.0</data:x56>
					<data:x57>0.0</data:x57>
					<data:x58>0.0</data:x58>
					<data:x59>0.0</data:x59>
					<data:x60>0.7055555555555556</data:x60>
				</row>
				<row>
					<data:y>9.0</data:y>
					<data:x1>0.0</data:x1>
					<data:x2>0.6161616161616161</data:x2>
					<data:x3>0.30303030303030304</data:x3>
					<data:x4>0.0</data:x4>
					<data:x5>0.0</data:x5>
					<data:x6>0.0</data:x6>
					<data:x7>0.0</data:x7>
					<data:x8>0.0</data:x8>
					<data:x9>0.0</data:x9>
					<data:x10>0.0</data:x10>
					<data:x11>0.6161616161616161</data:x11>
					<data:x12>0.0</data:x12>
					<data:x13>0.4444444444444444</data:x13>
					<data:x14>0.0</data:x14>
					<data:x15>0.48484848484848486</data:x15>
					<data:x16>0.0</data:x16>
					<data:x17>0.0</data:x17>
					<data:x18>0.0</data:x18>
					<data:x19>0.0</data:x19>
					<data:x20>0.0</data:x20>
					<data:x21>0.0</data:x21>
					<data:x22>0.0</data:x22>
					<data:x23>0.0</data:x23>
					<data:x24>0.0</data:x24>
					<data:x25>0.5252525252525253</data:x25>
					<data:x26>0.0</data:x26>
					<data:x27>0.0</data:x27>
					<data:x28>0.0</data:x28>
					<data:x29>0.0</data:x29>
					<data:x30>0.0</data:x30>
					<data:x31>0.41414141414141414</data:x31>
					<data:x32>0.3333333333333333</data:x32>
					<data:x33>0.0</data:x33>
					<data:x34>0.37373737373737376</data:x34>
					<data:x35>0.8888888888888888</data:x35>
					<data:x36>0.3939393939393939</data:x36>
					<data:x37>0.0</data:x37>
					<data:x38>0.7070707070707071</data:x38>
					<data:x39>0.0</data:x39>
					<data:x40>0.0</data:x40>
					<data:x41>0.0</data:x41>
					<data:x42>0.0</data:x42>
					<data:x43>0.0</data:x43>
					<data:x44>0.2222222222222222</data:x44>
					<data:x45>0.0</data:x45>
					<data:x46>0.0</data:x46>
					<data:x47>0.0</data:x47>
					<data:x48>0.0</data:x48>
					<data:x49>0.35353535353535354</data:x49>
					<data:x50>0.0</data:x50>
					<data:x51>0.0</data:x51>
					<data:x52>0.0</data:x52>
					<data:x53>0.0</data:x53>
					<data:x54>0.0</data:x54>
					<data:x55>0.0</data:x55>
					<data:x56>0.0</data:x56>
					<data:x57>0.0</data:x57>
					<data:x58>0.0</data:x58>
					<data:x59>0.0</data:x59>
					<data:x60>0.9555555555555556</data:x60>
				</row>
				<row>
					<data:y>9.0</data:y>
					<data:x1>0.0</data:x1>
					<data:x2>0.6363636363636364</data:x2>
					<data:x3>0.30303030303030304</data:x3>
					<data:x4>0.0</data:x4>
					<data:x5>0.0</data:x5>
					<data:x6>0.0</data:x6>
					<data:x7>0.0</data:x7>
					<data:x8>0.0</data:x8>
					<data:x9>0.0</data:x9>
					<data:x10>0.0</data:x10>
					<data:x11>0.6363636363636364</data:x11>
					<data:x12>0.0</data:x12>
					<data:x13>0.4444444444444444</data:x13>
					<data:x14>0.0</data:x14>
					<data:x15>0.30303030303030304</data:x15>
					<data:x16>0.0</data:x16>
					<data:x17>0.0</data:x17>
					<data:x18>0.0</data:x18>
					<data:x19>0.0</data:x19>
					<data:x20>0.0</data:x20>
					<data:x21>0.0</data:x21>
					<data:x22>0.0</data:x22>
					<data:x23>0.0</data:x23>
					<data:x24>0.0</data:x24>
					<data:x25>0.7474747474747475</data:x25>
					<data:x26>0.0</data:x26>
					<data:x27>0.0</data:x27>
					<data:x28>0.0</data:x28>
					<data:x29>0.0</data:x29>
					<data:x30>0.0</data:x30>
					<data:x31>0.26262626262626265</data:x31>
					<data:x32>0.3333333333333333</data:x32>
					<data:x33>0.0</data:x33>
					<data:x34>0.37373737373737376</data:x34>
					<data:x35>0.7777777777777778</data:x35>
					<data:x36>0.3939393939393939</data:x36>
					<data:x37>0.0</data:x37>
					<data:x38>0.8888888888888888</data:x38>
					<data:x39>0.0</data:x39>
					<data:x40>0.0</data:x40>
					<data:x41>0.35353535353535354</data:x41>
					<data:x42>0.0</data:x42>
					<data:x43>0.0</data:x43>
					<data:x44>0.2222222222222222</data:x44>
					<data:x45>0.0</data:x45>
					<data:x46>0.0</data:x46>
					<data:x47>0.0</data:x47>
					<data:x48>0.0</data:x48>
					<data:x49>0.0</data:x49>
					<data:x50>0.0</data:x50>
					<data:x51>0.0</data:x51>
					<data:x52>0.0</data:x52>
					<data:x53>0.0</data:x53>
					<data:x54>0.0</data:x54>
					<data:x55>0.0</data:x55>
					<data:x56>0.0</data:x56>
					<data:x57>0.0</data:x57>
					<data:x58>0.0</data:x58>
					<data:x59>0.0</data:x59>
					<data:x60>0.2111111111111111</data:x60>
				</row>
				<row>
					<data:y>9.0</data:y>
					<data:x1>0.0</data:x1>
					<data:x2>0.46464646464646464</data:x2>
					<data:x3>0.30303030303030304</data:x3>
					<data:x4>0.0</data:x4>
					<data:x5>0.0</data:x5>
					<data:x6>0.0</data:x6>
					<data:x7>0.0</data:x7>
					<data:x8>0.0</data:x8>
					<data:x9>0.0</data:x9>
					<data:x10>0.0</data:x10>
					<data:x11>0.6363636363636364</data:x11>
					<data:x12>0.0</data:x12>
					<data:x13>0.4444444444444444</data:x13>
					<data:x14>0.0</data:x14>
					<data:x15>0.30303030303030304</data:x15>
					<data:x16>0.0</data:x16>
					<data:x17>0.0</data:x17>
					<data:x18>0.0</data:x18>
					<data:x19>0.0</data:x19>
					<data:x20>0.0</data:x20>
					<data:x21>0.0</data:x21>
					<data:x22>0.0</data:x22>
					<data:x23>0.0</data:x23>
					<data:x24>0.0</data:x24>
					<data:x25>0.48484848484848486</data:x25>
					<data:x26>0.0</data:x26>
					<data:x27>0.0</data:x27>
					<data:x28>0.0</data:x28>
					<data:x29>0.0</data:x29>
					<data:x30>0.0</data:x30>
					<data:x31>0.26262626262626265</data:x31>
					<data:x32>0.3333333333333333</data:x32>
					<data:x33>0.0</data:x33>
					<data:x34>0.37373737373737376</data:x34>
					<data:x35>0.8181818181818182</data:x35>
					<data:x36>0.3939393939393939</data:x36>
					<data:x37>0.0</data:x37>
					<data:x38>0.9696969696969697</data:x38>
					<data:x39>0.0</data:x39>
					<data:x40>0.0</data:x40>
					<data:x41>0.35353535353535354</data:x41>
					<data:x42>0.0</data:x42>
					<data:x43>0.0</data:x43>
					<data:x44>0.2222222222222222</data:x44>
					<data:x45>0.0</data:x45>
					<data:x46>0.0</data:x46>
					<data:x47>0.0</data:x47>
					<data:x48>0.0</data:x48>
					<data:x49>0.0</data:x49>
					<data:x50>0.0</data:x50>
					<data:x51>0.0</data:x51>
					<data:x52>0.0</data:x52>
					<data:x53>0.0</data:x53>
					<data:x54>0.0</data:x54>
					<data:x55>0.0</data:x55>
					<data:x56>0.0</data:x56>
					<data:x57>0.0</data:x57>
					<data:x58>0.0</data:x58>
					<data:x59>0.1919191919191919</data:x59>
					<data:x60>0.4527777777777778</data:x60>
				</row>
				<row>
					<data:y>9.0</data:y>
					<data:x1>0.0</data:x1>
					<data:x2>0.6363636363636364</data:x2>
					<data:x3>0.0</data:x3>
					<data:x4>0.0</data:x4>
					<data:x5>0.0</data:x5>
					<data:x6>0.0</data:x6>
					<data:x7>0.0</data:x7>
					<data:x8>0.0</data:x8>
					<data:x9>0.0</data:x9>
					<data:x10>0.0</data:x10>
					<data:x11>0.6363636363636364</data:x11>
					<data:x12>0.0</data:x12>
					<data:x13>0.0</data:x13>
					<data:x14>0.0</data:x14>
					<data:x15>0.41414141414141414</data:x15>
					<data:x16>0.0</data:x16>
					<data:x17>0.0</data:x17>
					<data:x18>0.0</data:x18>
					<data:x19>0.0</data:x19>
					<data:x20>0.0</data:x20>
					<data:x21>0.0</data:x21>
					<data:x22>0.0</data:x22>
					<data:x23>0.0</data:x23>
					<data:x24>0.0</data:x24>
					<data:x25>0.5555555555555556</data:x25>
					<data:x26>0.0</data:x26>
					<data:x27>0.0</data:x27>
					<data:x28>0.0</data:x28>
					<data:x29>0.0</data:x29>
					<data:x30>0.0</data:x30>
					<data:x31>0.26262626262626265</data:x31>
					<data:x32>0.0</data:x32>
					<data:x33>0.0</data:x33>
					<data:x34>0.37373737373737376</data:x34>
					<data:x35>0.7272727272727273</data:x35>
					<data:x36>0.3939393939393939</data:x36>
					<data:x37>0.0</data:x37>
					<data:x38>0.7777777777777778</data:x38>
					<data:x39>0.0</data:x39>
					<data:x40>0.0</data:x40>
					<data:x41>0.35353535353535354</data:x41>
					<data:x42>0.0</data:x42>
					<data:x43>0.0</data:x43>
					<data:x44>0.0</data:x44>
					<data:x45>0.0</data:x45>
					<data:x46>0.0</data:x46>
					<data:x47>0.0</data:x47>
					<data:x48>0.0</data:x48>
					<data:x49>0.0</data:x49>
					<data:x50>0.0</data:x50>
					<data:x51>0.0</data:x51>
					<data:x52>0.0</data:x52>
					<data:x53>0.0</data:x53>
					<data:x54>0.0</data:x54>
					<data:x55>0.0</data:x55>
					<data:x56>0.0</data:x56>
					<data:x57>0.0</data:x57>
					<data:x58>0.0</data:x58>
					<data:x59>0.1919191919191919</data:x59>
					<data:x60>0.7027777777777777</data:x60>
				</row>
				<row>
					<data:y>9.0</data:y>
					<data:x1>0.0</data:x1>
					<data:x2>0.7272727272727273</data:x2>
					<data:x3>0.0</data:x3>
					<data:x4>0.0</data:x4>
					<data:x5>0.0</data:x5>
					<data:x6>0.0</data:x6>
					<data:x7>0.0</data:x7>
					<data:x8>0.24242424242424243</data:x8>
					<data:x9>0.0</data:x9>
					<data:x10>0.0</data:x10>
					<data:x11>0.5757575757575758</data:x11>
					<data:x12>0.0</data:x12>
					<data:x13>0.0</data:x13>
					<data:x14>0.0</data:x14>
					<data:x15>0.41414141414141414</data:x15>
					<data:x16>0.0</data:x16>
					<data:x17>0.0</data:x17>
					<data:x18>0.0</data:x18>
					<data:x19>0.0</data:x19>
					<data:x20>0.0</data:x20>
					<data:x21>0.0</data:x21>
					<data:x22>0.0</data:x22>
					<data:x23>0.0</data:x23>
					<data:x24>0.0</data:x24>
					<data:x25>0.5555555555555556</data:x25>
					<data:x26>0.0</data:x26>
					<data:x27>0.0</data:x27>
					<data:x28>0.0</data:x28>
					<data:x29>0.0</data:x29>
					<data:x30>0.0</data:x30>
					<data:x31>0.35353535353535354</data:x31>
					<data:x32>0.0</data:x32>
					<data:x33>0.0</data:x33>
					<data:x34>0.0</data:x34>
					<data:x35>0.7272727272727273</data:x35>
					<data:x36>0.3939393939393939</data:x36>
					<data:x37>0.0</data:x37>
					<data:x38>0.7777777777777778</data:x38>
					<data:x39>0.0</data:x39>
					<data:x40>0.0</data:x40>
					<data:x41>0.35353535353535354</data:x41>
					<data:x42>0.0</data:x42>
					<data:x43>0.0</data:x43>
					<data:x44>0.0</data:x44>
					<data:x45>0.0</data:x45>
					<data:x46>0.0</data:x46>
					<data:x47>0.0</data:x47>
					<data:x48>0.0</data:x48>
					<data:x49>0.0</data:x49>
					<data:x50>0.0</data:x50>
					<data:x51>0.0</data:x51>
					<data:x52>0.0</data:x52>
					<data:x53>0.0</data:x53>
					<data:x54>0.0</data:x54>
					<data:x55>0.0</data:x55>
					<data:x56>0.0</data:x56>
					<data:x57>0.0</data:x57>
					<data:x58>0.0</data:x58>
					<data:x59>0.1919191919191919</data:x59>
					<data:x60>0.9666666666666667</data:x60>
				</row>
				<row>
					<data:y>10.0</data:y>
					<data:x1>0.0</data:x1>
					<data:x2>0.6363636363636364</data:x2>
					<data:x3>0.0</data:x3>
					<data:x4>0.0</data:x4>
					<data:x5>0.0</data:x5>
					<data:x6>0.0</data:x6>
					<data:x7>0.0</data:x7>
					<data:x8>0.24242424242424243</data:x8>
					<data:x9>0.0</data:x9>
					<data:x10>0.0</data:x10>
					<data:x11>0.5959595959595959</data:x11>
					<data:x12>0.0</data:x12>
					<data:x13>0.0</data:x13>
					<data:x14>0.0</data:x14>
					<data:x15>0.41414141414141414</data:x15>
					<data:x16>0.0</data:x16>
					<data:x17>0.0</data:x17>
					<data:x18>0.0</data:x18>
					<data:x19>0.0</data:x19>
					<data:x20>0.0</data:x20>
					<data:x21>0.0</data:x21>
					<data:x22>0.0</data:x22>
					<data:x23>0.0</data:x23>
					<data:x24>0.0</data:x24>
					<data:x25>0.5959595959595959</data:x25>
					<data:x26>0.0</data:x26>
					<data:x27>0.0</data:x27>
					<data:x28>0.0</data:x28>
					<data:x29>0.0</data:x29>
					<data:x30>0.0</data:x30>
					<data:x31>0.35353535353535354</data:x31>
					<data:x32>0.0</data:x32>
					<data:x33>0.0</data:x33>
					<data:x34>0.3939393939393939</data:x34>
					<data:x35>0.8888888888888888</data:x35>
					<data:x36>0.5959595959595959</data:x36>
					<data:x37>0.0</data:x37>
					<data:x38>0.8888888888888888</data:x38>
					<data:x39>0.0</data:x39>
					<data:x40>0.0</data:x40>
					<data:x41>0.0</data:x41>
					<data:x42>0.0</data:x42>
					<data:x43>0.0</data:x43>
					<data:x44>0.0</data:x44>
					<data:x45>0.0</data:x45>
					<data:x46>0.0</data:x46>
					<data:x47>0.0</data:x47>
					<data:x48>0.0</data:x48>
					<data:x49>0.0</data:x49>
					<data:x50>0.0</data:x50>
					<data:x51>0.0</data:x51>
					<data:x52>0.0</data:x52>
					<data:x53>0.0</data:x53>
					<data:x54>0.0</data:x54>
					<data:x55>0.0</data:x55>
					<data:x56>0.0</data:x56>
					<data:x57>0.0</data:x57>
					<data:x58>0.0</data:x58>
					<data:x59>0.1919191919191919</data:x59>
					<data:x60>0.18611111111111112</data:x60>
				</row>
				<row>
					<data:y>10.0</data:y>
					<data:x1>0.0</data:x1>
					<data:x2>0.5959595959595959</data:x2>
					<data:x3>0.0</data:x3>
					<data:x4>0.0</data:x4>
					<data:x5>0.0</data:x5>
					<data:x6>0.0</data:x6>
					<data:x7>0.0</data:x7>
					<data:x8>0.24242424242424243</data:x8>
					<data:x9>0.0</data:x9>
					<data:x10>0.0</data:x10>
					<data:x11>0.3939393939393939</data:x11>
					<data:x12>0.0</data:x12>
					<data:x13>0.0</data:x13>
					<data:x14>0.0</data:x14>
					<data:x15>0.37373737373737376</data:x15>
					<data:x16>0.0</data:x16>
					<data:x17>0.0</data:x17>
					<data:x18>0.0</data:x18>
					<data:x19>0.0</data:x19>
					<data:x20>0.0</data:x20>
					<data:x21>0.0</data:x21>
					<data:x22>0.0</data:x22>
					<data:x23>0.0</data:x23>
					<data:x24>0.0</data:x24>
					<data:x25>0.5252525252525253</data:x25>
					<data:x26>0.0</data:x26>
					<data:x27>0.0</data:x27>
					<data:x28>0.0</data:x28>
					<data:x29>0.0</data:x29>
					<data:x30>0.0</data:x30>
					<data:x31>0.24242424242424243</data:x31>
					<data:x32>0.0</data:x32>
					<data:x33>0.0</data:x33>
					<data:x34>0.3939393939393939</data:x34>
					<data:x35>0.797979797979798</data:x35>
					<data:x36>0.46464646464646464</data:x36>
					<data:x37>0.0</data:x37>
					<data:x38>1.0</data:x38>
					<data:x39>0.0</data:x39>
					<data:x40>0.0</data:x40>
					<data:x41>0.1919191919191919</data:x41>
					<data:x42>0.0</data:x42>
					<data:x43>0.0</data:x43>
					<data:x44>0.0</data:x44>
					<data:x45>0.0</data:x45>
					<data:x46>0.0</data:x46>
					<data:x47>0.0</data:x47>
					<data:x48>0.0</data:x48>
					<data:x49>0.0</data:x49>
					<data:x50>0.0</data:x50>
					<data:x51>0.0</data:x51>
					<data:x52>0.0</data:x52>
					<data:x53>0.0</data:x53>
					<data:x54>0.0</data:x54>
					<data:x55>0.0</data:x55>
					<data:x56>0.0</data:x56>
					<data:x57>0.0</data:x57>
					<data:x58>0.0</data:x58>
					<data:x59>0.1919191919191919</data:x59>
					<data:x60>0.4444444444444444</data:x60>
				</row>
				<row>
					<data:y>10.0</data:y>
					<data:x1>0.0</data:x1>
					<data:x2>0.5959595959595959</data:x2>
					<data:x3>0.0</data:x3>
					<data:x4>0.0</data:x4>
					<data:x5>0.0</data:x5>
					<data:x6>0.0</data:x6>
					<data:x7>0.0</data:x7>
					<data:x8>0.1919191919191919</data:x8>
					<data:x9>0.0</data:x9>
					<data:x10>0.0</data:x10>
					<data:x11>0.3939393939393939</data:x11>
					<data:x12>0.0</data:x12>
					<data:x13>0.0</data:x13>
					<data:x14>0.0</data:x14>
					<data:x15>0.37373737373737376</data:x15>
					<data:x16>0.0</data:x16>
					<data:x17>0.0</data:x17>
					<data:x18>0.0</data:x18>
					<data:x19>0.0</data:x19>
					<data:x20>0.0</data:x20>
					<data:x21>0.0</data:x21>
					<data:x22>0.0</data:x22>
					<data:x23>0.0</data:x23>
					<data:x24>0.0</data:x24>
					<data:x25>0.6161616161616161</data:x25>
					<data:x26>0.0</data:x26>
					<data:x27>0.0</data:x27>
					<data:x28>0.0</data:x28>
					<data:x29>0.0</data:x29>
					<data:x30>0.0</data:x30>
					<data:x31>0.24242424242424243</data:x31>
					<data:x32>0.0</data:x32>
					<data:x33>0.0</data:x33>
					<data:x34>0.3939393939393939</data:x34>
					<data:x35>0.9090909090909091</data:x35>
					<data:x36>0.46464646464646464</data:x36>
					<data:x37>0.0</data:x37>
					<data:x38>0.8181818181818182</data:x38>
					<data:x39>0.0</data:x39>
					<data:x40>0.0</data:x40>
					<data:x41>0.1919191919191919</data:x41>
					<data:x42>0.0</data:x42>
					<data:x43>0.0</data:x43>
					<data:x44>0.0</data:x44>
					<data:x45>0.0</data:x45>
					<data:x46>0.0</data:x46>
					<data:x47>0.0</data:x47>
					<data:x48>0.0</data:x48>
					<data:x49>0.0</data:x49>
					<data:x50>0.0</data:x50>
					<data:x51>0.0</data:x51>
					<data:x52>0.0</data:x52>
					<data:x53>0.0</data:x53>
					<data:x54>0.0</data:x54>
					<data:x55>0.0</data:x55>
					<data:x56>0.0</data:x56>
					<data:x57>0.0</data:x57>
					<data:x58>0.0</data:x58>
					<data:x59>0.1919191919191919</data:x59>
					<data:x60>0.6888888888888889</data:x60>
				</row>
				<row>
					<data:y>10.0</data:y>
					<data:x1>0.0</data:x1>
					<data:x2>0.5757575757575758</data:x2>
					<data:x3>0.0</data:x3>
					<data:x4>0.0</data:x4>
					<data:x5>0.0</data:x5>
					<data:x6>0.0</data:x6>
					<data:x7>0.0</data:x7>
					<data:x8>0.24242424242424243</data:x8>
					<data:x9>0.0</data:x9>
					<data:x10>0.0</data:x10>
					<data:x11>0.6363636363636364</data:x11>
					<data:x12>0.0</data:x12>
					<data:x13>0.0</data:x13>
					<data:x14>0.0</data:x14>
					<data:x15>0.35353535353535354</data:x15>
					<data:x16>0.0</data:x16>
					<data:x17>0.0</data:x17>
					<data:x18>0.0</data:x18>
					<data:x19>0.0</data:x19>
					<data:x20>0.0</data:x20>
					<data:x21>0.0</data:x21>
					<data:x22>0.0</data:x22>
					<data:x23>0.0</data:x23>
					<data:x24>0.0</data:x24>
					<data:x25>0.7272727272727273</data:x25>
					<data:x26>0.0</data:x26>
					<data:x27>0.0</data:x27>
					<data:x28>0.0</data:x28>
					<data:x29>0.0</data:x29>
					<data:x30>0.0</data:x30>
					<data:x31>0.3939393939393939</data:x31>
					<data:x32>0.0</data:x32>
					<data:x33>0.0</data:x33>
					<data:x34>0.3333333333333333</data:x34>
					<data:x35>0.7070707070707071</data:x35>
					<data:x36>0.5555555555555556</data:x36>
					<data:x37>0.0</data:x37>
					<data:x38>0.8181818181818182</data:x38>
					<data:x39>0.0</data:x39>
					<data:x40>0.0</data:x40>
					<data:x41>0.1919191919191919</data:x41>
					<data:x42>0.2222222222222222</data:x42>
					<data:x43>0.0</data:x43>
					<data:x44>0.0</data:x44>
					<data:x45>0.0</data:x45>
					<data:x46>0.0</data:x46>
					<data:x47>0.0</data:x47>
					<data:x48>0.0</data:x48>
					<data:x49>0.0</data:x49>
					<data:x50>0.0</data:x50>
					<data:x51>0.0</data:x51>
					<data:x52>0.0</data:x52>
					<data:x53>0.0</data:x53>
					<data:x54>0.0</data:x54>
					<data:x55>0.0</data:x55>
					<data:x56>0.0</data:x56>
					<data:x57>0.0</data:x57>
					<data:x58>0.0</data:x58>
					<data:x59>0.1919191919191919</data:x59>
					<data:x60>0.9444444444444444</data:x60>
				</row>
				<row>
					<data:y>11.0</data:y>
					<data:x1>0.0</data:x1>
					<data:x2>0.5959595959595959</data:x2>
					<data:x3>0.0</data:x3>
					<data:x4>0.0</data:x4>
					<data:x5>0.0</data:x5>
					<data:x6>0.0</data:x6>
					<data:x7>0.0</data:x7>
					<data:x8>0.30303030303030304</data:x8>
					<data:x9>0.0</data:x9>
					<data:x10>0.0</data:x10>
					<data:x11>0.7070707070707071</data:x11>
					<data:x12>0.0</data:x12>
					<data:x13>0.0</data:x13>
					<data:x14>0.0</data:x14>
					<data:x15>0.48484848484848486</data:x15>
					<data:x16>0.0</data:x16>
					<data:x17>0.0</data:x17>
					<data:x18>0.0</data:x18>
					<data:x19>0.0</data:x19>
					<data:x20>0.0</data:x20>
					<data:x21>0.0</data:x21>
					<data:x22>0.0</data:x22>
					<data:x23>0.0</data:x23>
					<data:x24>0.0</data:x24>
					<data:x25>0.8383838383838383</data:x25>
					<data:x26>0.0</data:x26>
					<data:x27>0.0</data:x27>
					<data:x28>0.0</data:x28>
					<data:x29>0.0</data:x29>
					<data:x30>0.0</data:x30>
					<data:x31>0.3939393939393939</data:x31>
					<data:x32>0.0</data:x32>
					<data:x33>0.0</data:x33>
					<data:x34>0.46464646464646464</data:x34>
					<data:x35>1.0</data:x35>
					<data:x36>0.5757575757575758</data:x36>
					<data:x37>0.0</data:x37>
					<data:x38>0.9292929292929293</data:x38>
					<data:x39>0.0</data:x39>
					<data:x40>0.0</data:x40>
					<data:x41>0.2828282828282828</data:x41>
					<data:x42>0.2222222222222222</data:x42>
					<data:x43>0.0</data:x43>
					<data:x44>0.0</data:x44>
					<data:x45>0.0</data:x45>
					<data:x46>0.0</data:x46>
					<data:x47>0.0</data:x47>
					<data:x48>0.0</data:x48>
					<data:x49>0.0</data:x49>
					<data:x50>0.0</data:x50>
					<data:x51>0.0</data:x51>
					<data:x52>0.0</data:x52>
					<data:x53>0.0</data:x53>
					<data:x54>0.0</data:x54>
					<data:x55>0.0</data:x55>
					<data:x56>0.0</data:x56>
					<data:x57>0.0</data:x57>
					<data:x58>0.0</data:x58>
					<data:x59>0.0</data:x59>
					<data:x60>0.19444444444444445</data:x60>
				</row>
				<row>
					<data:y>11.0</data:y>
					<data:x1>0.0</data:x1>
					<data:x2>0.5050505050505051</data:x2>
					<data:x3>0.0</data:x3>
					<data:x4>0.0</data:x4>
					<data:x5>0.0</data:x5>
					<data:x6>0.0</data:x6>
					<data:x7>0.0</data:x7>
					<data:x8>0.30303030303030304</data:x8>
					<data:x9>0.0</data:x9>
					<data:x10>0.0</data:x10>
					<data:x11>0.5757575757575758</data:x11>
					<data:x12>0.0</data:x12>
					<data:x13>0.0</data:x13>
					<data:x14>0.0</data:x14>
					<data:x15>0.2828282828282828</data:x15>
					<data:x16>0.0</data:x16>
					<data:x17>0.0</data:x17>
					<data:x18>0.0</data:x18>
					<data:x19>0.0</data:x19>
					<data:x20>0.0</data:x20>
					<data:x21>0.0</data:x21>
					<data:x22>0.0</data:x22>
					<data:x23>0.0</data:x23>
					<data:x24>0.0</data:x24>
					<data:x25>0.6161616161616161</data:x25>
					<data:x26>0.0</data:x26>
					<data:x27>0.0</data:x27>
					<data:x28>0.0</data:x28>
					<data:x29>0.0</data:x29>
					<data:x30>0.0</data:x30>
					<data:x31>0.26262626262626265</data:x31>
					<data:x32>0.0</data:x32>
					<data:x33>0.0</data:x33>
					<data:x34>0.46464646464646464</data:x34>
					<data:x35>0.8888888888888888</data:x35>
					<data:x36>0.48484848484848486</data:x36>
					<data:x37>0.0</data:x37>
					<data:x38>0.9494949494949495</data:x38>
					<data:x39>0.0</data:x39>
					<data:x40>0.0</data:x40>
					<data:x41>0.2828282828282828</data:x41>
					<data:x42>0.2222222222222222</data:x42>
					<data:x43>0.0</data:x43>
					<data:x44>0.0</data:x44>
					<data:x45>0.0</data:x45>
					<data:x46>0.0</data:x46>
					<data:x47>0.0</data:x47>
					<data:x48>0.0</data:x48>
					<data:x49>0.0</data:x49>
					<data:x50>0.0</data:x50>
					<data:x51>0.0</data:x51>
					<data:x52>0.0</data:x52>
					<data:x53>0.0</data:x53>
					<data:x54>0.0</data:x54>
					<data:x55>0.0</data:x55>
					<data:x56>0.0</data:x56>
					<data:x57>0.0</data:x57>
					<data:x58>0.0</data:x58>
					<data:x59>0.0</data:x59>
					<data:x60>0.4388888888888889</data:x60>
				</row>
				<row>
					<data:y>11.0</data:y>
					<data:x1>0.0</data:x1>
					<data:x2>0.5050505050505051</data:x2>
					<data:x3>0.0</data:x3>
					<data:x4>0.0</data:x4>
					<data:x5>0.0</data:x5>
					<data:x6>0.0</data:x6>
					<data:x7>0.0</data:x7>
					<data:x8>0.30303030303030304</data:x8>
					<data:x9>0.0</data:x9>
					<data:x10>0.0</data:x10>
					<data:x11>0.5757575757575758</data:x11>
					<data:x12>0.0</data:x12>
					<data:x13>0.0</data:x13>
					<data:x14>0.0</data:x14>
					<data:x15>0.2828282828282828</data:x15>
					<data:x16>0.0</data:x16>
					<data:x17>0.0</data:x17>
					<data:x18>0.0</data:x18>
					<data:x19>0.0</data:x19>
					<data:x20>0.0</data:x20>
					<data:x21>0.0</data:x21>
					<data:x22>0.0</data:x22>
					<data:x23>0.0</data:x23>
					<data:x24>0.0</data:x24>
					<data:x25>0.6161616161616161</data:x25>
					<data:x26>0.0</data:x26>
					<data:x27>0.0</data:x27>
					<data:x28>0.0</data:x28>
					<data:x29>0.0</data:x29>
					<data:x30>0.0</data:x30>
					<data:x31>0.26262626262626265</data:x31>
					<data:x32>0.0</data:x32>
					<data:x33>0.0</data:x33>
					<data:x34>0.46464646464646464</data:x34>
					<data:x35>0.8888888888888888</data:x35>
					<data:x36>0.48484848484848486</data:x36>
					<data:x37>0.0</data:x37>
					<data:x38>0.9494949494949495</data:x38>
					<data:x39>0.0</data:x39>
					<data:x40>0.0</data:x40>
					<data:x41>0.2828282828282828</data:x41>
					<data:x42>0.2222222222222222</data:x42>
					<data:x43>0.0</data:x43>
					<data:x44>0.0</data:x44>
					<data:x45>0.0</data:x45>
					<data:x46>0.0</data:x46>
					<data:x47>0.0</data:x47>
					<data:x48>0.0</data:x48>
					<data:x49>0.0</data:x49>
					<data:x50>0.0</data:x50>
					<data:x51>0.0</data:x51>
					<data:x52>0.0</data:x52>
					<data:x53>0.0</data:x53>
					<data:x54>0.0</data:x54>
					<data:x55>0.0</data:x55>
					<data:x56>0.0</data:x56>
					<data:x57>0.0</data:x57>
					<data:x58>0.0</data:x58>
					<data:x59>0.0</data:x59>
					<data:x60>0.6777777777777778</data:x60>
				</row>
				<row>
					<data:y>11.0</data:y>
					<data:x1>0.0</data:x1>
					<data:x2>0.5050505050505051</data:x2>
					<data:x3>0.0</data:x3>
					<data:x4>0.0</data:x4>
					<data:x5>0.0</data:x5>
					<data:x6>0.0</data:x6>
					<data:x7>0.0</data:x7>
					<data:x8>0.30303030303030304</data:x8>
					<data:x9>0.0</data:x9>
					<data:x10>0.0</data:x10>
					<data:x11>0.5757575757575758</data:x11>
					<data:x12>0.0</data:x12>
					<data:x13>0.0</data:x13>
					<data:x14>0.0</data:x14>
					<data:x15>0.2828282828282828</data:x15>
					<data:x16>0.0</data:x16>
					<data:x17>0.0</data:x17>
					<data:x18>0.0</data:x18>
					<data:x19>0.0</data:x19>
					<data:x20>0.0</data:x20>
					<data:x21>0.0</data:x21>
					<data:x22>0.0</data:x22>
					<data:x23>0.0</data:x23>
					<data:x24>0.0</data:x24>
					<data:x25>0.6161616161616161</data:x25>
					<data:x26>0.0</data:x26>
					<data:x27>0.0</data:x27>
					<data:x28>0.0</data:x28>
					<data:x29>0.0</data:x29>
					<data:x30>0.0</data:x30>
					<data:x31>0.26262626262626265</data:x31>
					<data:x32>0.0</data:x32>
					<data:x33>0.0</data:x33>
					<data:x34>0.46464646464646464</data:x34>
					<data:x35>0.8888888888888888</data:x35>
					<data:x36>0.48484848484848486</data:x36>
					<data:x37>0.0</data:x37>
					<data:x38>0.9494949494949495</data:x38>
					<data:x39>0.0</data:x39>
					<data:x40>0.0</data:x40>
					<data:x41>0.2828282828282828</data:x41>
					<data:x42>0.2222222222222222</data:x42>
					<data:x43>0.0</data:x43>
					<data:x44>0.0</data:x44>
					<data:x45>0.0</data:x45>
					<data:x46>0.0</data:x46>
					<data:x47>0.0</data:x47>
					<data:x48>0.0</data:x48>
					<data:x49>0.0</data:x49>
					<data:x50>0.0</data:x50>
					<data:x51>0.0</data:x51>
					<data:x52>0.0</data:x52>
					<data:x53>0.0</data:x53>
					<data:x54>0.0</data:x54>
					<data:x55>0.0</data:x55>
					<data:x56>0.0</data:x56>
					<data:x57>0.0</data:x57>
					<data:x58>0.0</data:x58>
					<data:x59>0.0</data:x59>
					<data:x60>0.9333333333333333</data:x60>
				</row>
				<row>
					<data:y>12.0</data:y>
					<data:x1>0.0</data:x1>
					<data:x2>0.5555555555555556</data:x2>
					<data:x3>0.0</data:x3>
					<data:x4>0.0</data:x4>
					<data:x5>0.0</data:x5>
					<data:x6>0.0</data:x6>
					<data:x7>0.0</data:x7>
					<data:x8>0.1919191919191919</data:x8>
					<data:x9>0.0</data:x9>
					<data:x10>0.0</data:x10>
					<data:x11>0.7272727272727273</data:x11>
					<data:x12>0.0</data:x12>
					<data:x13>0.46464646464646464</data:x13>
					<data:x14>0.0</data:x14>
					<data:x15>0.3333333333333333</data:x15>
					<data:x16>0.0</data:x16>
					<data:x17>0.0</data:x17>
					<data:x18>0.0</data:x18>
					<data:x19>0.0</data:x19>
					<data:x20>0.0</data:x20>
					<data:x21>0.0</data:x21>
					<data:x22>0.0</data:x22>
					<data:x23>0.2828282828282828</data:x23>
					<data:x24>0.0</data:x24>
					<data:x25>0.6161616161616161</data:x25>
					<data:x26>0.0</data:x26>
					<data:x27>0.0</data:x27>
					<data:x28>0.0</data:x28>
					<data:x29>0.0</data:x29>
					<data:x30>0.0</data:x30>
					<data:x31>0.26262626262626265</data:x31>
					<data:x32>0.0</data:x32>
					<data:x33>0.0</data:x33>
					<data:x34>0.3333333333333333</data:x34>
					<data:x35>0.9090909090909091</data:x35>
					<data:x36>0.5555555555555556</data:x36>
					<data:x37>0.0</data:x37>
					<data:x38>0.8383838383838383</data:x38>
					<data:x39>0.0</data:x39>
					<data:x40>0.0</data:x40>
					<data:x41>0.35353535353535354</data:x41>
					<data:x42>0.24242424242424243</data:x42>
					<data:x43>0.0</data:x43>
					<data:x44>0.0</data:x44>
					<data:x45>0.0</data:x45>
					<data:x46>0.0</data:x46>
					<data:x47>0.0</data:x47>
					<data:x48>0.0</data:x48>
					<data:x49>0.0</data:x49>
					<data:x50>0.0</data:x50>
					<data:x51>0.0</data:x51>
					<data:x52>0.0</data:x52>
					<data:x53>0.0</data:x53>
					<data:x54>0.0</data:x54>
					<data:x55>0.0</data:x55>
					<data:x56>0.0</data:x56>
					<data:x57>0.0</data:x57>
					<data:x58>0.0</data:x58>
					<data:x59>0.0</data:x59>
					<data:x60>0.21388888888888888</data:x60>
				</row>
				<row>
					<data:y>12.0</data:y>
					<data:x1>0.0</data:x1>
					<data:x2>0.5555555555555556</data:x2>
					<data:x3>0.0</data:x3>
					<data:x4>0.0</data:x4>
					<data:x5>0.0</data:x5>
					<data:x6>0.0</data:x6>
					<data:x7>0.0</data:x7>
					<data:x8>0.1919191919191919</data:x8>
					<data:x9>0.0</data:x9>
					<data:x10>0.0</data:x10>
					<data:x11>0.6868686868686869</data:x11>
					<data:x12>0.0</data:x12>
					<data:x13>0.46464646464646464</data:x13>
					<data:x14>0.0</data:x14>
					<data:x15>0.48484848484848486</data:x15>
					<data:x16>0.0</data:x16>
					<data:x17>0.0</data:x17>
					<data:x18>0.0</data:x18>
					<data:x19>0.0</data:x19>
					<data:x20>0.0</data:x20>
					<data:x21>0.0</data:x21>
					<data:x22>0.0</data:x22>
					<data:x23>0.2828282828282828</data:x23>
					<data:x24>0.0</data:x24>
					<data:x25>0.6161616161616161</data:x25>
					<data:x26>0.0</data:x26>
					<data:x27>0.0</data:x27>
					<data:x28>0.0</data:x28>
					<data:x29>0.0</data:x29>
					<data:x30>0.0</data:x30>
					<data:x31>0.35353535353535354</data:x31>
					<data:x32>0.0</data:x32>
					<data:x33>0.0</data:x33>
					<data:x34>0.3333333333333333</data:x34>
					<data:x35>0.797979797979798</data:x35>
					<data:x36>0.48484848484848486</data:x36>
					<data:x37>0.0</data:x37>
					<data:x38>0.8383838383838383</data:x38>
					<data:x39>0.0</data:x39>
					<data:x40>0.0</data:x40>
					<data:x41>0.3333333333333333</data:x41>
					<data:x42>0.24242424242424243</data:x42>
					<data:x43>0.0</data:x43>
					<data:x44>0.0</data:x44>
					<data:x45>0.0</data:x45>
					<data:x46>0.0</data:x46>
					<data:x47>0.0</data:x47>
					<data:x48>0.0</data:x48>
					<data:x49>0.0</data:x49>
					<data:x50>0.0</data:x50>
					<data:x51>0.0</data:x51>
					<data:x52>0.0</data:x52>
					<data:x53>0.0</data:x53>
					<data:x54>0.0</data:x54>
					<data:x55>0.0</data:x55>
					<data:x56>0.0</data:x56>
					<data:x57>0.0</data:x57>
					<data:x58>0.0</data:x58>
					<data:x59>0.0</data:x59>
					<data:x60>0.45555555555555555</data:x60>
				</row>
				<row>
					<data:y>12.0</data:y>
					<data:x1>0.0</data:x1>
					<data:x2>0.5555555555555556</data:x2>
					<data:x3>0.0</data:x3>
					<data:x4>0.0</data:x4>
					<data:x5>0.0</data:x5>
					<data:x6>0.0</data:x6>
					<data:x7>0.0</data:x7>
					<data:x8>0.1919191919191919</data:x8>
					<data:x9>0.0</data:x9>
					<data:x10>0.0</data:x10>
					<data:x11>0.6868686868686869</data:x11>
					<data:x12>0.0</data:x12>
					<data:x13>0.46464646464646464</data:x13>
					<data:x14>0.0</data:x14>
					<data:x15>0.48484848484848486</data:x15>
					<data:x16>0.0</data:x16>
					<data:x17>0.0</data:x17>
					<data:x18>0.0</data:x18>
					<data:x19>0.0</data:x19>
					<data:x20>0.0</data:x20>
					<data:x21>0.0</data:x21>
					<data:x22>0.0</data:x22>
					<data:x23>0.2828282828282828</data:x23>
					<data:x24>0.0</data:x24>
					<data:x25>0.6161616161616161</data:x25>
					<data:x26>0.0</data:x26>
					<data:x27>0.0</data:x27>
					<data:x28>0.0</data:x28>
					<data:x29>0.0</data:x29>
					<data:x30>0.0</data:x30>
					<data:x31>0.35353535353535354</data:x31>
					<data:x32>0.0</data:x32>
					<data:x33>0.0</data:x33>
					<data:x34>0.3333333333333333</data:x34>
					<data:x35>0.797979797979798</data:x35>
					<data:x36>0.48484848484848486</data:x36>
					<data:x37>0.0</data:x37>
					<data:x38>0.8383838383838383</data:x38>
					<data:x39>0.0</data:x39>
					<data:x40>0.0</data:x40>
					<data:x41>0.3333333333333333</data:x41>
					<data:x42>0.24242424242424243</data:x42>
					<data:x43>0.0</data:x43>
					<data:x44>0.0</data:x44>
					<data:x45>0.0</data:x45>
					<data:x46>0.0</data:x46>
					<data:x47>0.0</data:x47>
					<data:x48>0.0</data:x48>
					<data:x49>0.0</data:x49>
					<data:x50>0.0</data:x50>
					<data:x51>0.0</data:x51>
					<data:x52>0.0</data:x52>
					<data:x53>0.0</data:x53>
					<data:x54>0.0</data:x54>
					<data:x55>0.0</data:x55>
					<data:x56>0.0</data:x56>
					<data:x57>0.0</data:x57>
					<data:x58>0.0</data:x58>
					<data:x59>0.0</data:x59>
					<data:x60>0.7027777777777777</data:x60>
				</row>
				<row>
					<data:y>12.0</data:y>
					<data:x1>0.0</data:x1>
					<data:x2>0.5959595959595959</data:x2>
					<data:x3>0.0</data:x3>
					<data:x4>0.0</data:x4>
					<data:x5>0.0</data:x5>
					<data:x6>0.0</data:x6>
					<data:x7>0.0</data:x7>
					<data:x8>0.1919191919191919</data:x8>
					<data:x9>0.0</data:x9>
					<data:x10>0.0</data:x10>
					<data:x11>0.6161616161616161</data:x11>
					<data:x12>0.0</data:x12>
					<data:x13>0.46464646464646464</data:x13>
					<data:x14>0.0</data:x14>
					<data:x15>0.48484848484848486</data:x15>
					<data:x16>0.0</data:x16>
					<data:x17>0.0</data:x17>
					<data:x18>0.0</data:x18>
					<data:x19>0.0</data:x19>
					<data:x20>0.0</data:x20>
					<data:x21>0.0</data:x21>
					<data:x22>0.0</data:x22>
					<data:x23>0.2828282828282828</data:x23>
					<data:x24>0.0</data:x24>
					<data:x25>0.5757575757575758</data:x25>
					<data:x26>0.0</data:x26>
					<data:x27>0.0</data:x27>
					<data:x28>0.0</data:x28>
					<data:x29>0.0</data:x29>
					<data:x30>0.0</data:x30>
					<data:x31>0.35353535353535354</data:x31>
					<data:x32>0.0</data:x32>
					<data:x33>0.0</data:x33>
					<data:x34>0.3333333333333333</data:x34>
					<data:x35>0.8383838383838383</data:x35>
					<data:x36>0.48484848484848486</data:x36>
					<data:x37>0.0</data:x37>
					<data:x38>0.7070707070707071</data:x38>
					<data:x39>0.0</data:x39>
					<data:x40>0.0</data:x40>
					<data:x41>0.3333333333333333</data:x41>
					<data:x42>0.24242424242424243</data:x42>
					<data:x43>0.0</data:x43>
					<data:x44>0.0</data:x44>
					<data:x45>0.0</data:x45>
					<data:x46>0.0</data:x46>
					<data:x47>0.0</data:x47>
					<data:x48>0.0</data:x48>
					<data:x49>0.0</data:x49>
					<data:x50>0.0</data:x50>
					<data:x51>0.0</data:x51>
					<data:x52>0.0</data:x52>
					<data:x53>0.0</data:x53>
					<data:x54>0.0</data:x54>
					<data:x55>0.0</data:x55>
					<data:x56>0.0</data:x56>
					<data:x57>0.0</data:x57>
					<data:x58>0.0</data:x58>
					<data:x59>0.0</data:x59>
					<data:x60>0.9583333333333334</data:x60>
				</row>
				<row>
					<data:y>13.0</data:y>
					<data:x1>0.0</data:x1>
					<data:x2>0.7070707070707071</data:x2>
					<data:x3>0.0</data:x3>
					<data:x4>0.0</data:x4>
					<data:x5>0.0</data:x5>
					<data:x6>0.0</data:x6>
					<data:x7>0.0</data:x7>
					<data:x8>0.0</data:x8>
					<data:x9>0.0</data:x9>
					<data:x10>0.0</data:x10>
					<data:x11>0.7070707070707071</data:x11>
					<data:x12>0.0</data:x12>
					<data:x13>0.0</data:x13>
					<data:x14>0.0</data:x14>
					<data:x15>0.2828282828282828</data:x15>
					<data:x16>0.0</data:x16>
					<data:x17>0.0</data:x17>
					<data:x18>0.0</data:x18>
					<data:x19>0.0</data:x19>
					<data:x20>0.0</data:x20>
					<data:x21>0.0</data:x21>
					<data:x22>0.0</data:x22>
					<data:x23>0.0</data:x23>
					<data:x24>0.0</data:x24>
					<data:x25>0.5757575757575758</data:x25>
					<data:x26>0.0</data:x26>
					<data:x27>0.0</data:x27>
					<data:x28>0.0</data:x28>
					<data:x29>0.0</data:x29>
					<data:x30>0.0</data:x30>
					<data:x31>0.26262626262626265</data:x31>
					<data:x32>0.0</data:x32>
					<data:x33>0.0</data:x33>
					<data:x34>0.0</data:x34>
					<data:x35>0.9696969696969697</data:x35>
					<data:x36>0.6161616161616161</data:x36>
					<data:x37>0.0</data:x37>
					<data:x38>0.9292929292929293</data:x38>
					<data:x39>0.0</data:x39>
					<data:x40>0.0</data:x40>
					<data:x41>0.35353535353535354</data:x41>
					<data:x42>0.0</data:x42>
					<data:x43>0.0</data:x43>
					<data:x44>0.0</data:x44>
					<data:x45>0.0</data:x45>
					<data:x46>0.0</data:x46>
					<data:x47>0.0</data:x47>
					<data:x48>0.0</data:x48>
					<data:x49>0.0</data:x49>
					<data:x50>0.0</data:x50>
					<data:x51>0.0</data:x51>
					<data:x52>0.0</data:x52>
					<data:x53>0.0</data:x53>
					<data:x54>0.0</data:x54>
					<data:x55>0.0</data:x55>
					<data:x56>0.0</data:x56>
					<data:x57>0.0</data:x57>
					<data:x58>0.0</data:x58>
					<data:x59>0.0</data:x59>
					<data:x60>0.2861111111111111</data:x60>
				</row>
				<row>
					<data:y>13.0</data:y>
					<data:x1>0.0</data:x1>
					<data:x2>0.7070707070707071</data:x2>
					<data:x3>0.0</data:x3>
					<data:x4>0.0</data:x4>
					<data:x5>0.0</data:x5>
					<data:x6>0.0</data:x6>
					<data:x7>0.0</data:x7>
					<data:x8>0.0</data:x8>
					<data:x9>0.0</data:x9>
					<data:x10>0.0</data:x10>
					<data:x11>0.7070707070707071</data:x11>
					<data:x12>0.0</data:x12>
					<data:x13>0.0</data:x13>
					<data:x14>0.0</data:x14>
					<data:x15>0.2828282828282828</data:x15>
					<data:x16>0.0</data:x16>
					<data:x17>0.0</data:x17>
					<data:x18>0.0</data:x18>
					<data:x19>0.0</data:x19>
					<data:x20>0.0</data:x20>
					<data:x21>0.0</data:x21>
					<data:x22>0.0</data:x22>
					<data:x23>0.0</data:x23>
					<data:x24>0.0</data:x24>
					<data:x25>0.5757575757575758</data:x25>
					<data:x26>0.0</data:x26>
					<data:x27>0.0</data:x27>
					<data:x28>0.0</data:x28>
					<data:x29>0.0</data:x29>
					<data:x30>0.0</data:x30>
					<data:x31>0.26262626262626265</data:x31>
					<data:x32>0.0</data:x32>
					<data:x33>0.0</data:x33>
					<data:x34>0.0</data:x34>
					<data:x35>0.9696969696969697</data:x35>
					<data:x36>0.6161616161616161</data:x36>
					<data:x37>0.0</data:x37>
					<data:x38>0.9292929292929293</data:x38>
					<data:x39>0.0</data:x39>
					<data:x40>0.0</data:x40>
					<data:x41>0.35353535353535354</data:x41>
					<data:x42>0.0</data:x42>
					<data:x43>0.0</data:x43>
					<data:x44>0.0</data:x44>
					<data:x45>0.0</data:x45>
					<data:x46>0.0</data:x46>
					<data:x47>0.0</data:x47>
					<data:x48>0.0</data:x48>
					<data:x49>0.0</data:x49>
					<data:x50>0.0</data:x50>
					<data:x51>0.0</data:x51>
					<data:x52>0.0</data:x52>
					<data:x53>0.0</data:x53>
					<data:x54>0.0</data:x54>
					<data:x55>0.0</data:x55>
					<data:x56>0.0</data:x56>
					<data:x57>0.0</data:x57>
					<data:x58>0.0</data:x58>
					<data:x59>0.0</data:x59>
					<data:x60>0.49722222222222223</data:x60>
				</row>
				<row>
					<data:y>13.0</data:y>
					<data:x1>0.0</data:x1>
					<data:x2>0.5757575757575758</data:x2>
					<data:x3>0.0</data:x3>
					<data:x4>0.0</data:x4>
					<data:x5>0.0</data:x5>
					<data:x6>0.0</data:x6>
					<data:x7>0.0</data:x7>
					<data:x8>0.24242424242424243</data:x8>
					<data:x9>0.0</data:x9>
					<data:x10>0.0</data:x10>
					<data:x11>0.6161616161616161</data:x11>
					<data:x12>0.0</data:x12>
					<data:x13>0.0</data:x13>
					<data:x14>0.0</data:x14>
					<data:x15>0.5050505050505051</data:x15>
					<data:x16>0.0</data:x16>
					<data:x17>0.0</data:x17>
					<data:x18>0.0</data:x18>
					<data:x19>0.0</data:x19>
					<data:x20>0.0</data:x20>
					<data:x21>0.0</data:x21>
					<data:x22>0.0</data:x22>
					<data:x23>0.0</data:x23>
					<data:x24>0.0</data:x24>
					<data:x25>0.5050505050505051</data:x25>
					<data:x26>0.0</data:x26>
					<data:x27>0.0</data:x27>
					<data:x28>0.0</data:x28>
					<data:x29>0.0</data:x29>
					<data:x30>0.0</data:x30>
					<data:x31>0.26262626262626265</data:x31>
					<data:x32>0.0</data:x32>
					<data:x33>0.0</data:x33>
					<data:x34>0.30303030303030304</data:x34>
					<data:x35>0.6868686868686869</data:x35>
					<data:x36>0.6161616161616161</data:x36>
					<data:x37>0.0</data:x37>
					<data:x38>0.7777777777777778</data:x38>
					<data:x39>0.0</data:x39>
					<data:x40>0.0</data:x40>
					<data:x41>0.35353535353535354</data:x41>
					<data:x42>0.0</data:x42>
					<data:x43>0.0</data:x43>
					<data:x44>0.0</data:x44>
					<data:x45>0.0</data:x45>
					<data:x46>0.0</data:x46>
					<data:x47>0.0</data:x47>
					<data:x48>0.0</data:x48>
					<data:x49>0.0</data:x49>
					<data:x50>0.0</data:x50>
					<data:x51>0.0</data:x51>
					<data:x52>0.0</data:x52>
					<data:x53>0.0</data:x53>
					<data:x54>0.0</data:x54>
					<data:x55>0.0</data:x55>
					<data:x56>0.0</data:x56>
					<data:x57>0.0</data:x57>
					<data:x58>0.0</data:x58>
					<data:x59>0.0</data:x59>
					<data:x60>0.7305555555555555</data:x60>
				</row>
				<row>
					<data:y>13.0</data:y>
					<data:x1>0.0</data:x1>
					<data:x2>0.5757575757575758</data:x2>
					<data:x3>0.0</data:x3>
					<data:x4>0.0</data:x4>
					<data:x5>0.0</data:x5>
					<data:x6>0.0</data:x6>
					<data:x7>0.0</data:x7>
					<data:x8>0.26262626262626265</data:x8>
					<data:x9>0.0</data:x9>
					<data:x10>0.0</data:x10>
					<data:x11>0.5555555555555556</data:x11>
					<data:x12>0.0</data:x12>
					<data:x13>0.0</data:x13>
					<data:x14>0.0</data:x14>
					<data:x15>0.48484848484848486</data:x15>
					<data:x16>0.0</data:x16>
					<data:x17>0.0</data:x17>
					<data:x18>0.0</data:x18>
					<data:x19>0.0</data:x19>
					<data:x20>0.0</data:x20>
					<data:x21>0.0</data:x21>
					<data:x22>0.0</data:x22>
					<data:x23>0.0</data:x23>
					<data:x24>0.0</data:x24>
					<data:x25>0.5757575757575758</data:x25>
					<data:x26>0.0</data:x26>
					<data:x27>0.0</data:x27>
					<data:x28>0.0</data:x28>
					<data:x29>0.0</data:x29>
					<data:x30>0.0</data:x30>
					<data:x31>0.2222222222222222</data:x31>
					<data:x32>0.0</data:x32>
					<data:x33>0.0</data:x33>
					<data:x34>0.30303030303030304</data:x34>
					<data:x35>1.0</data:x35>
					<data:x36>0.5757575757575758</data:x36>
					<data:x37>0.0</data:x37>
					<data:x38>0.7070707070707071</data:x38>
					<data:x39>0.0</data:x39>
					<data:x40>0.0</data:x40>
					<data:x41>0.35353535353535354</data:x41>
					<data:x42>0.0</data:x42>
					<data:x43>0.0</data:x43>
					<data:x44>0.0</data:x44>
					<data:x45>0.0</data:x45>
					<data:x46>0.0</data:x46>
					<data:x47>0.0</data:x47>
					<data:x48>0.0</data:x48>
					<data:x49>0.0</data:x49>
					<data:x50>0.0</data:x50>
					<data:x51>0.0</data:x51>
					<data:x52>0.0</data:x52>
					<data:x53>0.0</data:x53>
					<data:x54>0.0</data:x54>
					<data:x55>0.0</data:x55>
					<data:x56>0.0</data:x56>
					<data:x57>0.0</data:x57>
					<data:x58>0.0</data:x58>
					<data:x59>0.0</data:x59>
					<data:x60>0.9861111111111112</data:x60>
				</row>
				<row>
					<data:y>13.0</data:y>
					<data:x1>0.0</data:x1>
					<data:x2>0.6666666666666666</data:x2>
					<data:x3>0.0</data:x3>
					<data:x4>0.0</data:x4>
					<data:x5>0.0</data:x5>
					<data:x6>0.0</data:x6>
					<data:x7>0.0</data:x7>
					<data:x8>0.37373737373737376</data:x8>
					<data:x9>0.0</data:x9>
					<data:x10>0.0</data:x10>
					<data:x11>0.6161616161616161</data:x11>
					<data:x12>0.0</data:x12>
					<data:x13>0.4444444444444444</data:x13>
					<data:x14>0.0</data:x14>
					<data:x15>0.3333333333333333</data:x15>
					<data:x16>0.0</data:x16>
					<data:x17>0.0</data:x17>
					<data:x18>0.0</data:x18>
					<data:x19>0.0</data:x19>
					<data:x20>0.0</data:x20>
					<data:x21>0.0</data:x21>
					<data:x22>0.0</data:x22>
					<data:x23>0.30303030303030304</data:x23>
					<data:x24>0.0</data:x24>
					<data:x25>0.7070707070707071</data:x25>
					<data:x26>0.0</data:x26>
					<data:x27>0.0</data:x27>
					<data:x28>0.0</data:x28>
					<data:x29>0.0</data:x29>
					<data:x30>0.0</data:x30>
					<data:x31>0.41414141414141414</data:x31>
					<data:x32>0.0</data:x32>
					<data:x33>0.0</data:x33>
					<data:x34>0.0</data:x34>
					<data:x35>1.0</data:x35>
					<data:x36>0.6868686868686869</data:x36>
					<data:x37>0.0</data:x37>
					<data:x38>0.9696969696969697</data:x38>
					<data:x39>0.0</data:x39>
					<data:x40>0.0</data:x40>
					<data:x41>0.3939393939393939</data:x41>
					<data:x42>0.0</data:x42>
					<data:x43>0.0</data:x43>
					<data:x44>0.0</data:x44>
					<data:x45>0.0</data:x45>
					<data:x46>0.0</data:x46>
					<data:x47>0.0</data:x47>
					<data:x48>0.0</data:x48>
					<data:x49>0.0</data:x49>
					<data:x50>0.0</data:x50>
					<data:x51>0.0</data:x51>
					<data:x52>0.0</data:x52>
					<data:x53>0.0</data:x53>
					<data:x54>0.0</data:x54>
					<data:x55>0.0</data:x55>
					<data:x56>0.0</data:x56>
					<data:x57>0.0</data:x57>
					<data:x58>0.0</data:x58>
					<data:x59>0.30303030303030304</data:x59>
					<data:x60>0.22777777777777777</data:x60>
				</row>
				<row>
					<data:y>13.0</data:y>
					<data:x1>0.0</data:x1>
					<data:x2>0.5050505050505051</data:x2>
					<data:x3>0.0</data:x3>
					<data:x4>0.0</data:x4>
					<data:x5>0.0</data:x5>
					<data:x6>0.0</data:x6>
					<data:x7>0.0</data:x7>
					<data:x8>0.37373737373737376</data:x8>
					<data:x9>0.0</data:x9>
					<data:x10>0.0</data:x10>
					<data:x11>0.6161616161616161</data:x11>
					<data:x12>0.0</data:x12>
					<data:x13>0.4444444444444444</data:x13>
					<data:x14>0.0</data:x14>
					<data:x15>0.3333333333333333</data:x15>
					<data:x16>0.0</data:x16>
					<data:x17>0.0</data:x17>
					<data:x18>0.0</data:x18>
					<data:x19>0.0</data:x19>
					<data:x20>0.0</data:x20>
					<data:x21>0.0</data:x21>
					<data:x22>0.0</data:x22>
					<data:x23>0.30303030303030304</data:x23>
					<data:x24>0.0</data:x24>
					<data:x25>0.5959595959595959</data:x25>
					<data:x26>0.0</data:x26>
					<data:x27>0.0</data:x27>
					<data:x28>0.0</data:x28>
					<data:x29>0.0</data:x29>
					<data:x30>0.0</data:x30>
					<data:x31>0.41414141414141414</data:x31>
					<data:x32>0.0</data:x32>
					<data:x33>0.0</data:x33>
					<data:x34>0.0</data:x34>
					<data:x35>0.8181818181818182</data:x35>
					<data:x36>0.6868686868686869</data:x36>
					<data:x37>0.0</data:x37>
					<data:x38>0.6363636363636364</data:x38>
					<data:x39>0.0</data:x39>
					<data:x40>0.0</data:x40>
					<data:x41>0.3939393939393939</data:x41>
					<data:x42>0.0</data:x42>
					<data:x43>0.0</data:x43>
					<data:x44>0.0</data:x44>
					<data:x45>0.0</data:x45>
					<data:x46>0.0</data:x46>
					<data:x47>0.0</data:x47>
					<data:x48>0.0</data:x48>
					<data:x49>0.0</data:x49>
					<data:x50>0.0</data:x50>
					<data:x51>0.0</data:x51>
					<data:x52>0.0</data:x52>
					<data:x53>0.0</data:x53>
					<data:x54>0.0</data:x54>
					<data:x55>0.0</data:x55>
					<data:x56>0.0</data:x56>
					<data:x57>0.0</data:x57>
					<data:x58>0.0</data:x58>
					<data:x59>0.30303030303030304</data:x59>
					<data:x60>0.475</data:x60>
				</row>
				<row>
					<data:y>13.0</data:y>
					<data:x1>0.0</data:x1>
					<data:x2>0.5050505050505051</data:x2>
					<data:x3>0.0</data:x3>
					<data:x4>0.0</data:x4>
					<data:x5>0.0</data:x5>
					<data:x6>0.0</data:x6>
					<data:x7>0.0</data:x7>
					<data:x8>0.37373737373737376</data:x8>
					<data:x9>0.0</data:x9>
					<data:x10>0.0</data:x10>
					<data:x11>0.3939393939393939</data:x11>
					<data:x12>0.0</data:x12>
					<data:x13>0.26262626262626265</data:x13>
					<data:x14>0.0</data:x14>
					<data:x15>0.24242424242424243</data:x15>
					<data:x16>0.0</data:x16>
					<data:x17>0.0</data:x17>
					<data:x18>0.0</data:x18>
					<data:x19>0.0</data:x19>
					<data:x20>0.0</data:x20>
					<data:x21>0.0</data:x21>
					<data:x22>0.0</data:x22>
					<data:x23>0.30303030303030304</data:x23>
					<data:x24>0.0</data:x24>
					<data:x25>0.3939393939393939</data:x25>
					<data:x26>0.0</data:x26>
					<data:x27>0.0</data:x27>
					<data:x28>0.0</data:x28>
					<data:x29>0.0</data:x29>
					<data:x30>0.0</data:x30>
					<data:x31>0.1717171717171717</data:x31>
					<data:x32>0.0</data:x32>
					<data:x33>0.0</data:x33>
					<data:x34>0.1919191919191919</data:x34>
					<data:x35>0.5555555555555556</data:x35>
					<data:x36>0.6868686868686869</data:x36>
					<data:x37>0.0</data:x37>
					<data:x38>0.6363636363636364</data:x38>
					<data:x39>0.0</data:x39>
					<data:x40>0.0</data:x40>
					<data:x41>0.3939393939393939</data:x41>
					<data:x42>0.0</data:x42>
					<data:x43>0.0</data:x43>
					<data:x44>0.0</data:x44>
					<data:x45>0.0</data:x45>
					<data:x46>0.0</data:x46>
					<data:x47>0.0</data:x47>
					<data:x48>0.0</data:x48>
					<data:x49>0.0</data:x49>
					<data:x50>0.0</data:x50>
					<data:x51>0.0</data:x51>
					<data:x52>0.0</data:x52>
					<data:x53>0.0</data:x53>
					<data:x54>0.0</data:x54>
					<data:x55>0.0</data:x55>
					<data:x56>0.0</data:x56>
					<data:x57>0.0</data:x57>
					<data:x58>0.0</data:x58>
					<data:x59>0.30303030303030304</data:x59>
					<data:x60>0.7138888888888889</data:x60>
				</row>
				<row>
					<data:y>13.0</data:y>
					<data:x1>0.0</data:x1>
					<data:x2>0.5050505050505051</data:x2>
					<data:x3>0.0</data:x3>
					<data:x4>0.0</data:x4>
					<data:x5>0.0</data:x5>
					<data:x6>0.0</data:x6>
					<data:x7>0.0</data:x7>
					<data:x8>0.37373737373737376</data:x8>
					<data:x9>0.0</data:x9>
					<data:x10>0.0</data:x10>
					<data:x11>0.3939393939393939</data:x11>
					<data:x12>0.0</data:x12>
					<data:x13>0.26262626262626265</data:x13>
					<data:x14>0.0</data:x14>
					<data:x15>0.24242424242424243</data:x15>
					<data:x16>0.0</data:x16>
					<data:x17>0.0</data:x17>
					<data:x18>0.0</data:x18>
					<data:x19>0.0</data:x19>
					<data:x20>0.0</data:x20>
					<data:x21>0.0</data:x21>
					<data:x22>0.0</data:x22>
					<data:x23>0.30303030303030304</data:x23>
					<data:x24>0.0</data:x24>
					<data:x25>0.3939393939393939</data:x25>
					<data:x26>0.0</data:x26>
					<data:x27>0.0</data:x27>
					<data:x28>0.0</data:x28>
					<data:x29>0.0</data:x29>
					<data:x30>0.0</data:x30>
					<data:x31>0.1717171717171717</data:x31>
					<data:x32>0.0</data:x32>
					<data:x33>0.0</data:x33>
					<data:x34>0.1919191919191919</data:x34>
					<data:x35>0.5555555555555556</data:x35>
					<data:x36>0.6868686868686869</data:x36>
					<data:x37>0.0</data:x37>
					<data:x38>0.6363636363636364</data:x38>
					<data:x39>0.0</data:x39>
					<data:x40>0.0</data:x40>
					<data:x41>0.3939393939393939</data:x41>
					<data:x42>0.0</data:x42>
					<data:x43>0.0</data:x43>
					<data:x44>0.0</data:x44>
					<data:x45>0.0</data:x45>
					<data:x46>0.0</data:x46>
					<data:x47>0.0</data:x47>
					<data:x48>0.0</data:x48>
					<data:x49>0.0</data:x49>
					<data:x50>0.0</data:x50>
					<data:x51>0.0</data:x51>
					<data:x52>0.0</data:x52>
					<data:x53>0.0</data:x53>
					<data:x54>0.0</data:x54>
					<data:x55>0.0</data:x55>
					<data:x56>0.0</data:x56>
					<data:x57>0.0</data:x57>
					<data:x58>0.0</data:x58>
					<data:x59>0.30303030303030304</data:x59>
					<data:x60>0.9611111111111111</data:x60>
				</row>
				<row>
					<data:y>12.0</data:y>
					<data:x1>0.0</data:x1>
					<data:x2>0.6161616161616161</data:x2>
					<data:x3>0.0</data:x3>
					<data:x4>0.0</data:x4>
					<data:x5>0.0</data:x5>
					<data:x6>0.0</data:x6>
					<data:x7>0.0</data:x7>
					<data:x8>0.0</data:x8>
					<data:x9>0.0</data:x9>
					<data:x10>0.0</data:x10>
					<data:x11>0.5050505050505051</data:x11>
					<data:x12>0.0</data:x12>
					<data:x13>0.0</data:x13>
					<data:x14>0.0</data:x14>
					<data:x15>0.41414141414141414</data:x15>
					<data:x16>0.0</data:x16>
					<data:x17>0.0</data:x17>
					<data:x18>0.0</data:x18>
					<data:x19>0.0</data:x19>
					<data:x20>0.0</data:x20>
					<data:x21>0.0</data:x21>
					<data:x22>0.0</data:x22>
					<data:x23>0.0</data:x23>
					<data:x24>0.0</data:x24>
					<data:x25>0.5959595959595959</data:x25>
					<data:x26>0.0</data:x26>
					<data:x27>0.0</data:x27>
					<data:x28>0.0</data:x28>
					<data:x29>0.0</data:x29>
					<data:x30>0.0</data:x30>
					<data:x31>0.3333333333333333</data:x31>
					<data:x32>0.0</data:x32>
					<data:x33>0.0</data:x33>
					<data:x34>0.3939393939393939</data:x34>
					<data:x35>1.0</data:x35>
					<data:x36>0.48484848484848486</data:x36>
					<data:x37>0.0</data:x37>
					<data:x38>1.0</data:x38>
					<data:x39>0.0</data:x39>
					<data:x40>0.0</data:x40>
					<data:x41>0.3333333333333333</data:x41>
					<data:x42>0.0</data:x42>
					<data:x43>0.0</data:x43>
					<data:x44>0.0</data:x44>
					<data:x45>0.0</data:x45>
					<data:x46>0.0</data:x46>
					<data:x47>0.0</data:x47>
					<data:x48>0.0</data:x48>
					<data:x49>0.0</data:x49>
					<data:x50>0.0</data:x50>
					<data:x51>0.0</data:x51>
					<data:x52>0.0</data:x52>
					<data:x53>0.0</data:x53>
					<data:x54>0.0</data:x54>
					<data:x55>0.0</data:x55>
					<data:x56>0.0</data:x56>
					<data:x57>0.0</data:x57>
					<data:x58>0.0</data:x58>
					<data:x59>0.0</data:x59>
					<data:x60>0.22777777777777777</data:x60>
				</row>
				<row>
					<data:y>12.0</data:y>
					<data:x1>0.0</data:x1>
					<data:x2>0.5252525252525253</data:x2>
					<data:x3>0.0</data:x3>
					<data:x4>0.0</data:x4>
					<data:x5>0.0</data:x5>
					<data:x6>0.0</data:x6>
					<data:x7>0.0</data:x7>
					<data:x8>0.0</data:x8>
					<data:x9>0.0</data:x9>
					<data:x10>0.0</data:x10>
					<data:x11>0.4444444444444444</data:x11>
					<data:x12>0.0</data:x12>
					<data:x13>0.0</data:x13>
					<data:x14>0.0</data:x14>
					<data:x15>0.35353535353535354</data:x15>
					<data:x16>0.0</data:x16>
					<data:x17>0.0</data:x17>
					<data:x18>0.0</data:x18>
					<data:x19>0.0</data:x19>
					<data:x20>0.0</data:x20>
					<data:x21>0.0</data:x21>
					<data:x22>0.0</data:x22>
					<data:x23>0.0</data:x23>
					<data:x24>0.0</data:x24>
					<data:x25>0.5959595959595959</data:x25>
					<data:x26>0.0</data:x26>
					<data:x27>0.0</data:x27>
					<data:x28>0.0</data:x28>
					<data:x29>0.0</data:x29>
					<data:x30>0.0</data:x30>
					<data:x31>0.3333333333333333</data:x31>
					<data:x32>0.0</data:x32>
					<data:x33>0.0</data:x33>
					<data:x34>0.3939393939393939</data:x34>
					<data:x35>0.6868686868686869</data:x35>
					<data:x36>0.48484848484848486</data:x36>
					<data:x37>0.0</data:x37>
					<data:x38>1.0</data:x38>
					<data:x39>0.0</data:x39>
					<data:x40>0.0</data:x40>
					<data:x41>0.1919191919191919</data:x41>
					<data:x42>0.0</data:x42>
					<data:x43>0.0</data:x43>
					<data:x44>0.0</data:x44>
					<data:x45>0.0</data:x45>
					<data:x46>0.0</data:x46>
					<data:x47>0.0</data:x47>
					<data:x48>0.0</data:x48>
					<data:x49>0.0</data:x49>
					<data:x50>0.0</data:x50>
					<data:x51>0.0</data:x51>
					<data:x52>0.0</data:x52>
					<data:x53>0.0</data:x53>
					<data:x54>0.0</data:x54>
					<data:x55>0.0</data:x55>
					<data:x56>0.0</data:x56>
					<data:x57>0.0</data:x57>
					<data:x58>0.0</data:x58>
					<data:x59>0.0</data:x59>
					<data:x60>0.475</data:x60>
				</row>
				<row>
					<data:y>12.0</data:y>
					<data:x1>0.0</data:x1>
					<data:x2>0.5252525252525253</data:x2>
					<data:x3>0.0</data:x3>
					<data:x4>0.0</data:x4>
					<data:x5>0.0</data:x5>
					<data:x6>0.0</data:x6>
					<data:x7>0.0</data:x7>
					<data:x8>0.0</data:x8>
					<data:x9>0.0</data:x9>
					<data:x10>0.0</data:x10>
					<data:x11>0.4444444444444444</data:x11>
					<data:x12>0.0</data:x12>
					<data:x13>0.0</data:x13>
					<data:x14>0.0</data:x14>
					<data:x15>0.35353535353535354</data:x15>
					<data:x16>0.0</data:x16>
					<data:x17>0.0</data:x17>
					<data:x18>0.0</data:x18>
					<data:x19>0.0</data:x19>
					<data:x20>0.0</data:x20>
					<data:x21>0.0</data:x21>
					<data:x22>0.0</data:x22>
					<data:x23>0.0</data:x23>
					<data:x24>0.0</data:x24>
					<data:x25>0.5959595959595959</data:x25>
					<data:x26>0.0</data:x26>
					<data:x27>0.0</data:x27>
					<data:x28>0.0</data:x28>
					<data:x29>0.0</data:x29>
					<data:x30>0.0</data:x30>
					<data:x31>0.3333333333333333</data:x31>
					<data:x32>0.0</data:x32>
					<data:x33>0.0</data:x33>
					<data:x34>0.3939393939393939</data:x34>
					<data:x35>0.6868686868686869</data:x35>
					<data:x36>0.48484848484848486</data:x36>
					<data:x37>0.0</data:x37>
					<data:x38>1.0</data:x38>
					<data:x39>0.0</data:x39>
					<data:x40>0.0</data:x40>
					<data:x41>0.1919191919191919</data:x41>
					<data:x42>0.0</data:x42>
					<data:x43>0.0</data:x43>
					<data:x44>0.0</data:x44>
					<data:x45>0.0</data:x45>
					<data:x46>0.0</data:x46>
					<data:x47>0.0</data:x47>
					<data:x48>0.0</data:x48>
					<data:x49>0.0</data:x49>
					<data:x50>0.0</data:x50>
					<data:x51>0.0</data:x51>
					<data:x52>0.0</data:x52>
					<data:x53>0.0</data:x53>
					<data:x54>0.0</data:x54>
					<data:x55>0.0</data:x55>
					<data:x56>0.0</data:x56>
					<data:x57>0.0</data:x57>
					<data:x58>0.0</data:x58>
					<data:x59>0.0</data:x59>
					<data:x60>0.7277777777777777</data:x60>
				</row>
				<row>
					<data:y>12.0</data:y>
					<data:x1>0.0</data:x1>
					<data:x2>0.5252525252525253</data:x2>
					<data:x3>0.0</data:x3>
					<data:x4>0.0</data:x4>
					<data:x5>0.0</data:x5>
					<data:x6>0.0</data:x6>
					<data:x7>0.0</data:x7>
					<data:x8>0.0</data:x8>
					<data:x9>0.0</data:x9>
					<data:x10>0.0</data:x10>
					<data:x11>0.4444444444444444</data:x11>
					<data:x12>0.0</data:x12>
					<data:x13>0.0</data:x13>
					<data:x14>0.0</data:x14>
					<data:x15>0.35353535353535354</data:x15>
					<data:x16>0.0</data:x16>
					<data:x17>0.0</data:x17>
					<data:x18>0.0</data:x18>
					<data:x19>0.0</data:x19>
					<data:x20>0.0</data:x20>
					<data:x21>0.0</data:x21>
					<data:x22>0.0</data:x22>
					<data:x23>0.0</data:x23>
					<data:x24>0.0</data:x24>
					<data:x25>0.5959595959595959</data:x25>
					<data:x26>0.0</data:x26>
					<data:x27>0.0</data:x27>
					<data:x28>0.0</data:x28>
					<data:x29>0.0</data:x29>
					<data:x30>0.0</data:x30>
					<data:x31>0.3333333333333333</data:x31>
					<data:x32>0.0</data:x32>
					<data:x33>0.0</data:x33>
					<data:x34>0.3939393939393939</data:x34>
					<data:x35>0.6868686868686869</data:x35>
					<data:x36>0.48484848484848486</data:x36>
					<data:x37>0.0</data:x37>
					<data:x38>1.0</data:x38>
					<data:x39>0.0</data:x39>
					<data:x40>0.0</data:x40>
					<data:x41>0.1919191919191919</data:x41>
					<data:x42>0.0</data:x42>
					<data:x43>0.0</data:x43>
					<data:x44>0.0</data:x44>
					<data:x45>0.0</data:x45>
					<data:x46>0.0</data:x46>
					<data:x47>0.0</data:x47>
					<data:x48>0.0</data:x48>
					<data:x49>0.0</data:x49>
					<data:x50>0.0</data:x50>
					<data:x51>0.0</data:x51>
					<data:x52>0.0</data:x52>
					<data:x53>0.0</data:x53>
					<data:x54>0.0</data:x54>
					<data:x55>0.0</data:x55>
					<data:x56>0.0</data:x56>
					<data:x57>0.0</data:x57>
					<data:x58>0.0</data:x58>
					<data:x59>0.0</data:x59>
					<data:x60>0.9805555555555555</data:x60>
				</row>
				<row>
					<data:y>14.0</data:y>
					<data:x1>0.0</data:x1>
					<data:x2>0.7272727272727273</data:x2>
					<data:x3>0.0</data:x3>
					<data:x4>0.0</data:x4>
					<data:x5>0.0</data:x5>
					<data:x6>0.0</data:x6>
					<data:x7>0.0</data:x7>
					<data:x8>0.0</data:x8>
					<data:x9>0.0</data:x9>
					<data:x10>0.0</data:x10>
					<data:x11>0.5050505050505051</data:x11>
					<data:x12>0.30303030303030304</data:x12>
					<data:x13>0.0</data:x13>
					<data:x14>0.0</data:x14>
					<data:x15>0.37373737373737376</data:x15>
					<data:x16>0.0</data:x16>
					<data:x17>0.0</data:x17>
					<data:x18>0.3333333333333333</data:x18>
					<data:x19>0.0</data:x19>
					<data:x20>0.0</data:x20>
					<data:x21>0.0</data:x21>
					<data:x22>0.0</data:x22>
					<data:x23>0.2828282828282828</data:x23>
					<data:x24>0.0</data:x24>
					<data:x25>0.6868686868686869</data:x25>
					<data:x26>0.0</data:x26>
					<data:x27>0.26262626262626265</data:x27>
					<data:x28>0.0</data:x28>
					<data:x29>0.0</data:x29>
					<data:x30>0.0</data:x30>
					<data:x31>0.37373737373737376</data:x31>
					<data:x32>0.0</data:x32>
					<data:x33>0.0</data:x33>
					<data:x34>0.0</data:x34>
					<data:x35>0.8585858585858586</data:x35>
					<data:x36>0.7272727272727273</data:x36>
					<data:x37>0.0</data:x37>
					<data:x38>0.7777777777777778</data:x38>
					<data:x39>0.0</data:x39>
					<data:x40>0.0</data:x40>
					<data:x41>0.35353535353535354</data:x41>
					<data:x42>0.24242424242424243</data:x42>
					<data:x43>0.0</data:x43>
					<data:x44>0.0</data:x44>
					<data:x45>0.0</data:x45>
					<data:x46>0.0</data:x46>
					<data:x47>0.0</data:x47>
					<data:x48>0.0</data:x48>
					<data:x49>0.1717171717171717</data:x49>
					<data:x50>0.0</data:x50>
					<data:x51>0.0</data:x51>
					<data:x52>0.0</data:x52>
					<data:x53>0.0</data:x53>
					<data:x54>0.0</data:x54>
					<data:x55>0.0</data:x55>
					<data:x56>0.0</data:x56>
					<data:x57>0.0</data:x57>
					<data:x58>0.0</data:x58>
					<data:x59>0.1919191919191919</data:x59>
					<data:x60>0.24444444444444444</data:x60>
				</row>
				<row>
					<data:y>14.0</data:y>
					<data:x1>0.0</data:x1>
					<data:x2>0.7272727272727273</data:x2>
					<data:x3>0.0</data:x3>
					<data:x4>0.0</data:x4>
					<data:x5>0.0</data:x5>
					<data:x6>0.0</data:x6>
					<data:x7>0.0</data:x7>
					<data:x8>0.0</data:x8>
					<data:x9>0.0</data:x9>
					<data:x10>0.0</data:x10>
					<data:x11>0.5050505050505051</data:x11>
					<data:x12>0.30303030303030304</data:x12>
					<data:x13>0.0</data:x13>
					<data:x14>0.0</data:x14>
					<data:x15>0.37373737373737376</data:x15>
					<data:x16>0.0</data:x16>
					<data:x17>0.0</data:x17>
					<data:x18>0.3333333333333333</data:x18>
					<data:x19>0.0</data:x19>
					<data:x20>0.0</data:x20>
					<data:x21>0.0</data:x21>
					<data:x22>0.0</data:x22>
					<data:x23>0.2828282828282828</data:x23>
					<data:x24>0.0</data:x24>
					<data:x25>0.6868686868686869</data:x25>
					<data:x26>0.0</data:x26>
					<data:x27>0.26262626262626265</data:x27>
					<data:x28>0.0</data:x28>
					<data:x29>0.0</data:x29>
					<data:x30>0.0</data:x30>
					<data:x31>0.37373737373737376</data:x31>
					<data:x32>0.0</data:x32>
					<data:x33>0.0</data:x33>
					<data:x34>0.0</data:x34>
					<data:x35>0.8585858585858586</data:x35>
					<data:x36>0.7272727272727273</data:x36>
					<data:x37>0.0</data:x37>
					<data:x38>0.7777777777777778</data:x38>
					<data:x39>0.0</data:x39>
					<data:x40>0.0</data:x40>
					<data:x41>0.35353535353535354</data:x41>
					<data:x42>0.24242424242424243</data:x42>
					<data:x43>0.0</data:x43>
					<data:x44>0.0</data:x44>
					<data:x45>0.0</data:x45>
					<data:x46>0.0</data:x46>
					<data:x47>0.0</data:x47>
					<data:x48>0.0</data:x48>
					<data:x49>0.1717171717171717</data:x49>
					<data:x50>0.0</data:x50>
					<data:x51>0.0</data:x51>
					<data:x52>0.0</data:x52>
					<data:x53>0.0</data:x53>
					<data:x54>0.0</data:x54>
					<data:x55>0.0</data:x55>
					<data:x56>0.0</data:x56>
					<data:x57>0.0</data:x57>
					<data:x58>0.0</data:x58>
					<data:x59>0.1919191919191919</data:x59>
					<data:x60>0.5</data:x60>
				</row>
				<row>
					<data:y>14.0</data:y>
					<data:x1>0.0</data:x1>
					<data:x2>0.7272727272727273</data:x2>
					<data:x3>0.0</data:x3>
					<data:x4>0.0</data:x4>
					<data:x5>0.0</data:x5>
					<data:x6>0.0</data:x6>
					<data:x7>0.0</data:x7>
					<data:x8>0.0</data:x8>
					<data:x9>0.0</data:x9>
					<data:x10>0.0</data:x10>
					<data:x11>0.35353535353535354</data:x11>
					<data:x12>0.30303030303030304</data:x12>
					<data:x13>0.0</data:x13>
					<data:x14>0.0</data:x14>
					<data:x15>0.37373737373737376</data:x15>
					<data:x16>0.0</data:x16>
					<data:x17>0.0</data:x17>
					<data:x18>0.3333333333333333</data:x18>
					<data:x19>0.0</data:x19>
					<data:x20>0.0</data:x20>
					<data:x21>0.0</data:x21>
					<data:x22>0.0</data:x22>
					<data:x23>0.2828282828282828</data:x23>
					<data:x24>0.0</data:x24>
					<data:x25>0.6868686868686869</data:x25>
					<data:x26>0.0</data:x26>
					<data:x27>0.26262626262626265</data:x27>
					<data:x28>0.0</data:x28>
					<data:x29>0.0</data:x29>
					<data:x30>0.0</data:x30>
					<data:x31>0.37373737373737376</data:x31>
					<data:x32>0.0</data:x32>
					<data:x33>0.0</data:x33>
					<data:x34>0.0</data:x34>
					<data:x35>0.6363636363636364</data:x35>
					<data:x36>0.7272727272727273</data:x36>
					<data:x37>0.0</data:x37>
					<data:x38>0.5050505050505051</data:x38>
					<data:x39>0.0</data:x39>
					<data:x40>0.0</data:x40>
					<data:x41>0.35353535353535354</data:x41>
					<data:x42>0.24242424242424243</data:x42>
					<data:x43>0.0</data:x43>
					<data:x44>0.0</data:x44>
					<data:x45>0.0</data:x45>
					<data:x46>0.0</data:x46>
					<data:x47>0.0</data:x47>
					<data:x48>0.0</data:x48>
					<data:x49>0.1717171717171717</data:x49>
					<data:x50>0.0</data:x50>
					<data:x51>0.0</data:x51>
					<data:x52>0.0</data:x52>
					<data:x53>0.0</data:x53>
					<data:x54>0.0</data:x54>
					<data:x55>0.0</data:x55>
					<data:x56>0.0</data:x56>
					<data:x57>0.0</data:x57>
					<data:x58>0.0</data:x58>
					<data:x59>0.0</data:x59>
					<data:x60>0.7472222222222222</data:x60>
				</row>
				<row>
					<data:y>14.0</data:y>
					<data:x1>0.0</data:x1>
					<data:x2>0.2828282828282828</data:x2>
					<data:x3>0.0</data:x3>
					<data:x4>0.0</data:x4>
					<data:x5>0.0</data:x5>
					<data:x6>0.0</data:x6>
					<data:x7>0.0</data:x7>
					<data:x8>0.0</data:x8>
					<data:x9>0.0</data:x9>
					<data:x10>0.0</data:x10>
					<data:x11>0.41414141414141414</data:x11>
					<data:x12>0.0</data:x12>
					<data:x13>0.0</data:x13>
					<data:x14>0.0</data:x14>
					<data:x15>0.37373737373737376</data:x15>
					<data:x16>0.0</data:x16>
					<data:x17>0.0</data:x17>
					<data:x18>0.3333333333333333</data:x18>
					<data:x19>0.0</data:x19>
					<data:x20>0.0</data:x20>
					<data:x21>0.0</data:x21>
					<data:x22>0.0</data:x22>
					<data:x23>0.2828282828282828</data:x23>
					<data:x24>0.0</data:x24>
					<data:x25>0.4444444444444444</data:x25>
					<data:x26>0.0</data:x26>
					<data:x27>0.26262626262626265</data:x27>
					<data:x28>0.0</data:x28>
					<data:x29>0.0</data:x29>
					<data:x30>0.0</data:x30>
					<data:x31>0.37373737373737376</data:x31>
					<data:x32>0.0</data:x32>
					<data:x33>0.0</data:x33>
					<data:x34>0.0</data:x34>
					<data:x35>0.7070707070707071</data:x35>
					<data:x36>0.7272727272727273</data:x36>
					<data:x37>0.0</data:x37>
					<data:x38>0.5050505050505051</data:x38>
					<data:x39>0.0</data:x39>
					<data:x40>0.0</data:x40>
					<data:x41>0.35353535353535354</data:x41>
					<data:x42>0.24242424242424243</data:x42>
					<data:x43>0.0</data:x43>
					<data:x44>0.0</data:x44>
					<data:x45>0.0</data:x45>
					<data:x46>0.0</data:x46>
					<data:x47>0.0</data:x47>
					<data:x48>0.0</data:x48>
					<data:x49>0.1717171717171717</data:x49>
					<data:x50>0.0</data:x50>
					<data:x51>0.0</data:x51>
					<data:x52>0.0</data:x52>
					<data:x53>0.0</data:x53>
					<data:x54>0.0</data:x54>
					<data:x55>0.0</data:x55>
					<data:x56>0.0</data:x56>
					<data:x57>0.0</data:x57>
					<data:x58>0.0</data:x58>
					<data:x59>0.0</data:x59>
					<data:x60>0.005555555555555556</data:x60>
				</row>
				<row>
					<data:y>15.0</data:y>
					<data:x1>0.0</data:x1>
					<data:x2>0.5555555555555556</data:x2>
					<data:x3>0.0</data:x3>
					<data:x4>0.0</data:x4>
					<data:x5>0.0</data:x5>
					<data:x6>0.0</data:x6>
					<data:x7>0.0</data:x7>
					<data:x8>0.0</data:x8>
					<data:x9>0.0</data:x9>
					<data:x10>0.0</data:x10>
					<data:x11>0.5252525252525253</data:x11>
					<data:x12>0.0</data:x12>
					<data:x13>0.3333333333333333</data:x13>
					<data:x14>0.0</data:x14>
					<data:x15>0.3333333333333333</data:x15>
					<data:x16>0.0</data:x16>
					<data:x17>0.0</data:x17>
					<data:x18>0.0</data:x18>
					<data:x19>0.0</data:x19>
					<data:x20>0.0</data:x20>
					<data:x21>0.0</data:x21>
					<data:x22>0.0</data:x22>
					<data:x23>0.0</data:x23>
					<data:x24>0.0</data:x24>
					<data:x25>0.5757575757575758</data:x25>
					<data:x26>0.0</data:x26>
					<data:x27>0.0</data:x27>
					<data:x28>0.0</data:x28>
					<data:x29>0.0</data:x29>
					<data:x30>0.0</data:x30>
					<data:x31>0.2828282828282828</data:x31>
					<data:x32>0.0</data:x32>
					<data:x33>0.0</data:x33>
					<data:x34>0.48484848484848486</data:x34>
					<data:x35>0.797979797979798</data:x35>
					<data:x36>0.0</data:x36>
					<data:x37>0.0</data:x37>
					<data:x38>0.7474747474747475</data:x38>
					<data:x39>0.0</data:x39>
					<data:x40>0.0</data:x40>
					<data:x41>0.26262626262626265</data:x41>
					<data:x42>0.0</data:x42>
					<data:x43>0.0</data:x43>
					<data:x44>0.0</data:x44>
					<data:x45>0.0</data:x45>
					<data:x46>0.0</data:x46>
					<data:x47>0.0</data:x47>
					<data:x48>0.0</data:x48>
					<data:x49>0.0</data:x49>
					<data:x50>0.0</data:x50>
					<data:x51>0.0</data:x51>
					<data:x52>0.0</data:x52>
					<data:x53>0.0</data:x53>
					<data:x54>0.0</data:x54>
					<data:x55>0.0</data:x55>
					<data:x56>0.0</data:x56>
					<data:x57>0.0</data:x57>
					<data:x58>0.0</data:x58>
					<data:x59>0.0</data:x59>
					<data:x60>0.2388888888888889</data:x60>
				</row>
				<row>
					<data:y>15.0</data:y>
					<data:x1>0.0</data:x1>
					<data:x2>0.5555555555555556</data:x2>
					<data:x3>0.0</data:x3>
					<data:x4>0.0</data:x4>
					<data:x5>0.0</data:x5>
					<data:x6>0.0</data:x6>
					<data:x7>0.0</data:x7>
					<data:x8>0.0</data:x8>
					<data:x9>0.0</data:x9>
					<data:x10>0.0</data:x10>
					<data:x11>0.41414141414141414</data:x11>
					<data:x12>0.0</data:x12>
					<data:x13>0.3333333333333333</data:x13>
					<data:x14>0.0</data:x14>
					<data:x15>0.3333333333333333</data:x15>
					<data:x16>0.0</data:x16>
					<data:x17>0.0</data:x17>
					<data:x18>0.0</data:x18>
					<data:x19>0.0</data:x19>
					<data:x20>0.0</data:x20>
					<data:x21>0.0</data:x21>
					<data:x22>0.0</data:x22>
					<data:x23>0.0</data:x23>
					<data:x24>0.0</data:x24>
					<data:x25>0.37373737373737376</data:x25>
					<data:x26>0.0</data:x26>
					<data:x27>0.0</data:x27>
					<data:x28>0.0</data:x28>
					<data:x29>0.0</data:x29>
					<data:x30>0.0</data:x30>
					<data:x31>0.2828282828282828</data:x31>
					<data:x32>0.0</data:x32>
					<data:x33>0.0</data:x33>
					<data:x34>0.48484848484848486</data:x34>
					<data:x35>0.4444444444444444</data:x35>
					<data:x36>0.0</data:x36>
					<data:x37>0.0</data:x37>
					<data:x38>0.5757575757575758</data:x38>
					<data:x39>0.0</data:x39>
					<data:x40>0.0</data:x40>
					<data:x41>0.2828282828282828</data:x41>
					<data:x42>0.0</data:x42>
					<data:x43>0.0</data:x43>
					<data:x44>0.0</data:x44>
					<data:x45>0.0</data:x45>
					<data:x46>0.0</data:x46>
					<data:x47>0.0</data:x47>
					<data:x48>0.0</data:x48>
					<data:x49>0.0</data:x49>
					<data:x50>0.0</data:x50>
					<data:x51>0.0</data:x51>
					<data:x52>0.0</data:x52>
					<data:x53>0.0</data:x53>
					<data:x54>0.0</data:x54>
					<data:x55>0.0</data:x55>
					<data:x56>0.0</data:x56>
					<data:x57>0.0</data:x57>
					<data:x58>0.0</data:x58>
					<data:x59>0.0</data:x59>
					<data:x60>0.5027777777777778</data:x60>
				</row>
				<row>
					<data:y>15.0</data:y>
					<data:x1>0.0</data:x1>
					<data:x2>0.5555555555555556</data:x2>
					<data:x3>0.0</data:x3>
					<data:x4>0.0</data:x4>
					<data:x5>0.0</data:x5>
					<data:x6>0.0</data:x6>
					<data:x7>0.0</data:x7>
					<data:x8>0.0</data:x8>
					<data:x9>0.0</data:x9>
					<data:x10>0.0</data:x10>
					<data:x11>0.41414141414141414</data:x11>
					<data:x12>0.0</data:x12>
					<data:x13>0.3333333333333333</data:x13>
					<data:x14>0.0</data:x14>
					<data:x15>0.3333333333333333</data:x15>
					<data:x16>0.0</data:x16>
					<data:x17>0.0</data:x17>
					<data:x18>0.0</data:x18>
					<data:x19>0.0</data:x19>
					<data:x20>0.0</data:x20>
					<data:x21>0.0</data:x21>
					<data:x22>0.0</data:x22>
					<data:x23>0.0</data:x23>
					<data:x24>0.0</data:x24>
					<data:x25>0.37373737373737376</data:x25>
					<data:x26>0.0</data:x26>
					<data:x27>0.0</data:x27>
					<data:x28>0.0</data:x28>
					<data:x29>0.0</data:x29>
					<data:x30>0.0</data:x30>
					<data:x31>0.2828282828282828</data:x31>
					<data:x32>0.0</data:x32>
					<data:x33>0.0</data:x33>
					<data:x34>0.48484848484848486</data:x34>
					<data:x35>0.4444444444444444</data:x35>
					<data:x36>0.0</data:x36>
					<data:x37>0.0</data:x37>
					<data:x38>0.5757575757575758</data:x38>
					<data:x39>0.0</data:x39>
					<data:x40>0.0</data:x40>
					<data:x41>0.2828282828282828</data:x41>
					<data:x42>0.0</data:x42>
					<data:x43>0.0</data:x43>
					<data:x44>0.0</data:x44>
					<data:x45>0.0</data:x45>
					<data:x46>0.0</data:x46>
					<data:x47>0.0</data:x47>
					<data:x48>0.0</data:x48>
					<data:x49>0.0</data:x49>
					<data:x50>0.0</data:x50>
					<data:x51>0.0</data:x51>
					<data:x52>0.0</data:x52>
					<data:x53>0.0</data:x53>
					<data:x54>0.0</data:x54>
					<data:x55>0.0</data:x55>
					<data:x56>0.0</data:x56>
					<data:x57>0.0</data:x57>
					<data:x58>0.0</data:x58>
					<data:x59>0.0</data:x59>
					<data:x60>0.75</data:x60>
				</row>
				<row>
					<data:y>15.0</data:y>
					<data:x1>0.0</data:x1>
					<data:x2>0.5555555555555556</data:x2>
					<data:x3>0.0</data:x3>
					<data:x4>0.0</data:x4>
					<data:x5>0.0</data:x5>
					<data:x6>0.0</data:x6>
					<data:x7>0.0</data:x7>
					<data:x8>0.0</data:x8>
					<data:x9>0.0</data:x9>
					<data:x10>0.0</data:x10>
					<data:x11>0.41414141414141414</data:x11>
					<data:x12>0.0</data:x12>
					<data:x13>0.3333333333333333</data:x13>
					<data:x14>0.0</data:x14>
					<data:x15>0.3333333333333333</data:x15>
					<data:x16>0.0</data:x16>
					<data:x17>0.0</data:x17>
					<data:x18>0.0</data:x18>
					<data:x19>0.0</data:x19>
					<data:x20>0.0</data:x20>
					<data:x21>0.0</data:x21>
					<data:x22>0.0</data:x22>
					<data:x23>0.0</data:x23>
					<data:x24>0.0</data:x24>
					<data:x25>0.37373737373737376</data:x25>
					<data:x26>0.0</data:x26>
					<data:x27>0.0</data:x27>
					<data:x28>0.0</data:x28>
					<data:x29>0.0</data:x29>
					<data:x30>0.0</data:x30>
					<data:x31>0.2828282828282828</data:x31>
					<data:x32>0.0</data:x32>
					<data:x33>0.0</data:x33>
					<data:x34>0.48484848484848486</data:x34>
					<data:x35>0.4444444444444444</data:x35>
					<data:x36>0.0</data:x36>
					<data:x37>0.0</data:x37>
					<data:x38>0.5757575757575758</data:x38>
					<data:x39>0.0</data:x39>
					<data:x40>0.0</data:x40>
					<data:x41>0.2828282828282828</data:x41>
					<data:x42>0.0</data:x42>
					<data:x43>0.0</data:x43>
					<data:x44>0.0</data:x44>
					<data:x45>0.0</data:x45>
					<data:x46>0.0</data:x46>
					<data:x47>0.0</data:x47>
					<data:x48>0.0</data:x48>
					<data:x49>0.0</data:x49>
					<data:x50>0.0</data:x50>
					<data:x51>0.0</data:x51>
					<data:x52>0.0</data:x52>
					<data:x53>0.0</data:x53>
					<data:x54>0.0</data:x54>
					<data:x55>0.0</data:x55>
					<data:x56>0.0</data:x56>
					<data:x57>0.0</data:x57>
					<data:x58>0.0</data:x58>
					<data:x59>0.0</data:x59>
					<data:x60>0.0</data:x60>
				</row>
				<row>
					<data:y>16.0</data:y>
					<data:x1>0.0</data:x1>
					<data:x2>0.0</data:x2>
					<data:x3>0.0</data:x3>
					<data:x4>0.0</data:x4>
					<data:x5>0.0</data:x5>
					<data:x6>0.0</data:x6>
					<data:x7>0.0</data:x7>
					<data:x8>0.0</data:x8>
					<data:x9>0.0</data:x9>
					<data:x10>0.0</data:x10>
					<data:x11>0.41414141414141414</data:x11>
					<data:x12>0.0</data:x12>
					<data:x13>0.0</data:x13>
					<data:x14>0.0</data:x14>
					<data:x15>0.2828282828282828</data:x15>
					<data:x16>0.0</data:x16>
					<data:x17>0.0</data:x17>
					<data:x18>0.0</data:x18>
					<data:x19>0.0</data:x19>
					<data:x20>0.0</data:x20>
					<data:x21>0.0</data:x21>
					<data:x22>0.0</data:x22>
