<?xml version="1.0" encoding="UTF-8" standalone="yes"?>
<PMML xmlns="http://www.dmg.org/PMML-4_3" xmlns:data="http://jpmml.org/jpmml-model/InlineTable" version="4.3">
	<Header>
		<Application name="JPMML-SkLearn" version="1.5.12"/>
		<Timestamp>2019-03-20T04:24:12Z</Timestamp>
	</Header>
	<MiningBuildTask>
		<Extension>PMMLPipeline(steps=[('poly', PolynomialFeatures(degree=2, include_bias=True, interaction_only=False)),
       ('ridge', Ridge(alpha=440, copy_X=True, fit_intercept=True, max_iter=None,
   normalize=False, random_state=None, solver='auto', tol=0.001))])</Extension>
	</MiningBuildTask>
	<DataDictionary>
		<DataField name="y" optype="continuous" dataType="double"/>
		<DataField name="x2" optype="continuous" dataType="double"/>
		<DataField name="x3" optype="continuous" dataType="double"/>
		<DataField name="x4" optype="continuous" dataType="double"/>
		<DataField name="x5" optype="continuous" dataType="double"/>
		<DataField name="x6" optype="continuous" dataType="double"/>
		<DataField name="x7" optype="continuous" dataType="double"/>
		<DataField name="x8" optype="continuous" dataType="double"/>
		<DataField name="x9" optype="continuous" dataType="double"/>
		<DataField name="x10" optype="continuous" dataType="double"/>
		<DataField name="x11" optype="continuous" dataType="double"/>
		<DataField name="x12" optype="continuous" dataType="double"/>
		<DataField name="x13" optype="continuous" dataType="double"/>
		<DataField name="x14" optype="continuous" dataType="double"/>
		<DataField name="x15" optype="continuous" dataType="double"/>
		<DataField name="x16" optype="continuous" dataType="double"/>
		<DataField name="x17" optype="continuous" dataType="double"/>
		<DataField name="x18" optype="continuous" dataType="double"/>
		<DataField name="x19" optype="continuous" dataType="double"/>
		<DataField name="x20" optype="continuous" dataType="double"/>
		<DataField name="x21" optype="continuous" dataType="double"/>
		<DataField name="x22" optype="continuous" dataType="double"/>
		<DataField name="x23" optype="continuous" dataType="double"/>
		<DataField name="x24" optype="continuous" dataType="double"/>
		<DataField name="x25" optype="continuous" dataType="double"/>
		<DataField name="x26" optype="continuous" dataType="double"/>
		<DataField name="x27" optype="continuous" dataType="double"/>
		<DataField name="x28" optype="continuous" dataType="double"/>
		<DataField name="x29" optype="continuous" dataType="double"/>
		<DataField name="x30" optype="continuous" dataType="double"/>
		<DataField name="x31" optype="continuous" dataType="double"/>
		<DataField name="x32" optype="continuous" dataType="double"/>
		<DataField name="x33" optype="continuous" dataType="double"/>
		<DataField name="x34" optype="continuous" dataType="double"/>
		<DataField name="x35" optype="continuous" dataType="double"/>
		<DataField name="x36" optype="continuous" dataType="double"/>
		<DataField name="x37" optype="continuous" dataType="double"/>
		<DataField name="x38" optype="continuous" dataType="double"/>
		<DataField name="x39" optype="continuous" dataType="double"/>
		<DataField name="x40" optype="continuous" dataType="double"/>
		<DataField name="x41" optype="continuous" dataType="double"/>
		<DataField name="x42" optype="continuous" dataType="double"/>
		<DataField name="x43" optype="continuous" dataType="double"/>
		<DataField name="x44" optype="continuous" dataType="double"/>
		<DataField name="x45" optype="continuous" dataType="double"/>
		<DataField name="x46" optype="continuous" dataType="double"/>
		<DataField name="x47" optype="continuous" dataType="double"/>
		<DataField name="x48" optype="continuous" dataType="double"/>
		<DataField name="x49" optype="continuous" dataType="double"/>
		<DataField name="x50" optype="continuous" dataType="double"/>
		<DataField name="x51" optype="continuous" dataType="double"/>
		<DataField name="x52" optype="continuous" dataType="double"/>
		<DataField name="x53" optype="continuous" dataType="double"/>
		<DataField name="x54" optype="continuous" dataType="double"/>
		<DataField name="x55" optype="continuous" dataType="double"/>
		<DataField name="x56" optype="continuous" dataType="double"/>
		<DataField name="x57" optype="continuous" dataType="double"/>
		<DataField name="x58" optype="continuous" dataType="double"/>
		<DataField name="x59" optype="continuous" dataType="double"/>
		<DataField name="x60" optype="continuous" dataType="double"/>
	</DataDictionary>
	<RegressionModel functionName="regression">
		<MiningSchema>
			<MiningField name="y" usageType="target"/>
			<MiningField name="x2"/>
			<MiningField name="x3"/>
			<MiningField name="x4"/>
			<MiningField name="x5"/>
			<MiningField name="x6"/>
			<MiningField name="x7"/>
			<MiningField name="x8"/>
			<MiningField name="x9"/>
			<MiningField name="x10"/>
			<MiningField name="x11"/>
			<MiningField name="x12"/>
			<MiningField name="x13"/>
			<MiningField name="x14"/>
			<MiningField name="x15"/>
			<MiningField name="x16"/>
			<MiningField name="x17"/>
			<MiningField name="x18"/>
			<MiningField name="x19"/>
			<MiningField name="x20"/>
			<MiningField name="x21"/>
			<MiningField name="x22"/>
			<MiningField name="x23"/>
			<MiningField name="x24"/>
			<MiningField name="x25"/>
			<MiningField name="x26"/>
			<MiningField name="x27"/>
			<MiningField name="x28"/>
			<MiningField name="x29"/>
			<MiningField name="x30"/>
			<MiningField name="x31"/>
			<MiningField name="x32"/>
			<MiningField name="x33"/>
			<MiningField name="x34"/>
			<MiningField name="x35"/>
			<MiningField name="x36"/>
			<MiningField name="x37"/>
			<MiningField name="x38"/>
			<MiningField name="x39"/>
			<MiningField name="x40"/>
			<MiningField name="x41"/>
			<MiningField name="x42"/>
			<MiningField name="x43"/>
			<MiningField name="x44"/>
			<MiningField name="x45"/>
			<MiningField name="x46"/>
			<MiningField name="x47"/>
			<MiningField name="x48"/>
			<MiningField name="x49"/>
			<MiningField name="x50"/>
			<MiningField name="x51"/>
			<MiningField name="x52"/>
			<MiningField name="x53"/>
			<MiningField name="x54"/>
			<MiningField name="x55"/>
			<MiningField name="x56"/>
			<MiningField name="x57"/>
			<MiningField name="x58"/>
			<MiningField name="x59"/>
			<MiningField name="x60"/>
		</MiningSchema>
		<RegressionTable intercept="12.645417274412573">
			<NumericPredictor name="x2" coefficient="-0.0380680385220898"/>
			<NumericPredictor name="x3" coefficient="-0.0376272505206711"/>
			<NumericPredictor name="x4" coefficient="-0.01057525242802351"/>
			<NumericPredictor name="x5" coefficient="-0.020374129768370042"/>
			<NumericPredictor name="x6" coefficient="0.010853270865708253"/>
			<NumericPredictor name="x7" coefficient="0.003864039930516417"/>
			<NumericPredictor name="x8" coefficient="-0.054898894914712955"/>
			<NumericPredictor name="x9" coefficient="-0.0600837301839774"/>
			<NumericPredictor name="x10" coefficient="-0.006276954494348275"/>
			<NumericPredictor name="x11" coefficient="-0.036287232072563"/>
			<NumericPredictor name="x12" coefficient="-0.021899514149091998"/>
			<NumericPredictor name="x13" coefficient="0.05349801271167453"/>
			<NumericPredictor name="x14" coefficient="-0.061264498765091706"/>
			<NumericPredictor name="x15" coefficient="-0.007286992054418025"/>
			<NumericPredictor name="x16" coefficient="0.0047270099590734135"/>
			<NumericPredictor name="x17" coefficient="-0.004911021737414553"/>
			<NumericPredictor name="x18" coefficient="-0.008524324500890816"/>
			<NumericPredictor name="x19" coefficient="-0.047176908206604876"/>
			<NumericPredictor name="x20" coefficient="-4.55453028986475E-4"/>
			<NumericPredictor name="x21" coefficient="-0.0598673222451073"/>
			<NumericPredictor name="x22" coefficient="-0.02120881284374935"/>
			<NumericPredictor name="x23" coefficient="-0.013488658962893887"/>
			<NumericPredictor name="x24" coefficient="0.032570194716640834"/>
			<NumericPredictor name="x25" coefficient="-0.054778082193062363"/>
			<NumericPredictor name="x26" coefficient="-0.022905221345328956"/>
			<NumericPredictor name="x27" coefficient="-0.093554470525813"/>
			<NumericPredictor name="x28" coefficient="0.005003388576055696"/>
			<NumericPredictor name="x29" coefficient="0.01277567067414307"/>
			<NumericPredictor name="x30" coefficient="0.03682291885700806"/>
			<NumericPredictor name="x31" coefficient="-0.1472679277144251"/>
			<NumericPredictor name="x32" coefficient="-0.03556783366337484"/>
			<NumericPredictor name="x33" coefficient="0.0040551637495954635"/>
			<NumericPredictor name="x34" coefficient="0.0016640427641920908"/>
			<NumericPredictor name="x35" coefficient="-0.07467495720763619"/>
			<NumericPredictor name="x36" coefficient="-0.10256381702866307"/>
			<NumericPredictor name="x37" coefficient="-0.005740524625880768"/>
			<NumericPredictor name="x38" coefficient="-0.10189174449869774"/>
			<NumericPredictor name="x39" coefficient="6.107726511120426E-4"/>
			<NumericPredictor name="x40" coefficient="0.010332243153020042"/>
			<NumericPredictor name="x41" coefficient="0.014552202942534332"/>
			<NumericPredictor name="x42" coefficient="-0.08881358225506805"/>
			<NumericPredictor name="x43" coefficient="-0.10894168007061812"/>
			<NumericPredictor name="x44" coefficient="-0.040257852141629795"/>
			<NumericPredictor name="x45" coefficient="0.03713335733555765"/>
			<NumericPredictor name="x46" coefficient="-0.03702279862722152"/>
			<NumericPredictor name="x47" coefficient="-0.008677682022042721"/>
			<NumericPredictor name="x48" coefficient="0.02326547030980478"/>
			<NumericPredictor name="x49" coefficient="-0.07011728324552716"/>
			<NumericPredictor name="x50" coefficient="-0.007318608826825927"/>
			<NumericPredictor name="x51" coefficient="2.844111228567115E-4"/>
			<NumericPredictor name="x52" coefficient="-0.011391154389435297"/>
			<NumericPredictor name="x53" coefficient="-0.011195148048074184"/>
			<NumericPredictor name="x54" coefficient="-0.027323892015384085"/>
			<NumericPredictor name="x55" coefficient="-0.024558304730507262"/>
			<NumericPredictor name="x56" coefficient="0.037763850341856184"/>
			<NumericPredictor name="x57" coefficient="0.007645107233163331"/>
			<NumericPredictor name="x58" coefficient="0.0023561803499786357"/>
			<NumericPredictor name="x59" coefficient="-0.024148258540538745"/>
			<NumericPredictor name="x60" coefficient="0.006862865750171577"/>
			<NumericPredictor name="x2" exponent="2" coefficient="-0.04571421203213348"/>
			<NumericPredictor name="x3" exponent="2" coefficient="-0.01587909481081018"/>
			<NumericPredictor name="x4" exponent="2" coefficient="-0.0034826901445696645"/>
			<NumericPredictor name="x5" exponent="2" coefficient="-0.00492376361712506"/>
			<NumericPredictor name="x6" exponent="2" coefficient="0.0033646263746939277"/>
			<NumericPredictor name="x7" exponent="2" coefficient="4.952093706920501E-4"/>
			<NumericPredictor name="x8" exponent="2" coefficient="-0.015909846313082496"/>
			<NumericPredictor name="x9" exponent="2" coefficient="-0.02561846376160224"/>
			<NumericPredictor name="x10" exponent="2" coefficient="-0.002735131603389644"/>
			<NumericPredictor name="x11" exponent="2" coefficient="5.230991447269621E-4"/>
			<NumericPredictor name="x12" exponent="2" coefficient="-0.01611317217773614"/>
			<NumericPredictor name="x13" exponent="2" coefficient="0.01916745297993732"/>
			<NumericPredictor name="x14" exponent="2" coefficient="-0.027969491419291247"/>
			<NumericPredictor name="x15" exponent="2" coefficient="2.214812958823125E-4"/>
			<NumericPredictor name="x16" exponent="2" coefficient="1.0417415476952191E-5"/>
			<NumericPredictor name="x17" exponent="2" coefficient="-0.003653303408444084"/>
			<NumericPredictor name="x18" exponent="2" coefficient="-0.001105801548968954"/>
			<NumericPredictor name="x19" exponent="2" coefficient="-0.01729305126539097"/>
			<NumericPredictor name="x20" exponent="2" coefficient="8.990764663248653E-5"/>
			<NumericPredictor name="x21" exponent="2" coefficient="-0.022994114440763873"/>
			<NumericPredictor name="x22" exponent="2" coefficient="-0.005168791244441276"/>
			<NumericPredictor name="x23" exponent="2" coefficient="-0.002704576307700047"/>
			<NumericPredictor name="x24" exponent="2" coefficient="0.006822193215597558"/>
			<NumericPredictor name="x25" exponent="2" coefficient="-0.04576075770126474"/>
			<NumericPredictor name="x26" exponent="2" coefficient="-0.005792049449268588"/>
			<NumericPredictor name="x27" exponent="2" coefficient="-0.04270571028153061"/>
			<NumericPredictor name="x28" exponent="2" coefficient="0.002949186158529093"/>
			<NumericPredictor name="x29" exponent="2" coefficient="0.00675411784551608"/>
			<NumericPredictor name="x30" exponent="2" coefficient="0.007029295607155964"/>
			<NumericPredictor name="x31" exponent="2" coefficient="-0.051723135813494414"/>
			<NumericPredictor name="x32" exponent="2" coefficient="-0.019368209484363966"/>
			<NumericPredictor name="x33" exponent="2" coefficient="8.820805535111261E-4"/>
			<NumericPredictor name="x34" exponent="2" coefficient="-0.010519007380484963"/>
			<NumericPredictor name="x35" exponent="2" coefficient="-0.06787358132336635"/>
			<NumericPredictor name="x36" exponent="2" coefficient="-0.09215583168891876"/>
			<NumericPredictor name="x37" exponent="2" coefficient="-8.483135847584311E-4"/>
			<NumericPredictor name="x38" exponent="2" coefficient="-0.11394206390658135"/>
			<NumericPredictor name="x39" exponent="2" coefficient="6.549736978915862E-4"/>
			<NumericPredictor name="x40" exponent="2" coefficient="0.02734128045270585"/>
			<NumericPredictor name="x41" exponent="2" coefficient="0.006141601470285346"/>
			<NumericPredictor name="x42" exponent="2" coefficient="-0.027144361344198814"/>
			<NumericPredictor name="x43" exponent="2" coefficient="-0.067060631624142"/>
			<NumericPredictor name="x44" exponent="2" coefficient="-0.016530063384110866"/>
			<NumericPredictor name="x45" exponent="2" coefficient="0.006901003141929896"/>
			<NumericPredictor name="x46" exponent="2" coefficient="-0.011438469414253149"/>
			<NumericPredictor name="x47" exponent="2" coefficient="-0.0032980375727138735"/>
			<NumericPredictor name="x48" exponent="2" coefficient="0.010398404747893478"/>
			<NumericPredictor name="x49" exponent="2" coefficient="-0.021754820383692204"/>
			<NumericPredictor name="x50" exponent="2" coefficient="-0.0032527709658940417"/>
			<NumericPredictor name="x51" exponent="2" coefficient="2.8973364189672444E-4"/>
			<NumericPredictor name="x52" exponent="2" coefficient="-0.0025335818447061805"/>
			<NumericPredictor name="x53" exponent="2" coefficient="-0.002584995792390529"/>
			<NumericPredictor name="x54" exponent="2" coefficient="-0.010755505639694057"/>
			<NumericPredictor name="x55" exponent="2" coefficient="-0.005982161130371069"/>
			<NumericPredictor name="x56" exponent="2" coefficient="0.016232403831423516"/>
			<NumericPredictor name="x57" exponent="2" coefficient="0.0019577717199460837"/>
			<NumericPredictor name="x58" exponent="2" coefficient="0.001498201347056992"/>
			<NumericPredictor name="x59" exponent="2" coefficient="-0.0032332638702324626"/>
			<NumericPredictor name="x60" exponent="2" coefficient="-0.0020811032230290925"/>
			<PredictorTerm name="x2:x3" coefficient="-0.023430030133785727">
				<FieldRef field="x2"/>
				<FieldRef field="x3"/>
			</PredictorTerm>
			<PredictorTerm name="x2:x4" coefficient="-0.010905435080513524">
				<FieldRef field="x2"/>
				<FieldRef field="x4"/>
			</PredictorTerm>
			<PredictorTerm name="x2:x5" coefficient="-0.021460765625704026">
				<FieldRef field="x2"/>
				<FieldRef field="x5"/>
			</PredictorTerm>
			<PredictorTerm name="x2:x6" coefficient="0.008502539754424623">
				<FieldRef field="x2"/>
				<FieldRef field="x6"/>
			</PredictorTerm>
			<PredictorTerm name="x2:x7" coefficient="0.004275964637871423">
				<FieldRef field="x2"/>
				<FieldRef field="x7"/>
			</PredictorTerm>
			<PredictorTerm name="x2:x8" coefficient="0.007020838589134484">
				<FieldRef field="x2"/>
				<FieldRef field="x8"/>
			</PredictorTerm>
			<PredictorTerm name="x2:x9" coefficient="-0.028363817383388903">
				<FieldRef field="x2"/>
				<FieldRef field="x9"/>
			</PredictorTerm>
			<PredictorTerm name="x2:x10" coefficient="-0.009443714667539734">
				<FieldRef field="x2"/>
				<FieldRef field="x10"/>
			</PredictorTerm>
			<PredictorTerm name="x2:x11" coefficient="0.028748884246444062">
				<FieldRef field="x2"/>
				<FieldRef field="x11"/>
			</PredictorTerm>
			<PredictorTerm name="x2:x12" coefficient="-0.01914447723905966">
				<FieldRef field="x2"/>
				<FieldRef field="x12"/>
			</PredictorTerm>
			<PredictorTerm name="x2:x13" coefficient="0.04673334907403134">
				<FieldRef field="x2"/>
				<FieldRef field="x13"/>
			</PredictorTerm>
			<PredictorTerm name="x2:x14" coefficient="-0.029196328006555937">
				<FieldRef field="x2"/>
				<FieldRef field="x14"/>
			</PredictorTerm>
			<PredictorTerm name="x2:x15" coefficient="0.010850213991798273">
				<FieldRef field="x2"/>
				<FieldRef field="x15"/>
			</PredictorTerm>
			<PredictorTerm name="x2:x16" coefficient="0.0018868914249889188">
				<FieldRef field="x2"/>
				<FieldRef field="x16"/>
			</PredictorTerm>
			<PredictorTerm name="x2:x17" coefficient="-0.006672816939739">
				<FieldRef field="x2"/>
				<FieldRef field="x17"/>
			</PredictorTerm>
			<PredictorTerm name="x2:x18" coefficient="-0.0068448165127633">
				<FieldRef field="x2"/>
				<FieldRef field="x18"/>
			</PredictorTerm>
			<PredictorTerm name="x2:x19" coefficient="-0.05164927763745455">
				<FieldRef field="x2"/>
				<FieldRef field="x19"/>
			</PredictorTerm>
			<PredictorTerm name="x2:x20" coefficient="-8.95142337365928E-4">
				<FieldRef field="x2"/>
				<FieldRef field="x20"/>
			</PredictorTerm>
			<PredictorTerm name="x2:x21" coefficient="-0.04573380700523663">
				<FieldRef field="x2"/>
				<FieldRef field="x21"/>
			</PredictorTerm>
			<PredictorTerm name="x2:x22" coefficient="-0.0160605082884158">
				<FieldRef field="x2"/>
				<FieldRef field="x22"/>
			</PredictorTerm>
			<PredictorTerm name="x2:x23" coefficient="-0.021670658192931732">
				<FieldRef field="x2"/>
				<FieldRef field="x23"/>
			</PredictorTerm>
			<PredictorTerm name="x2:x24" coefficient="0.027616064228295052">
				<FieldRef field="x2"/>
				<FieldRef field="x24"/>
			</PredictorTerm>
			<PredictorTerm name="x2:x25" coefficient="0.0063072747389662336">
				<FieldRef field="x2"/>
				<FieldRef field="x25"/>
			</PredictorTerm>
			<PredictorTerm name="x2:x26" coefficient="-0.024584608060089275">
				<FieldRef field="x2"/>
				<FieldRef field="x26"/>
			</PredictorTerm>
			<PredictorTerm name="x2:x27" coefficient="-0.07898008664066412">
				<FieldRef field="x2"/>
				<FieldRef field="x27"/>
			</PredictorTerm>
			<PredictorTerm name="x2:x28" coefficient="0.008862518940910634">
				<FieldRef field="x2"/>
				<FieldRef field="x28"/>
			</PredictorTerm>
			<PredictorTerm name="x2:x29" coefficient="0.010820674220767046">
				<FieldRef field="x2"/>
				<FieldRef field="x29"/>
			</PredictorTerm>
			<PredictorTerm name="x2:x30" coefficient="0.03046860112699671">
				<FieldRef field="x2"/>
				<FieldRef field="x30"/>
			</PredictorTerm>
			<PredictorTerm name="x2:x31" coefficient="-0.08735039020670157">
				<FieldRef field="x2"/>
				<FieldRef field="x31"/>
			</PredictorTerm>
			<PredictorTerm name="x2:x32" coefficient="-0.030696497556667104">
				<FieldRef field="x2"/>
				<FieldRef field="x32"/>
			</PredictorTerm>
			<PredictorTerm name="x2:x33" coefficient="0.0045673618765661355">
				<FieldRef field="x2"/>
				<FieldRef field="x33"/>
			</PredictorTerm>
			<PredictorTerm name="x2:x34" coefficient="0.028188677890315317">
				<FieldRef field="x2"/>
				<FieldRef field="x34"/>
			</PredictorTerm>
			<PredictorTerm name="x2:x35" coefficient="-0.021715016427735604">
				<FieldRef field="x2"/>
				<FieldRef field="x35"/>
			</PredictorTerm>
			<PredictorTerm name="x2:x36" coefficient="-0.06161270667490988">
				<FieldRef field="x2"/>
				<FieldRef field="x36"/>
			</PredictorTerm>
			<PredictorTerm name="x2:x37" coefficient="-0.009403239579589221">
				<FieldRef field="x2"/>
				<FieldRef field="x37"/>
			</PredictorTerm>
			<PredictorTerm name="x2:x38" coefficient="-0.020831920436094498">
				<FieldRef field="x2"/>
				<FieldRef field="x38"/>
			</PredictorTerm>
			<PredictorTerm name="x2:x39" coefficient="8.484117760399271E-5">
				<FieldRef field="x2"/>
				<FieldRef field="x39"/>
			</PredictorTerm>
			<PredictorTerm name="x2:x40" coefficient="0.01659071702360466">
				<FieldRef field="x2"/>
				<FieldRef field="x40"/>
			</PredictorTerm>
			<PredictorTerm name="x2:x41" coefficient="0.03324364500258487">
				<FieldRef field="x2"/>
				<FieldRef field="x41"/>
			</PredictorTerm>
			<PredictorTerm name="x2:x42" coefficient="-0.07608229444590153">
				<FieldRef field="x2"/>
				<FieldRef field="x42"/>
			</PredictorTerm>
			<PredictorTerm name="x2:x43" coefficient="-0.11379838978615706">
				<FieldRef field="x2"/>
				<FieldRef field="x43"/>
			</PredictorTerm>
			<PredictorTerm name="x2:x44" coefficient="-0.03586563410577425">
				<FieldRef field="x2"/>
				<FieldRef field="x44"/>
			</PredictorTerm>
			<PredictorTerm name="x2:x45" coefficient="0.03089895347490674">
				<FieldRef field="x2"/>
				<FieldRef field="x45"/>
			</PredictorTerm>
			<PredictorTerm name="x2:x46" coefficient="-0.025125721074458963">
				<FieldRef field="x2"/>
				<FieldRef field="x46"/>
			</PredictorTerm>
			<PredictorTerm name="x2:x47" coefficient="-0.010511711571915622">
				<FieldRef field="x2"/>
				<FieldRef field="x47"/>
			</PredictorTerm>
			<PredictorTerm name="x2:x48" coefficient="0.02268322509191308">
				<FieldRef field="x2"/>
				<FieldRef field="x48"/>
			</PredictorTerm>
			<PredictorTerm name="x2:x49" coefficient="-0.04898254650024349">
				<FieldRef field="x2"/>
				<FieldRef field="x49"/>
			</PredictorTerm>
			<PredictorTerm name="x2:x50" coefficient="-0.008809868770100938">
				<FieldRef field="x2"/>
				<FieldRef field="x50"/>
			</PredictorTerm>
			<PredictorTerm name="x2:x51" coefficient="4.1385584974707227E-4">
				<FieldRef field="x2"/>
				<FieldRef field="x51"/>
			</PredictorTerm>
			<PredictorTerm name="x2:x52" coefficient="-0.01150896407384008">
				<FieldRef field="x2"/>
				<FieldRef field="x52"/>
			</PredictorTerm>
			<PredictorTerm name="x2:x53" coefficient="-0.011193649046940257">
				<FieldRef field="x2"/>
				<FieldRef field="x53"/>
			</PredictorTerm>
			<PredictorTerm name="x2:x54" coefficient="-0.028388919926211058">
				<FieldRef field="x2"/>
				<FieldRef field="x54"/>
			</PredictorTerm>
			<PredictorTerm name="x2:x55" coefficient="-0.021822493663461735">
				<FieldRef field="x2"/>
				<FieldRef field="x55"/>
			</PredictorTerm>
			<PredictorTerm name="x2:x56" coefficient="0.03990487007000635">
				<FieldRef field="x2"/>
				<FieldRef field="x56"/>
			</PredictorTerm>
			<PredictorTerm name="x2:x57" coefficient="0.007588537649374222">
				<FieldRef field="x2"/>
				<FieldRef field="x57"/>
			</PredictorTerm>
			<PredictorTerm name="x2:x58" coefficient="0.00236235604627439">
				<FieldRef field="x2"/>
				<FieldRef field="x58"/>
			</PredictorTerm>
			<PredictorTerm name="x2:x59" coefficient="0.001980396463643362">
				<FieldRef field="x2"/>
				<FieldRef field="x59"/>
			</PredictorTerm>
			<PredictorTerm name="x2:x60" coefficient="-0.005463311352328696">
				<FieldRef field="x2"/>
				<FieldRef field="x60"/>
			</PredictorTerm>
			<PredictorTerm name="x3:x8" coefficient="-0.0024905594771050016">
				<FieldRef field="x3"/>
				<FieldRef field="x8"/>
			</PredictorTerm>
			<PredictorTerm name="x3:x11" coefficient="-0.025796247176315065">
				<FieldRef field="x3"/>
				<FieldRef field="x11"/>
			</PredictorTerm>
			<PredictorTerm name="x3:x13" coefficient="-0.006349210851911115">
				<FieldRef field="x3"/>
				<FieldRef field="x13"/>
			</PredictorTerm>
			<PredictorTerm name="x3:x15" coefficient="-0.01729139072709139">
				<FieldRef field="x3"/>
				<FieldRef field="x15"/>
			</PredictorTerm>
			<PredictorTerm name="x3:x25" coefficient="-0.026631993015503893">
				<FieldRef field="x3"/>
				<FieldRef field="x25"/>
			</PredictorTerm>
			<PredictorTerm name="x3:x27" coefficient="-0.00367944954313089">
				<FieldRef field="x3"/>
				<FieldRef field="x27"/>
			</PredictorTerm>
			<PredictorTerm name="x3:x31" coefficient="-0.010849738883697939">
				<FieldRef field="x3"/>
				<FieldRef field="x31"/>
			</PredictorTerm>
			<PredictorTerm name="x3:x32" coefficient="-0.003493443223876611">
				<FieldRef field="x3"/>
				<FieldRef field="x32"/>
			</PredictorTerm>
			<PredictorTerm name="x3:x34" coefficient="-0.017429225935454675">
				<FieldRef field="x3"/>
				<FieldRef field="x34"/>
			</PredictorTerm>
			<PredictorTerm name="x3:x35" coefficient="-0.03512154495198637">
				<FieldRef field="x3"/>
				<FieldRef field="x35"/>
			</PredictorTerm>
			<PredictorTerm name="x3:x36" coefficient="-0.019214262995715128">
				<FieldRef field="x3"/>
				<FieldRef field="x36"/>
			</PredictorTerm>
			<PredictorTerm name="x3:x38" coefficient="-0.030258582042025625">
				<FieldRef field="x3"/>
				<FieldRef field="x38"/>
			</PredictorTerm>
			<PredictorTerm name="x3:x41" coefficient="-0.009771155494376398">
				<FieldRef field="x3"/>
				<FieldRef field="x41"/>
			</PredictorTerm>
			<PredictorTerm name="x3:x42" coefficient="-0.008144069912373684">
				<FieldRef field="x3"/>
				<FieldRef field="x42"/>
			</PredictorTerm>
			<PredictorTerm name="x3:x44" coefficient="-0.002328962149251075">
				<FieldRef field="x3"/>
				<FieldRef field="x44"/>
			</PredictorTerm>
			<PredictorTerm name="x3:x49" coefficient="-0.007093015466173302">
				<FieldRef field="x3"/>
				<FieldRef field="x49"/>
			</PredictorTerm>
			<PredictorTerm name="x3:x59" coefficient="-0.0037497546666241804">
				<FieldRef field="x3"/>
				<FieldRef field="x59"/>
			</PredictorTerm>
			<PredictorTerm name="x3:x60" coefficient="-0.02084753854883013">
				<FieldRef field="x3"/>
				<FieldRef field="x60"/>
			</PredictorTerm>
			<PredictorTerm name="x4:x5" coefficient="1.2354938689783147E-5">
				<FieldRef field="x4"/>
				<FieldRef field="x5"/>
			</PredictorTerm>
			<PredictorTerm name="x4:x6" coefficient="-1.4843564926805047E-4">
				<FieldRef field="x4"/>
				<FieldRef field="x6"/>
			</PredictorTerm>
			<PredictorTerm name="x4:x7" coefficient="-3.6914332109961754E-4">
				<FieldRef field="x4"/>
				<FieldRef field="x7"/>
			</PredictorTerm>
			<PredictorTerm name="x4:x8" coefficient="-0.0027797869805908293">
				<FieldRef field="x4"/>
				<FieldRef field="x8"/>
			</PredictorTerm>
			<PredictorTerm name="x4:x9" coefficient="-0.0013549261053495754">
				<FieldRef field="x4"/>
				<FieldRef field="x9"/>
			</PredictorTerm>
			<PredictorTerm name="x4:x10" coefficient="-0.002007279265646653">
				<FieldRef field="x4"/>
				<FieldRef field="x10"/>
			</PredictorTerm>
			<PredictorTerm name="x4:x11" coefficient="-0.0026951547423719768">
				<FieldRef field="x4"/>
				<FieldRef field="x11"/>
			</PredictorTerm>
			<PredictorTerm name="x4:x12" coefficient="-0.0030246898695445133">
				<FieldRef field="x4"/>
				<FieldRef field="x12"/>
			</PredictorTerm>
			<PredictorTerm name="x4:x13" coefficient="2.883981069200968E-4">
				<FieldRef field="x4"/>
				<FieldRef field="x13"/>
			</PredictorTerm>
			<PredictorTerm name="x4:x14" coefficient="8.49152478028557E-4">
				<FieldRef field="x4"/>
				<FieldRef field="x14"/>
			</PredictorTerm>
			<PredictorTerm name="x4:x15" coefficient="0.0010536377303458693">
				<FieldRef field="x4"/>
				<FieldRef field="x15"/>
			</PredictorTerm>
			<PredictorTerm name="x4:x16" coefficient="-2.7421130989256127E-4">
				<FieldRef field="x4"/>
				<FieldRef field="x16"/>
			</PredictorTerm>
			<PredictorTerm name="x4:x17" coefficient="-0.0014965961309998963">
				<FieldRef field="x4"/>
				<FieldRef field="x17"/>
			</PredictorTerm>
			<PredictorTerm name="x4:x18" coefficient="-2.9834092378009964E-4">
				<FieldRef field="x4"/>
				<FieldRef field="x18"/>
			</PredictorTerm>
			<PredictorTerm name="x4:x19" coefficient="-0.005375536582846196">
				<FieldRef field="x4"/>
				<FieldRef field="x19"/>
			</PredictorTerm>
			<PredictorTerm name="x4:x21" coefficient="-0.0030538029350369047">
				<FieldRef field="x4"/>
				<FieldRef field="x21"/>
			</PredictorTerm>
			<PredictorTerm name="x4:x22" coefficient="-5.297183790382248E-4">
				<FieldRef field="x4"/>
				<FieldRef field="x22"/>
			</PredictorTerm>
			<PredictorTerm name="x4:x23" coefficient="7.901297031302101E-4">
				<FieldRef field="x4"/>
				<FieldRef field="x23"/>
			</PredictorTerm>
			<PredictorTerm name="x4:x24" coefficient="-3.8984415266434306E-4">
				<FieldRef field="x4"/>
				<FieldRef field="x24"/>
			</PredictorTerm>
			<PredictorTerm name="x4:x25" coefficient="-0.0013596426314875423">
				<FieldRef field="x4"/>
				<FieldRef field="x25"/>
			</PredictorTerm>
			<PredictorTerm name="x4:x26" coefficient="-0.003036684240374887">
				<FieldRef field="x4"/>
				<FieldRef field="x26"/>
			</PredictorTerm>
			<PredictorTerm name="x4:x27" coefficient="-0.0041153431297533275">
				<FieldRef field="x4"/>
				<FieldRef field="x27"/>
			</PredictorTerm>
			<PredictorTerm name="x4:x28" coefficient="2.4385812433455568E-4">
				<FieldRef field="x4"/>
				<FieldRef field="x28"/>
			</PredictorTerm>
			<PredictorTerm name="x4:x29" coefficient="-0.003730316852228817">
				<FieldRef field="x4"/>
				<FieldRef field="x29"/>
			</PredictorTerm>
			<PredictorTerm name="x4:x31" coefficient="-0.0010887058550151504">
				<FieldRef field="x4"/>
				<FieldRef field="x31"/>
			</PredictorTerm>
			<PredictorTerm name="x4:x32" coefficient="-6.068747375897094E-4">
				<FieldRef field="x4"/>
				<FieldRef field="x32"/>
			</PredictorTerm>
			<PredictorTerm name="x4:x33" coefficient="2.298195147369874E-4">
				<FieldRef field="x4"/>
				<FieldRef field="x33"/>
			</PredictorTerm>
			<PredictorTerm name="x4:x34" coefficient="2.8328511549972505E-4">
				<FieldRef field="x4"/>
				<FieldRef field="x34"/>
			</PredictorTerm>
			<PredictorTerm name="x4:x35" coefficient="-0.004164230424607205">
				<FieldRef field="x4"/>
				<FieldRef field="x35"/>
			</PredictorTerm>
			<PredictorTerm name="x4:x36" coefficient="-0.010976621638448735">
				<FieldRef field="x4"/>
				<FieldRef field="x36"/>
			</PredictorTerm>
			<PredictorTerm name="x4:x37" coefficient="-0.0041561883420785815">
				<FieldRef field="x4"/>
				<FieldRef field="x37"/>
			</PredictorTerm>
			<PredictorTerm name="x4:x38" coefficient="-0.0015816977818388675">
				<FieldRef field="x4"/>
				<FieldRef field="x38"/>
			</PredictorTerm>
			<PredictorTerm name="x4:x39" coefficient="-4.563312682732266E-4">
				<FieldRef field="x4"/>
				<FieldRef field="x39"/>
			</PredictorTerm>
			<PredictorTerm name="x4:x40" coefficient="0.001525837358285897">
				<FieldRef field="x4"/>
				<FieldRef field="x40"/>
			</PredictorTerm>
			<PredictorTerm name="x4:x41" coefficient="5.132231509628857E-4">
				<FieldRef field="x4"/>
				<FieldRef field="x41"/>
			</PredictorTerm>
			<PredictorTerm name="x4:x42" coefficient="-0.002492009788925495">
				<FieldRef field="x4"/>
				<FieldRef field="x42"/>
			</PredictorTerm>
			<PredictorTerm name="x4:x43" coefficient="-0.006679786950590905">
				<FieldRef field="x4"/>
				<FieldRef field="x43"/>
			</PredictorTerm>
			<PredictorTerm name="x4:x44" coefficient="-8.807532945543774E-4">
				<FieldRef field="x4"/>
				<FieldRef field="x44"/>
			</PredictorTerm>
			<PredictorTerm name="x4:x46" coefficient="8.828573501446361E-5">
				<FieldRef field="x4"/>
				<FieldRef field="x46"/>
			</PredictorTerm>
			<PredictorTerm name="x4:x47" coefficient="-3.185365042874294E-4">
				<FieldRef field="x4"/>
				<FieldRef field="x47"/>
			</PredictorTerm>
			<PredictorTerm name="x4:x48" coefficient="0.00137997795406853">
				<FieldRef field="x4"/>
				<FieldRef field="x48"/>
			</PredictorTerm>
			<PredictorTerm name="x4:x49" coefficient="-0.00469598278549152">
				<FieldRef field="x4"/>
				<FieldRef field="x49"/>
			</PredictorTerm>
			<PredictorTerm name="x4:x50" coefficient="-0.0025633494963252495">
				<FieldRef field="x4"/>
				<FieldRef field="x50"/>
			</PredictorTerm>
			<PredictorTerm name="x4:x52" coefficient="-0.0017252588092319012">
				<FieldRef field="x4"/>
				<FieldRef field="x52"/>
			</PredictorTerm>
			<PredictorTerm name="x4:x53" coefficient="-1.2212570143817973E-4">
				<FieldRef field="x4"/>
				<FieldRef field="x53"/>
			</PredictorTerm>
			<PredictorTerm name="x4:x54" coefficient="-0.0017605548688455742">
				<FieldRef field="x4"/>
				<FieldRef field="x54"/>
			</PredictorTerm>
			<PredictorTerm name="x4:x55" coefficient="-0.0020512112115706315">
				<FieldRef field="x4"/>
				<FieldRef field="x55"/>
			</PredictorTerm>
			<PredictorTerm name="x4:x58" coefficient="-6.739601764192918E-5">
				<FieldRef field="x4"/>
				<FieldRef field="x58"/>
			</PredictorTerm>
			<PredictorTerm name="x4:x59" coefficient="-0.0012451012512705198">
				<FieldRef field="x4"/>
				<FieldRef field="x59"/>
			</PredictorTerm>
			<PredictorTerm name="x4:x60" coefficient="-0.0055874814046502335">
				<FieldRef field="x4"/>
				<FieldRef field="x60"/>
			</PredictorTerm>
			<PredictorTerm name="x5:x6" coefficient="-2.771215684405043E-4">
				<FieldRef field="x5"/>
				<FieldRef field="x6"/>
			</PredictorTerm>
			<PredictorTerm name="x5:x7" coefficient="4.4672152744469623E-4">
				<FieldRef field="x5"/>
				<FieldRef field="x7"/>
			</PredictorTerm>
			<PredictorTerm name="x5:x8" coefficient="-1.3022335012836668E-4">
				<FieldRef field="x5"/>
				<FieldRef field="x8"/>
			</PredictorTerm>
			<PredictorTerm name="x5:x9" coefficient="-9.388612347839074E-4">
				<FieldRef field="x5"/>
				<FieldRef field="x9"/>
			</PredictorTerm>
			<PredictorTerm name="x5:x10" coefficient="-3.649656177462228E-4">
				<FieldRef field="x5"/>
				<FieldRef field="x10"/>
			</PredictorTerm>
			<PredictorTerm name="x5:x11" coefficient="-0.0041608022879420755">
				<FieldRef field="x5"/>
				<FieldRef field="x11"/>
			</PredictorTerm>
			<PredictorTerm name="x5:x12" coefficient="-0.0031102573353611403">
				<FieldRef field="x5"/>
				<FieldRef field="x12"/>
			</PredictorTerm>
			<PredictorTerm name="x5:x13" coefficient="2.463208105841035E-4">
				<FieldRef field="x5"/>
				<FieldRef field="x13"/>
			</PredictorTerm>
			<PredictorTerm name="x5:x14" coefficient="-0.0017649622009774885">
				<FieldRef field="x5"/>
				<FieldRef field="x14"/>
			</PredictorTerm>
			<PredictorTerm name="x5:x15" coefficient="0.0011283210963636962">
				<FieldRef field="x5"/>
				<FieldRef field="x15"/>
			</PredictorTerm>
			<PredictorTerm name="x5:x16" coefficient="-2.3291909881336948E-4">
				<FieldRef field="x5"/>
				<FieldRef field="x16"/>
			</PredictorTerm>
			<PredictorTerm name="x5:x17" coefficient="-9.356466987796547E-4">
				<FieldRef field="x5"/>
				<FieldRef field="x17"/>
			</PredictorTerm>
			<PredictorTerm name="x5:x18" coefficient="9.015573184663571E-4">
				<FieldRef field="x5"/>
				<FieldRef field="x18"/>
			</PredictorTerm>
			<PredictorTerm name="x5:x19" coefficient="-0.004042098420294985">
				<FieldRef field="x5"/>
				<FieldRef field="x19"/>
			</PredictorTerm>
			<PredictorTerm name="x5:x21" coefficient="-0.005506678667902844">
				<FieldRef field="x5"/>
				<FieldRef field="x21"/>
			</PredictorTerm>
			<PredictorTerm name="x5:x22" coefficient="9.17790695695882E-5">
				<FieldRef field="x5"/>
				<FieldRef field="x22"/>
			</PredictorTerm>
			<PredictorTerm name="x5:x23" coefficient="-0.0018176845490649185">
				<FieldRef field="x5"/>
				<FieldRef field="x23"/>
			</PredictorTerm>
			<PredictorTerm name="x5:x24" coefficient="-4.610761280678035E-4">
				<FieldRef field="x5"/>
				<FieldRef field="x24"/>
			</PredictorTerm>
			<PredictorTerm name="x5:x25" coefficient="-0.0032194642057680207">
				<FieldRef field="x5"/>
				<FieldRef field="x25"/>
			</PredictorTerm>
			<PredictorTerm name="x5:x26" coefficient="-0.0016415650439274745">
				<FieldRef field="x5"/>
				<FieldRef field="x26"/>
			</PredictorTerm>
			<PredictorTerm name="x5:x27" coefficient="-0.01097210227716058">
				<FieldRef field="x5"/>
				<FieldRef field="x27"/>
			</PredictorTerm>
			<PredictorTerm name="x5:x28" coefficient="-0.0019170275918332876">
				<FieldRef field="x5"/>
				<FieldRef field="x28"/>
			</PredictorTerm>
			<PredictorTerm name="x5:x29" coefficient="-4.3297622458202654E-4">
				<FieldRef field="x5"/>
				<FieldRef field="x29"/>
			</PredictorTerm>
			<PredictorTerm name="x5:x31" coefficient="-0.0064023659079260106">
				<FieldRef field="x5"/>
				<FieldRef field="x31"/>
			</PredictorTerm>
			<PredictorTerm name="x5:x32" coefficient="-0.0039059008507306278">
				<FieldRef field="x5"/>
				<FieldRef field="x32"/>
			</PredictorTerm>
			<PredictorTerm name="x5:x33" coefficient="4.5414716549584225E-4">
				<FieldRef field="x5"/>
				<FieldRef field="x33"/>
			</PredictorTerm>
			<PredictorTerm name="x5:x34" coefficient="9.501025786584369E-4">
				<FieldRef field="x5"/>
				<FieldRef field="x34"/>
			</PredictorTerm>
			<PredictorTerm name="x5:x35" coefficient="-0.006893521050178351">
				<FieldRef field="x5"/>
				<FieldRef field="x35"/>
			</PredictorTerm>
			<PredictorTerm name="x5:x36" coefficient="-0.02043276727787118">
				<FieldRef field="x5"/>
				<FieldRef field="x36"/>
			</PredictorTerm>
			<PredictorTerm name="x5:x37" coefficient="-0.004341388243473217">
				<FieldRef field="x5"/>
				<FieldRef field="x37"/>
			</PredictorTerm>
			<PredictorTerm name="x5:x38" coefficient="-0.004836725829815543">
				<FieldRef field="x5"/>
				<FieldRef field="x38"/>
			</PredictorTerm>
			<PredictorTerm name="x5:x40" coefficient="-0.005744922140719647">
				<FieldRef field="x5"/>
				<FieldRef field="x40"/>
			</PredictorTerm>
			<PredictorTerm name="x5:x41" coefficient="0.0013506297068588003">
				<FieldRef field="x5"/>
				<FieldRef field="x41"/>
			</PredictorTerm>
			<PredictorTerm name="x5:x42" coefficient="-0.002894955098643941">
				<FieldRef field="x5"/>
				<FieldRef field="x42"/>
			</PredictorTerm>
			<PredictorTerm name="x5:x43" coefficient="-0.008891131880263739">
				<FieldRef field="x5"/>
				<FieldRef field="x43"/>
			</PredictorTerm>
			<PredictorTerm name="x5:x44" coefficient="-0.005204174489537822">
				<FieldRef field="x5"/>
				<FieldRef field="x44"/>
			</PredictorTerm>
			<PredictorTerm name="x5:x46" coefficient="-2.474869568046796E-4">
				<FieldRef field="x5"/>
				<FieldRef field="x46"/>
			</PredictorTerm>
			<PredictorTerm name="x5:x47" coefficient="-0.0017816280230779067">
				<FieldRef field="x5"/>
				<FieldRef field="x47"/>
			</PredictorTerm>
			<PredictorTerm name="x5:x48" coefficient="-6.543698612821306E-4">
				<FieldRef field="x5"/>
				<FieldRef field="x48"/>
			</PredictorTerm>
			<PredictorTerm name="x5:x49" coefficient="-0.002142829241462525">
				<FieldRef field="x5"/>
				<FieldRef field="x49"/>
			</PredictorTerm>
			<PredictorTerm name="x5:x50" coefficient="-1.4951183140354058E-5">
				<FieldRef field="x5"/>
				<FieldRef field="x50"/>
			</PredictorTerm>
			<PredictorTerm name="x5:x51" coefficient="4.230677529377891E-4">
				<FieldRef field="x5"/>
				<FieldRef field="x51"/>
			</PredictorTerm>
			<PredictorTerm name="x5:x52" coefficient="5.128530924269038E-4">
				<FieldRef field="x5"/>
				<FieldRef field="x52"/>
			</PredictorTerm>
			<PredictorTerm name="x5:x53" coefficient="-5.031525925078016E-4">
				<FieldRef field="x5"/>
				<FieldRef field="x53"/>
			</PredictorTerm>
			<PredictorTerm name="x5:x56" coefficient="8.601822257692594E-4">
				<FieldRef field="x5"/>
				<FieldRef field="x56"/>
			</PredictorTerm>
			<PredictorTerm name="x5:x57" coefficient="8.097680406740589E-4">
				<FieldRef field="x5"/>
				<FieldRef field="x57"/>
			</PredictorTerm>
			<PredictorTerm name="x5:x58" coefficient="-5.650521592176336E-4">
				<FieldRef field="x5"/>
				<FieldRef field="x58"/>
			</PredictorTerm>
			<PredictorTerm name="x5:x59" coefficient="-0.0035520948388078084">
				<FieldRef field="x5"/>
				<FieldRef field="x59"/>
			</PredictorTerm>
			<PredictorTerm name="x5:x60" coefficient="-0.01060400941651369">
				<FieldRef field="x5"/>
				<FieldRef field="x60"/>
			</PredictorTerm>
			<PredictorTerm name="x6:x7" coefficient="4.4672152744469623E-4">
				<FieldRef field="x6"/>
				<FieldRef field="x7"/>
			</PredictorTerm>
			<PredictorTerm name="x6:x8" coefficient="0.005860873892736028">
				<FieldRef field="x6"/>
				<FieldRef field="x8"/>
			</PredictorTerm>
			<PredictorTerm name="x6:x9" coefficient="-9.612814380919696E-4">
				<FieldRef field="x6"/>
				<FieldRef field="x9"/>
			</PredictorTerm>
			<PredictorTerm name="x6:x10" coefficient="7.512332331690674E-4">
				<FieldRef field="x6"/>
				<FieldRef field="x10"/>
			</PredictorTerm>
			<PredictorTerm name="x6:x11" coefficient="0.011660625086562907">
				<FieldRef field="x6"/>
				<FieldRef field="x11"/>
			</PredictorTerm>
			<PredictorTerm name="x6:x12" coefficient="0.008650842183087638">
				<FieldRef field="x6"/>
				<FieldRef field="x12"/>
			</PredictorTerm>
			<PredictorTerm name="x6:x13" coefficient="0.0017594124731365568">
				<FieldRef field="x6"/>
				<FieldRef field="x13"/>
			</PredictorTerm>
			<PredictorTerm name="x6:x14" coefficient="-8.473767175771731E-4">
				<FieldRef field="x6"/>
				<FieldRef field="x14"/>
			</PredictorTerm>
			<PredictorTerm name="x6:x15" coefficient="0.00784094953818587">
				<FieldRef field="x6"/>
				<FieldRef field="x15"/>
			</PredictorTerm>
			<PredictorTerm name="x6:x16" coefficient="-1.87494969490423E-4">
				<FieldRef field="x6"/>
				<FieldRef field="x16"/>
			</PredictorTerm>
			<PredictorTerm name="x6:x17" coefficient="0.0016681428583929718">
				<FieldRef field="x6"/>
				<FieldRef field="x17"/>
			</PredictorTerm>
			<PredictorTerm name="x6:x18" coefficient="-0.0024269530270862906">
				<FieldRef field="x6"/>
				<FieldRef field="x18"/>
			</PredictorTerm>
			<PredictorTerm name="x6:x19" coefficient="-0.0027650418642313573">
				<FieldRef field="x6"/>
				<FieldRef field="x19"/>
			</PredictorTerm>
			<PredictorTerm name="x6:x20" coefficient="4.311625096177866E-4">
				<FieldRef field="x6"/>
				<FieldRef field="x20"/>
			</PredictorTerm>
			<PredictorTerm name="x6:x21" coefficient="0.00953731011222218">
				<FieldRef field="x6"/>
				<FieldRef field="x21"/>
			</PredictorTerm>
			<PredictorTerm name="x6:x22" coefficient="-4.4590329359247736E-4">
				<FieldRef field="x6"/>
				<FieldRef field="x22"/>
			</PredictorTerm>
			<PredictorTerm name="x6:x23" coefficient="-2.7144307975177746E-4">
				<FieldRef field="x6"/>
				<FieldRef field="x23"/>
			</PredictorTerm>
			<PredictorTerm name="x6:x24" coefficient="2.7692324066571684E-4">
				<FieldRef field="x6"/>
				<FieldRef field="x24"/>
			</PredictorTerm>
			<PredictorTerm name="x6:x25" coefficient="0.004425678171166654">
				<FieldRef field="x6"/>
				<FieldRef field="x25"/>
			</PredictorTerm>
			<PredictorTerm name="x6:x26" coefficient="-0.001607840673412146">
				<FieldRef field="x6"/>
				<FieldRef field="x26"/>
			</PredictorTerm>
			<PredictorTerm name="x6:x27" coefficient="0.001773762082191466">
				<FieldRef field="x6"/>
				<FieldRef field="x27"/>
			</PredictorTerm>
			<PredictorTerm name="x6:x28" coefficient="0.00255922314824345">
				<FieldRef field="x6"/>
				<FieldRef field="x28"/>
			</PredictorTerm>
			<PredictorTerm name="x6:x29" coefficient="5.795683033195665E-4">
				<FieldRef field="x6"/>
				<FieldRef field="x29"/>
			</PredictorTerm>
			<PredictorTerm name="x6:x30" coefficient="-1.3689026933184784E-4">
				<FieldRef field="x6"/>
				<FieldRef field="x30"/>
			</PredictorTerm>
			<PredictorTerm name="x6:x31" coefficient="0.0066249660465598995">
				<FieldRef field="x6"/>
				<FieldRef field="x31"/>
			</PredictorTerm>
			<PredictorTerm name="x6:x32" coefficient="-0.002490584177709982">
				<FieldRef field="x6"/>
				<FieldRef field="x32"/>
			</PredictorTerm>
			<PredictorTerm name="x6:x33" coefficient="0.0016132400423108804">
				<FieldRef field="x6"/>
				<FieldRef field="x33"/>
			</PredictorTerm>
			<PredictorTerm name="x6:x34" coefficient="0.002521344465085263">
				<FieldRef field="x6"/>
				<FieldRef field="x34"/>
			</PredictorTerm>
			<PredictorTerm name="x6:x35" coefficient="0.010614161429641354">
				<FieldRef field="x6"/>
				<FieldRef field="x35"/>
			</PredictorTerm>
			<PredictorTerm name="x6:x36" coefficient="0.009313247626827248">
				<FieldRef field="x6"/>
				<FieldRef field="x36"/>
			</PredictorTerm>
			<PredictorTerm name="x6:x37" coefficient="-0.0014220196041032438">
				<FieldRef field="x6"/>
				<FieldRef field="x37"/>
			</PredictorTerm>
			<PredictorTerm name="x6:x38" coefficient="0.010151647658016266">
				<FieldRef field="x6"/>
				<FieldRef field="x38"/>
			</PredictorTerm>
			<PredictorTerm name="x6:x39" coefficient="8.107498273745596E-4">
				<FieldRef field="x6"/>
				<FieldRef field="x39"/>
			</PredictorTerm>
			<PredictorTerm name="x6:x40" coefficient="0.011226687558319431">
				<FieldRef field="x6"/>
				<FieldRef field="x40"/>
			</PredictorTerm>
			<PredictorTerm name="x6:x41" coefficient="0.003142407207863701">
				<FieldRef field="x6"/>
				<FieldRef field="x41"/>
			</PredictorTerm>
			<PredictorTerm name="x6:x42" coefficient="-0.0017425407125466084">
				<FieldRef field="x6"/>
				<FieldRef field="x42"/>
			</PredictorTerm>
			<PredictorTerm name="x6:x43" coefficient="-0.0031319893259282865">
				<FieldRef field="x6"/>
				<FieldRef field="x43"/>
			</PredictorTerm>
			<PredictorTerm name="x6:x44" coefficient="0.005688316618649714">
				<FieldRef field="x6"/>
				<FieldRef field="x44"/>
			</PredictorTerm>
			<PredictorTerm name="x6:x46" coefficient="-9.482836571795999E-4">
				<FieldRef field="x6"/>
				<FieldRef field="x46"/>
			</PredictorTerm>
			<PredictorTerm name="x6:x47" coefficient="3.924659173042558E-4">
				<FieldRef field="x6"/>
				<FieldRef field="x47"/>
			</PredictorTerm>
			<PredictorTerm name="x6:x48" coefficient="-3.2385494730163985E-4">
				<FieldRef field="x6"/>
				<FieldRef field="x48"/>
			</PredictorTerm>
			<PredictorTerm name="x6:x49" coefficient="0.0038681575199142147">
				<FieldRef field="x6"/>
				<FieldRef field="x49"/>
			</PredictorTerm>
			<PredictorTerm name="x6:x50" coefficient="-3.9927713360494175E-4">
				<FieldRef field="x6"/>
				<FieldRef field="x50"/>
			</PredictorTerm>
			<PredictorTerm name="x6:x51" coefficient="4.230677529377891E-4">
				<FieldRef field="x6"/>
				<FieldRef field="x51"/>
			</PredictorTerm>
			<PredictorTerm name="x6:x53" coefficient="-2.4595790531955775E-4">
				<FieldRef field="x6"/>
				<FieldRef field="x53"/>
			</PredictorTerm>
			<PredictorTerm name="x6:x54" coefficient="-0.003276821807754169">
				<FieldRef field="x6"/>
				<FieldRef field="x54"/>
			</PredictorTerm>
			<PredictorTerm name="x6:x55" coefficient="-0.0013423197521384824">
				<FieldRef field="x6"/>
				<FieldRef field="x55"/>
			</PredictorTerm>
			<PredictorTerm name="x6:x56" coefficient="5.587078372075238E-4">
				<FieldRef field="x6"/>
				<FieldRef field="x56"/>
			</PredictorTerm>
			<PredictorTerm name="x6:x58" coefficient="0.0016451192877121362">
				<FieldRef field="x6"/>
				<FieldRef field="x58"/>
			</PredictorTerm>
			<PredictorTerm name="x6:x59" coefficient="4.901881363646883E-4">
				<FieldRef field="x6"/>
				<FieldRef field="x59"/>
			</PredictorTerm>
			<PredictorTerm name="x6:x60" coefficient="0.004470230229299549">
				<FieldRef field="x6"/>
				<FieldRef field="x60"/>
			</PredictorTerm>
			<PredictorTerm name="x7:x8" coefficient="-0.001139068800087282">
				<FieldRef field="x7"/>
				<FieldRef field="x8"/>
			</PredictorTerm>
			<PredictorTerm name="x7:x10" coefficient="0.002931372739494125">
				<FieldRef field="x7"/>
				<FieldRef field="x10"/>
			</PredictorTerm>
			<PredictorTerm name="x7:x11" coefficient="0.0012504525800274657">
				<FieldRef field="x7"/>
				<FieldRef field="x11"/>
			</PredictorTerm>
			<PredictorTerm name="x7:x12" coefficient="0.0011424517576386778">
				<FieldRef field="x7"/>
				<FieldRef field="x12"/>
			</PredictorTerm>
			<PredictorTerm name="x7:x15" coefficient="0.001726805341477605">
				<FieldRef field="x7"/>
				<FieldRef field="x15"/>
			</PredictorTerm>
			<PredictorTerm name="x7:x16" coefficient="1.0590142632302368E-4">
				<FieldRef field="x7"/>
				<FieldRef field="x16"/>
			</PredictorTerm>
			<PredictorTerm name="x7:x17" coefficient="-7.846053331463432E-4">
				<FieldRef field="x7"/>
				<FieldRef field="x17"/>
			</PredictorTerm>
			<PredictorTerm name="x7:x19" coefficient="-0.0010210282348213679">
				<FieldRef field="x7"/>
				<FieldRef field="x19"/>
			</PredictorTerm>
			<PredictorTerm name="x7:x21" coefficient="-0.0021871288713482097">
				<FieldRef field="x7"/>
				<FieldRef field="x21"/>
			</PredictorTerm>
			<PredictorTerm name="x7:x22" coefficient="-1.373685699693115E-4">
				<FieldRef field="x7"/>
				<FieldRef field="x22"/>
			</PredictorTerm>
			<PredictorTerm name="x7:x23" coefficient="-9.412708137626459E-5">
				<FieldRef field="x7"/>
				<FieldRef field="x23"/>
			</PredictorTerm>
			<PredictorTerm name="x7:x24" coefficient="0.0021654263755659423">
				<FieldRef field="x7"/>
				<FieldRef field="x24"/>
			</PredictorTerm>
			<PredictorTerm name="x7:x25" coefficient="0.0023842998804925295">
				<FieldRef field="x7"/>
				<FieldRef field="x25"/>
			</PredictorTerm>
			<PredictorTerm name="x7:x26" coefficient="-0.0011633598697054356">
				<FieldRef field="x7"/>
				<FieldRef field="x26"/>
			</PredictorTerm>
			<PredictorTerm name="x7:x27" coefficient="1.405945329655924E-4">
				<FieldRef field="x7"/>
				<FieldRef field="x27"/>
			</PredictorTerm>
			<PredictorTerm name="x7:x29" coefficient="9.369701388069625E-4">
				<FieldRef field="x7"/>
				<FieldRef field="x29"/>
			</PredictorTerm>
			<PredictorTerm name="x7:x31" coefficient="0.0010918644662382517">
				<FieldRef field="x7"/>
				<FieldRef field="x31"/>
			</PredictorTerm>
			<PredictorTerm name="x7:x32" coefficient="0.0024855096276579823">
				<FieldRef field="x7"/>
				<FieldRef field="x32"/>
			</PredictorTerm>
			<PredictorTerm name="x7:x33" coefficient="1.9708461994374045E-4">
				<FieldRef field="x7"/>
				<FieldRef field="x33"/>
			</PredictorTerm>
			<PredictorTerm name="x7:x35" coefficient="0.003118347295380283">
				<FieldRef field="x7"/>
				<FieldRef field="x35"/>
			</PredictorTerm>
			<PredictorTerm name="x7:x36" coefficient="0.004015614298324352">
				<FieldRef field="x7"/>
				<FieldRef field="x36"/>
			</PredictorTerm>
			<PredictorTerm name="x7:x37" coefficient="2.2093582989890915E-4">
				<FieldRef field="x7"/>
				<FieldRef field="x37"/>
			</PredictorTerm>
			<PredictorTerm name="x7:x38" coefficient="0.003519829506001224">
				<FieldRef field="x7"/>
				<FieldRef field="x38"/>
			</PredictorTerm>
			<PredictorTerm name="x7:x39" coefficient="2.4920637514278936E-4">
				<FieldRef field="x7"/>
				<FieldRef field="x39"/>
			</PredictorTerm>
			<PredictorTerm name="x7:x40" coefficient="9.47662626901594E-4">
				<FieldRef field="x7"/>
				<FieldRef field="x40"/>
			</PredictorTerm>
			<PredictorTerm name="x7:x42" coefficient="3.5687548988849586E-4">
				<FieldRef field="x7"/>
				<FieldRef field="x42"/>
			</PredictorTerm>
			<PredictorTerm name="x7:x43" coefficient="-6.620448626567335E-4">
				<FieldRef field="x7"/>
				<FieldRef field="x43"/>
			</PredictorTerm>
			<PredictorTerm name="x7:x44" coefficient="-0.0011736339713047576">
				<FieldRef field="x7"/>
				<FieldRef field="x44"/>
			</PredictorTerm>
			<PredictorTerm name="x7:x47" coefficient="4.606621338638586E-4">
				<FieldRef field="x7"/>
				<FieldRef field="x47"/>
			</PredictorTerm>
			<PredictorTerm name="x7:x48" coefficient="0.004594024195885893">
				<FieldRef field="x7"/>
				<FieldRef field="x48"/>
			</PredictorTerm>
			<PredictorTerm name="x7:x49" coefficient="-0.0011470951849014376">
				<FieldRef field="x7"/>
				<FieldRef field="x49"/>
			</PredictorTerm>
			<PredictorTerm name="x7:x50" coefficient="0.0010694893758640435">
				<FieldRef field="x7"/>
				<FieldRef field="x50"/>
			</PredictorTerm>
			<PredictorTerm name="x7:x51" coefficient="2.1116622122880547E-4">
				<FieldRef field="x7"/>
				<FieldRef field="x51"/>
			</PredictorTerm>
			<PredictorTerm name="x7:x52" coefficient="-8.125307069691495E-4">
				<FieldRef field="x7"/>
				<FieldRef field="x52"/>
			</PredictorTerm>
			<PredictorTerm name="x7:x53" coefficient="3.5217656204915976E-4">
				<FieldRef field="x7"/>
				<FieldRef field="x53"/>
			</PredictorTerm>
			<PredictorTerm name="x7:x55" coefficient="-8.125307069691495E-4">
				<FieldRef field="x7"/>
				<FieldRef field="x55"/>
			</PredictorTerm>
			<PredictorTerm name="x7:x57" coefficient="2.232802315786322E-4">
				<FieldRef field="x7"/>
				<FieldRef field="x57"/>
			</PredictorTerm>
			<PredictorTerm name="x7:x59" coefficient="-6.116290047551438E-4">
				<FieldRef field="x7"/>
				<FieldRef field="x59"/>
			</PredictorTerm>
			<PredictorTerm name="x7:x60" coefficient="0.002180517590113107">
				<FieldRef field="x7"/>
				<FieldRef field="x60"/>
			</PredictorTerm>
			<PredictorTerm name="x8:x9" coefficient="-0.015596603719462657">
				<FieldRef field="x8"/>
				<FieldRef field="x9"/>
			</PredictorTerm>
			<PredictorTerm name="x8:x10" coefficient="-0.00865435038753514">
				<FieldRef field="x8"/>
				<FieldRef field="x10"/>
			</PredictorTerm>
			<PredictorTerm name="x8:x11" coefficient="-0.024385559131138178">
				<FieldRef field="x8"/>
				<FieldRef field="x11"/>
			</PredictorTerm>
			<PredictorTerm name="x8:x12" coefficient="0.022504597355853626">
				<FieldRef field="x8"/>
				<FieldRef field="x12"/>
			</PredictorTerm>
			<PredictorTerm name="x8:x13" coefficient="0.009289107657197829">
				<FieldRef field="x8"/>
				<FieldRef field="x13"/>
			</PredictorTerm>
			<PredictorTerm name="x8:x14" coefficient="-0.014543392664588291">
				<FieldRef field="x8"/>
				<FieldRef field="x14"/>
			</PredictorTerm>
			<PredictorTerm name="x8:x15" coefficient="-0.018251804461252876">
				<FieldRef field="x8"/>
				<FieldRef field="x15"/>
			</PredictorTerm>
			<PredictorTerm name="x8:x16" coefficient="-5.954695727565439E-4">
				<FieldRef field="x8"/>
				<FieldRef field="x16"/>
			</PredictorTerm>
			<PredictorTerm name="x8:x17" coefficient="0.0030157923166332064">
				<FieldRef field="x8"/>
				<FieldRef field="x17"/>
			</PredictorTerm>
			<PredictorTerm name="x8:x18" coefficient="-0.0034875520940031318">
				<FieldRef field="x8"/>
				<FieldRef field="x18"/>
			</PredictorTerm>
			<PredictorTerm name="x8:x19" coefficient="-0.011943639690220949">
				<FieldRef field="x8"/>
				<FieldRef field="x19"/>
			</PredictorTerm>
			<PredictorTerm name="x8:x20" coefficient="-0.0024978085490031735">
				<FieldRef field="x8"/>
				<FieldRef field="x20"/>
			</PredictorTerm>
			<PredictorTerm name="x8:x21" coefficient="-0.006028501295419375">
				<FieldRef field="x8"/>
				<FieldRef field="x21"/>
			</PredictorTerm>
			<PredictorTerm name="x8:x22" coefficient="-0.004031036410522691">
				<FieldRef field="x8"/>
				<FieldRef field="x22"/>
			</PredictorTerm>
			<PredictorTerm name="x8:x23" coefficient="0.003762267664735185">
				<FieldRef field="x8"/>
				<FieldRef field="x23"/>
			</PredictorTerm>
			<PredictorTerm name="x8:x24" coefficient="0.0018111957375345612">
				<FieldRef field="x8"/>
				<FieldRef field="x24"/>
			</PredictorTerm>
			<PredictorTerm name="x8:x25" coefficient="-0.0332465745743626">
				<FieldRef field="x8"/>
				<FieldRef field="x25"/>
			</PredictorTerm>
			<PredictorTerm name="x8:x26" coefficient="-0.00383015999403063">
				<FieldRef field="x8"/>
				<FieldRef field="x26"/>
			</PredictorTerm>
			<PredictorTerm name="x8:x27" coefficient="-0.016137950871429503">
				<FieldRef field="x8"/>
				<FieldRef field="x27"/>
			</PredictorTerm>
			<PredictorTerm name="x8:x28" coefficient="0.0010943596846115654">
				<FieldRef field="x8"/>
				<FieldRef field="x28"/>
			</PredictorTerm>
			<PredictorTerm name="x8:x29" coefficient="-0.004991528622808999">
				<FieldRef field="x8"/>
				<FieldRef field="x29"/>
			</PredictorTerm>
			<PredictorTerm name="x8:x30" coefficient="-1.1863823342093472E-4">
				<FieldRef field="x8"/>
				<FieldRef field="x30"/>
			</PredictorTerm>
			<PredictorTerm name="x8:x31" coefficient="-0.018249258424326523">
				<FieldRef field="x8"/>
				<FieldRef field="x31"/>
			</PredictorTerm>
			<PredictorTerm name="x8:x32" coefficient="0.006388062293518265">
				<FieldRef field="x8"/>
				<FieldRef field="x32"/>
			</PredictorTerm>
			<PredictorTerm name="x8:x33" coefficient="0.006186353818866882">
				<FieldRef field="x8"/>
				<FieldRef field="x33"/>
			</PredictorTerm>
			<PredictorTerm name="x8:x34" coefficient="-0.003468101815553221">
				<FieldRef field="x8"/>
				<FieldRef field="x34"/>
			</PredictorTerm>
			<PredictorTerm name="x8:x35" coefficient="-0.04743003863101918">
				<FieldRef field="x8"/>
				<FieldRef field="x35"/>
			</PredictorTerm>
			<PredictorTerm name="x8:x36" coefficient="-0.03266766884873099">
				<FieldRef field="x8"/>
				<FieldRef field="x36"/>
			</PredictorTerm>
			<PredictorTerm name="x8:x37" coefficient="-0.0017925661030612472">
				<FieldRef field="x8"/>
				<FieldRef field="x37"/>
			</PredictorTerm>
			<PredictorTerm name="x8:x38" coefficient="-0.04376163864929593">
				<FieldRef field="x8"/>
				<FieldRef field="x38"/>
			</PredictorTerm>
			<PredictorTerm name="x8:x39" coefficient="-4.479494788434948E-4">
				<FieldRef field="x8"/>
				<FieldRef field="x39"/>
			</PredictorTerm>
			<PredictorTerm name="x8:x40" coefficient="0.02913927063087228">
				<FieldRef field="x8"/>
				<FieldRef field="x40"/>
			</PredictorTerm>
			<PredictorTerm name="x8:x41" coefficient="0.009403553003034816">
				<FieldRef field="x8"/>
				<FieldRef field="x41"/>
			</PredictorTerm>
			<PredictorTerm name="x8:x42" coefficient="0.001455218529093698">
				<FieldRef field="x8"/>
				<FieldRef field="x42"/>
			</PredictorTerm>
			<PredictorTerm name="x8:x43" coefficient="-0.009472037931485912">
				<FieldRef field="x8"/>
				<FieldRef field="x43"/>
			</PredictorTerm>
			<PredictorTerm name="x8:x44" coefficient="0.006765193642109689">
				<FieldRef field="x8"/>
				<FieldRef field="x44"/>
			</PredictorTerm>
			<PredictorTerm name="x8:x45" coefficient="0.0013018967183467272">
				<FieldRef field="x8"/>
				<FieldRef field="x45"/>
			</PredictorTerm>
			<PredictorTerm name="x8:x46" coefficient="-0.010969623913020875">
				<FieldRef field="x8"/>
				<FieldRef field="x46"/>
			</PredictorTerm>
			<PredictorTerm name="x8:x47" coefficient="0.002060752926692832">
				<FieldRef field="x8"/>
				<FieldRef field="x47"/>
			</PredictorTerm>
			<PredictorTerm name="x8:x48" coefficient="0.0017578121800233052">
				<FieldRef field="x8"/>
				<FieldRef field="x48"/>
			</PredictorTerm>
			<PredictorTerm name="x8:x49" coefficient="-0.004716563803108898">
				<FieldRef field="x8"/>
				<FieldRef field="x49"/>
			</PredictorTerm>
			<PredictorTerm name="x8:x50" coefficient="-0.0038627914526563603">
				<FieldRef field="x8"/>
				<FieldRef field="x50"/>
			</PredictorTerm>
			<PredictorTerm name="x8:x51" coefficient="-1.5292560519325008E-4">
				<FieldRef field="x8"/>
				<FieldRef field="x51"/>
			</PredictorTerm>
			<PredictorTerm name="x8:x52" coefficient="-0.0020549114245219805">
				<FieldRef field="x8"/>
				<FieldRef field="x52"/>
			</PredictorTerm>
			<PredictorTerm name="x8:x53" coefficient="-1.6576766041299376E-5">
				<FieldRef field="x8"/>
				<FieldRef field="x53"/>
			</PredictorTerm>
			<PredictorTerm name="x8:x54" coefficient="-0.00305813562556995">
				<FieldRef field="x8"/>
				<FieldRef field="x54"/>
			</PredictorTerm>
			<PredictorTerm name="x8:x55" coefficient="-0.007635540973004651">
				<FieldRef field="x8"/>
				<FieldRef field="x55"/>
			</PredictorTerm>
			<PredictorTerm name="x8:x56" coefficient="-4.779909630861298E-4">
				<FieldRef field="x8"/>
				<FieldRef field="x56"/>
			</PredictorTerm>
			<PredictorTerm name="x8:x57" coefficient="6.7904804965195E-4">
				<FieldRef field="x8"/>
				<FieldRef field="x57"/>
			</PredictorTerm>
			<PredictorTerm name="x8:x58" coefficient="-1.8285288524874272E-4">
				<FieldRef field="x8"/>
				<FieldRef field="x58"/>
			</PredictorTerm>
			<PredictorTerm name="x8:x59" coefficient="0.009646566161901304">
				<FieldRef field="x8"/>
				<FieldRef field="x59"/>
			</PredictorTerm>
			<PredictorTerm name="x8:x60" coefficient="-0.023142172915115798">
				<FieldRef field="x8"/>
				<FieldRef field="x60"/>
			</PredictorTerm>
			<PredictorTerm name="x9:x10" coefficient="-0.013003044196331907">
				<FieldRef field="x9"/>
				<FieldRef field="x10"/>
			</PredictorTerm>
			<PredictorTerm name="x9:x11" coefficient="-0.03227828593762996">
				<FieldRef field="x9"/>
				<FieldRef field="x11"/>
			</PredictorTerm>
			<PredictorTerm name="x9:x12" coefficient="-0.01570442185718529">
				<FieldRef field="x9"/>
				<FieldRef field="x12"/>
			</PredictorTerm>
			<PredictorTerm name="x9:x13" coefficient="0.0025724646897696177">
				<FieldRef field="x9"/>
				<FieldRef field="x13"/>
			</PredictorTerm>
			<PredictorTerm name="x9:x14" coefficient="-0.009807581501395076">
				<FieldRef field="x9"/>
				<FieldRef field="x14"/>
			</PredictorTerm>
			<PredictorTerm name="x9:x15" coefficient="-0.010015713234587609">
				<FieldRef field="x9"/>
				<FieldRef field="x15"/>
			</PredictorTerm>
			<PredictorTerm name="x9:x17" coefficient="4.3419641108624846E-4">
				<FieldRef field="x9"/>
				<FieldRef field="x17"/>
			</PredictorTerm>
			<PredictorTerm name="x9:x18" coefficient="-0.005228745081331681">
				<FieldRef field="x9"/>
				<FieldRef field="x18"/>
			</PredictorTerm>
			<PredictorTerm name="x9:x19" coefficient="-0.002785964979506134">
				<FieldRef field="x9"/>
				<FieldRef field="x19"/>
			</PredictorTerm>
			<PredictorTerm name="x9:x20" coefficient="-6.571505399656582E-4">
				<FieldRef field="x9"/>
				<FieldRef field="x20"/>
			</PredictorTerm>
			<PredictorTerm name="x9:x21" coefficient="-0.018224938153306412">
				<FieldRef field="x9"/>
				<FieldRef field="x21"/>
			</PredictorTerm>
			<PredictorTerm name="x9:x22" coefficient="-0.0016822481149484695">
				<FieldRef field="x9"/>
				<FieldRef field="x22"/>
			</PredictorTerm>
			<PredictorTerm name="x9:x23" coefficient="-0.0029026023374399187">
				<FieldRef field="x9"/>
				<FieldRef field="x23"/>
			</PredictorTerm>
			<PredictorTerm name="x9:x24" coefficient="9.151699398064592E-4">
				<FieldRef field="x9"/>
				<FieldRef field="x24"/>
			</PredictorTerm>
			<PredictorTerm name="x9:x25" coefficient="-0.03834712175182481">
				<FieldRef field="x9"/>
				<FieldRef field="x25"/>
			</PredictorTerm>
			<PredictorTerm name="x9:x26" coefficient="-0.0017838314949028967">
				<FieldRef field="x9"/>
				<FieldRef field="x26"/>
			</PredictorTerm>
			<PredictorTerm name="x9:x27" coefficient="-0.012896814806295426">
				<FieldRef field="x9"/>
				<FieldRef field="x27"/>
			</PredictorTerm>
			<PredictorTerm name="x9:x28" coefficient="-0.0037046825393659993">
				<FieldRef field="x9"/>
				<FieldRef field="x28"/>
			</PredictorTerm>
			<PredictorTerm name="x9:x29" coefficient="-0.004238110579765484">
				<FieldRef field="x9"/>
				<FieldRef field="x29"/>
			</PredictorTerm>
			<PredictorTerm name="x9:x31" coefficient="-0.015684396907734155">
				<FieldRef field="x9"/>
				<FieldRef field="x31"/>
			</PredictorTerm>
			<PredictorTerm name="x9:x32" coefficient="-0.0031148571900818296">
				<FieldRef field="x9"/>
				<FieldRef field="x32"/>
			</PredictorTerm>
			<PredictorTerm name="x9:x33" coefficient="-3.759006236878263E-4">
				<FieldRef field="x9"/>
				<FieldRef field="x33"/>
			</PredictorTerm>
			<PredictorTerm name="x9:x34" coefficient="-0.0023749676012388846">
				<FieldRef field="x9"/>
				<FieldRef field="x34"/>
			</PredictorTerm>
			<PredictorTerm name="x9:x35" coefficient="-0.0447889161917983">
				<FieldRef field="x9"/>
				<FieldRef field="x35"/>
			</PredictorTerm>
			<PredictorTerm name="x9:x36" coefficient="-0.05125112021346985">
				<FieldRef field="x9"/>
				<FieldRef field="x36"/>
			</PredictorTerm>
			<PredictorTerm name="x9:x37" coefficient="3.563396774856917E-4">
				<FieldRef field="x9"/>
				<FieldRef field="x37"/>
			</PredictorTerm>
			<PredictorTerm name="x9:x38" coefficient="-0.035480212343189606">
				<FieldRef field="x9"/>
				<FieldRef field="x38"/>
			</PredictorTerm>
			<PredictorTerm name="x9:x39" coefficient="-0.0031010495451390284">
				<FieldRef field="x9"/>
				<FieldRef field="x39"/>
			</PredictorTerm>
			<PredictorTerm name="x9:x40" coefficient="-0.004288005622889097">
				<FieldRef field="x9"/>
				<FieldRef field="x40"/>
			</PredictorTerm>
			<PredictorTerm name="x9:x41" coefficient="-0.004354072883302714">
				<FieldRef field="x9"/>
				<FieldRef field="x41"/>
			</PredictorTerm>
			<PredictorTerm name="x9:x42" coefficient="-0.00595200352068893">
				<FieldRef field="x9"/>
				<FieldRef field="x42"/>
			</PredictorTerm>
			<PredictorTerm name="x9:x43" coefficient="-0.002039372901804599">
				<FieldRef field="x9"/>
				<FieldRef field="x43"/>
			</PredictorTerm>
			<PredictorTerm name="x9:x44" coefficient="-0.006974971253155111">
				<FieldRef field="x9"/>
				<FieldRef field="x44"/>
			</PredictorTerm>
			<PredictorTerm name="x9:x46" coefficient="-0.007156781846072632">
				<FieldRef field="x9"/>
				<FieldRef field="x46"/>
			</PredictorTerm>
			<PredictorTerm name="x9:x47" coefficient="2.8463552228729283E-4">
				<FieldRef field="x9"/>
				<FieldRef field="x47"/>
			</PredictorTerm>
			<PredictorTerm name="x9:x49" coefficient="-0.011293183585432694">
				<FieldRef field="x9"/>
				<FieldRef field="x49"/>
			</PredictorTerm>
			<PredictorTerm name="x9:x50" coefficient="-5.86473371099519E-4">
				<FieldRef field="x9"/>
				<FieldRef field="x50"/>
			</PredictorTerm>
			<PredictorTerm name="x9:x54" coefficient="-0.0027213161520684014">
				<FieldRef field="x9"/>
				<FieldRef field="x54"/>
			</PredictorTerm>
			<PredictorTerm name="x9:x55" coefficient="-0.0022446614316715434">
				<FieldRef field="x9"/>
				<FieldRef field="x55"/>
			</PredictorTerm>
			<PredictorTerm name="x9:x56" coefficient="0.0016456411414694002">
				<FieldRef field="x9"/>
				<FieldRef field="x56"/>
			</PredictorTerm>
			<PredictorTerm name="x9:x59" coefficient="0.0033562451574175333">
				<FieldRef field="x9"/>
				<FieldRef field="x59"/>
			</PredictorTerm>
			<PredictorTerm name="x9:x60" coefficient="-0.032594840671058375">
				<FieldRef field="x9"/>
				<FieldRef field="x60"/>
			</PredictorTerm>
			<PredictorTerm name="x10:x11" coefficient="0.004366385066918192">
				<FieldRef field="x10"/>
				<FieldRef field="x11"/>
			</PredictorTerm>
			<PredictorTerm name="x10:x12" coefficient="2.484563461185238E-4">
				<FieldRef field="x10"/>
				<FieldRef field="x12"/>
			</PredictorTerm>
			<PredictorTerm name="x10:x13" coefficient="0.004102635605020314">
				<FieldRef field="x10"/>
				<FieldRef field="x13"/>
			</PredictorTerm>
			<PredictorTerm name="x10:x14" coefficient="-7.665071156044078E-4">
				<FieldRef field="x10"/>
				<FieldRef field="x14"/>
			</PredictorTerm>
			<PredictorTerm name="x10:x15" coefficient="0.005517268053519984">
				<FieldRef field="x10"/>
				<FieldRef field="x15"/>
			</PredictorTerm>
			<PredictorTerm name="x10:x16" coefficient="-3.780318121072491E-4">
				<FieldRef field="x10"/>
				<FieldRef field="x16"/>
			</PredictorTerm>
			<PredictorTerm name="x10:x17" coefficient="5.682862146910119E-4">
				<FieldRef field="x10"/>
				<FieldRef field="x17"/>
			</PredictorTerm>
			<PredictorTerm name="x10:x18" coefficient="-0.0027324296713487294">
				<FieldRef field="x10"/>
				<FieldRef field="x18"/>
			</PredictorTerm>
			<PredictorTerm name="x10:x19" coefficient="-0.004265836204315848">
				<FieldRef field="x10"/>
				<FieldRef field="x19"/>
			</PredictorTerm>
			<PredictorTerm name="x10:x20" coefficient="-0.0012167013528994873">
				<FieldRef field="x10"/>
				<FieldRef field="x20"/>
			</PredictorTerm>
			<PredictorTerm name="x10:x21" coefficient="-0.016596757922087434">
				<FieldRef field="x10"/>
				<FieldRef field="x21"/>
			</PredictorTerm>
			<PredictorTerm name="x10:x22" coefficient="5.469931217605603E-4">
				<FieldRef field="x10"/>
				<FieldRef field="x22"/>
			</PredictorTerm>
			<PredictorTerm name="x10:x23" coefficient="-0.0018061614038445105">
				<FieldRef field="x10"/>
				<FieldRef field="x23"/>
			</PredictorTerm>
			<PredictorTerm name="x10:x24" coefficient="0.006906223386645329">
				<FieldRef field="x10"/>
				<FieldRef field="x24"/>
			</PredictorTerm>
			<PredictorTerm name="x10:x25" coefficient="0.006150555322599449">
				<FieldRef field="x10"/>
				<FieldRef field="x25"/>
			</PredictorTerm>
			<PredictorTerm name="x10:x26" coefficient="-0.002248674739525568">
				<FieldRef field="x10"/>
				<FieldRef field="x26"/>
			</PredictorTerm>
			<PredictorTerm name="x10:x27" coefficient="-0.01217292085694223">
				<FieldRef field="x10"/>
				<FieldRef field="x27"/>
			</PredictorTerm>
			<PredictorTerm name="x10:x28" coefficient="0.0016548550545167362">
				<FieldRef field="x10"/>
				<FieldRef field="x28"/>
			</PredictorTerm>
			<PredictorTerm name="x10:x29" coefficient="-0.0024378452991562953">
				<FieldRef field="x10"/>
				<FieldRef field="x29"/>
			</PredictorTerm>
			<PredictorTerm name="x10:x30" coefficient="0.0038427305490371776">
				<FieldRef field="x10"/>
				<FieldRef field="x30"/>
			</PredictorTerm>
			<PredictorTerm name="x10:x31" coefficient="-0.0048029207071228815">
				<FieldRef field="x10"/>
				<FieldRef field="x31"/>
			</PredictorTerm>
			<PredictorTerm name="x10:x32" coefficient="-1.7458336841880335E-4">
				<FieldRef field="x10"/>
				<FieldRef field="x32"/>
			</PredictorTerm>
			<PredictorTerm name="x10:x33" coefficient="1.2379021356670607E-5">
				<FieldRef field="x10"/>
				<FieldRef field="x33"/>
			</PredictorTerm>
			<PredictorTerm name="x10:x34" coefficient="0.005671409014908007">
				<FieldRef field="x10"/>
				<FieldRef field="x34"/>
			</PredictorTerm>
			<PredictorTerm name="x10:x35" coefficient="0.0032164956716131485">
				<FieldRef field="x10"/>
				<FieldRef field="x35"/>
			</PredictorTerm>
			<PredictorTerm name="x10:x36" coefficient="-0.008967494046035626">
				<FieldRef field="x10"/>
				<FieldRef field="x36"/>
			</PredictorTerm>
			<PredictorTerm name="x10:x37" coefficient="-0.001861803937813538">
				<FieldRef field="x10"/>
				<FieldRef field="x37"/>
			</PredictorTerm>
			<PredictorTerm name="x10:x38" coefficient="0.004679893201766951">
				<FieldRef field="x10"/>
				<FieldRef field="x38"/>
			</PredictorTerm>
			<PredictorTerm name="x10:x39" coefficient="1.2187512261122588E-4">
				<FieldRef field="x10"/>
				<FieldRef field="x39"/>
			</PredictorTerm>
			<PredictorTerm name="x10:x40" coefficient="-0.007282591396975367">
				<FieldRef field="x10"/>
				<FieldRef field="x40"/>
			</PredictorTerm>
			<PredictorTerm name="x10:x41" coefficient="0.008426261519149457">
				<FieldRef field="x10"/>
				<FieldRef field="x41"/>
			</PredictorTerm>
			<PredictorTerm name="x10:x42" coefficient="-0.0030863046395652382">
				<FieldRef field="x10"/>
				<FieldRef field="x42"/>
			</PredictorTerm>
			<PredictorTerm name="x10:x43" coefficient="-0.010511733555691044">
				<FieldRef field="x10"/>
				<FieldRef field="x43"/>
			</PredictorTerm>
			<PredictorTerm name="x10:x44" coefficient="-0.005372799615744542">
				<FieldRef field="x10"/>
				<FieldRef field="x44"/>
			</PredictorTerm>
			<PredictorTerm name="x10:x45" coefficient="0.0031151043675999497">
				<FieldRef field="x10"/>
				<FieldRef field="x45"/>
			</PredictorTerm>
			<PredictorTerm name="x10:x46" coefficient="-0.0045047912354774546">
				<FieldRef field="x10"/>
				<FieldRef field="x46"/>
			</PredictorTerm>
			<PredictorTerm name="x10:x47" coefficient="2.85628863264256E-5">
				<FieldRef field="x10"/>
				<FieldRef field="x47"/>
			</PredictorTerm>
			<PredictorTerm name="x10:x48" coefficient="0.003944717917565323">
				<FieldRef field="x10"/>
				<FieldRef field="x48"/>
			</PredictorTerm>
			<PredictorTerm name="x10:x49" coefficient="-0.018171243148707685">
				<FieldRef field="x10"/>
				<FieldRef field="x49"/>
			</PredictorTerm>
			<PredictorTerm name="x10:x50" coefficient="4.956557386080565E-4">
				<FieldRef field="x10"/>
				<FieldRef field="x50"/>
			</PredictorTerm>
			<PredictorTerm name="x10:x52" coefficient="-0.0011086486314500089">
				<FieldRef field="x10"/>
				<FieldRef field="x52"/>
			</PredictorTerm>
			<PredictorTerm name="x10:x53" coefficient="-0.0015803332313021042">
				<FieldRef field="x10"/>
				<FieldRef field="x53"/>
			</PredictorTerm>
			<PredictorTerm name="x10:x54" coefficient="-0.003527147222551697">
				<FieldRef field="x10"/>
				<FieldRef field="x54"/>
			</PredictorTerm>
			<PredictorTerm name="x10:x55" coefficient="-0.0031352438087065763">
				<FieldRef field="x10"/>
				<FieldRef field="x55"/>
			</PredictorTerm>
			<PredictorTerm name="x10:x56" coefficient="0.0033504737482626325">
				<FieldRef field="x10"/>
				<FieldRef field="x56"/>
			</PredictorTerm>
			<PredictorTerm name="x10:x57" coefficient="3.9126366419096507E-4">
				<FieldRef field="x10"/>
				<FieldRef field="x57"/>
			</PredictorTerm>
			<PredictorTerm name="x10:x58" coefficient="-1.3665772419336645E-4">
				<FieldRef field="x10"/>
				<FieldRef field="x58"/>
			</PredictorTerm>
			<PredictorTerm name="x10:x59" coefficient="-0.0069776215777688794">
				<FieldRef field="x10"/>
				<FieldRef field="x59"/>
			</PredictorTerm>
			<PredictorTerm name="x10:x60" coefficient="0.0019592406379060397">
				<FieldRef field="x10"/>
				<FieldRef field="x60"/>
			</PredictorTerm>
			<PredictorTerm name="x11:x12" coefficient="0.013326834990339494">
				<FieldRef field="x11"/>
				<FieldRef field="x12"/>
			</PredictorTerm>
			<PredictorTerm name="x11:x13" coefficient="0.03437804560794151">
				<FieldRef field="x11"/>
				<FieldRef field="x13"/>
			</PredictorTerm>
			<PredictorTerm name="x11:x14" coefficient="-0.04737242630722521">
				<FieldRef field="x11"/>
				<FieldRef field="x14"/>
			</PredictorTerm>
			<PredictorTerm name="x11:x15" coefficient="-0.011384175732226252">
				<FieldRef field="x11"/>
				<FieldRef field="x15"/>
			</PredictorTerm>
			<PredictorTerm name="x11:x16" coefficient="-0.0014162724240214866">
				<FieldRef field="x11"/>
				<FieldRef field="x16"/>
			</PredictorTerm>
			<PredictorTerm name="x11:x17" coefficient="1.4501041547281684E-4">
				<FieldRef field="x11"/>
				<FieldRef field="x17"/>
			</PredictorTerm>
			<PredictorTerm name="x11:x18" coefficient="-0.010778900838967105">
				<FieldRef field="x11"/>
				<FieldRef field="x18"/>
			</PredictorTerm>
			<PredictorTerm name="x11:x19" coefficient="-0.022585600534022747">
				<FieldRef field="x11"/>
				<FieldRef field="x19"/>
			</PredictorTerm>
			<PredictorTerm name="x11:x20" coefficient="-4.569567598215899E-4">
				<FieldRef field="x11"/>
				<FieldRef field="x20"/>
			</PredictorTerm>
			<PredictorTerm name="x11:x21" coefficient="0.00841016756588971">
				<FieldRef field="x11"/>
				<FieldRef field="x21"/>
			</PredictorTerm>
			<PredictorTerm name="x11:x22" coefficient="-0.015732049878814443">
				<FieldRef field="x11"/>
				<FieldRef field="x22"/>
			</PredictorTerm>
			<PredictorTerm name="x11:x23" coefficient="0.005106111224184986">
				<FieldRef field="x11"/>
				<FieldRef field="x23"/>
			</PredictorTerm>
			<PredictorTerm name="x11:x24" coefficient="0.01484878345722232">
				<FieldRef field="x11"/>
				<FieldRef field="x24"/>
			</PredictorTerm>
			<PredictorTerm name="x11:x25" coefficient="-0.026024316967750104">
				<FieldRef field="x11"/>
				<FieldRef field="x25"/>
			</PredictorTerm>
			<PredictorTerm name="x11:x26" coefficient="-0.00796621915376105">
				<FieldRef field="x11"/>
				<FieldRef field="x26"/>
			</PredictorTerm>
			<PredictorTerm name="x11:x27" coefficient="-0.04310272612250416">
				<FieldRef field="x11"/>
				<FieldRef field="x27"/>
			</PredictorTerm>
			<PredictorTerm name="x11:x28" coefficient="0.007351579795093028">
				<FieldRef field="x11"/>
				<FieldRef field="x28"/>
			</PredictorTerm>
			<PredictorTerm name="x11:x29" coefficient="0.0018906662807590706">
				<FieldRef field="x11"/>
				<FieldRef field="x29"/>
			</PredictorTerm>
			<PredictorTerm name="x11:x30" coefficient="0.0034389799343231384">
				<FieldRef field="x11"/>
				<FieldRef field="x30"/>
			</PredictorTerm>
			<PredictorTerm name="x11:x31" coefficient="-0.0408183433631196">
				<FieldRef field="x11"/>
				<FieldRef field="x31"/>
			</PredictorTerm>
			<PredictorTerm name="x11:x32" coefficient="-0.01384223239511874">
				<FieldRef field="x11"/>
				<FieldRef field="x32"/>
			</PredictorTerm>
			<PredictorTerm name="x11:x33" coefficient="0.0038137364445482006">
				<FieldRef field="x11"/>
				<FieldRef field="x33"/>
			</PredictorTerm>
			<PredictorTerm name="x11:x34" coefficient="-0.004425994765893696">
				<FieldRef field="x11"/>
				<FieldRef field="x34"/>
			</PredictorTerm>
			<PredictorTerm name="x11:x35" coefficient="-0.03413606123030029">
				<FieldRef field="x11"/>
				<FieldRef field="x35"/>
			</PredictorTerm>
			<PredictorTerm name="x11:x36" coefficient="-0.04988837261354995">
				<FieldRef field="x11"/>
				<FieldRef field="x36"/>
			</PredictorTerm>
			<PredictorTerm name="x11:x37" coefficient="-0.002209204306337258">
				<FieldRef field="x11"/>
				<FieldRef field="x37"/>
			</PredictorTerm>
			<PredictorTerm name="x11:x38" coefficient="-0.0507526866592981">
				<FieldRef field="x11"/>
				<FieldRef field="x38"/>
			</PredictorTerm>
			<PredictorTerm name="x11:x39" coefficient="0.0014573838241027804">
				<FieldRef field="x11"/>
				<FieldRef field="x39"/>
			</PredictorTerm>
			<PredictorTerm name="x11:x40" coefficient="0.04953229631876099">
				<FieldRef field="x11"/>
				<FieldRef field="x40"/>
			</PredictorTerm>
			<PredictorTerm name="x11:x41" coefficient="0.004254136300825762">
				<FieldRef field="x11"/>
				<FieldRef field="x41"/>
			</PredictorTerm>
			<PredictorTerm name="x11:x42" coefficient="-0.025050398191159867">
				<FieldRef field="x11"/>
				<FieldRef field="x42"/>
			</PredictorTerm>
			<PredictorTerm name="x11:x43" coefficient="-0.048490425590748024">
				<FieldRef field="x11"/>
				<FieldRef field="x43"/>
			</PredictorTerm>
			<PredictorTerm name="x11:x44" coefficient="-0.003684269744694698">
				<FieldRef field="x11"/>
				<FieldRef field="x44"/>
			</PredictorTerm>
			<PredictorTerm name="x11:x45" coefficient="0.002834013440596743">
				<FieldRef field="x11"/>
				<FieldRef field="x45"/>
			</PredictorTerm>
			<PredictorTerm name="x11:x46" coefficient="-0.017984868172171955">
				<FieldRef field="x11"/>
				<FieldRef field="x46"/>
			</PredictorTerm>
			<PredictorTerm name="x11:x47" coefficient="-0.0028637963823998935">
				<FieldRef field="x11"/>
				<FieldRef field="x47"/>
			</PredictorTerm>
			<PredictorTerm name="x11:x48" coefficient="0.00871907791307128">
				<FieldRef field="x11"/>
				<FieldRef field="x48"/>
			</PredictorTerm>
			<PredictorTerm name="x11:x49" coefficient="-0.008295854820343363">
				<FieldRef field="x11"/>
				<FieldRef field="x49"/>
			</PredictorTerm>
			<PredictorTerm name="x11:x50" coefficient="-0.005671912881585447">
				<FieldRef field="x11"/>
				<FieldRef field="x50"/>
			</PredictorTerm>
			<PredictorTerm name="x11:x51" coefficient="-4.128084091499718E-5">
				<FieldRef field="x11"/>
				<FieldRef field="x51"/>
			</PredictorTerm>
			<PredictorTerm name="x11:x52" coefficient="-0.004069899740050269">
				<FieldRef field="x11"/>
				<FieldRef field="x52"/>
			</PredictorTerm>
			<PredictorTerm name="x11:x53" coefficient="-0.00236419571319702">
				<FieldRef field="x11"/>
				<FieldRef field="x53"/>
			</PredictorTerm>
			<PredictorTerm name="x11:x54" coefficient="-0.011189842356221256">
				<FieldRef field="x11"/>
				<FieldRef field="x54"/>
			</PredictorTerm>
			<PredictorTerm name="x11:x55" coefficient="-0.010391635525726618">
				<FieldRef field="x11"/>
				<FieldRef field="x55"/>
			</PredictorTerm>
			<PredictorTerm name="x11:x56" coefficient="0.028295800720953723">
				<FieldRef field="x11"/>
				<FieldRef field="x56"/>
			</PredictorTerm>
			<PredictorTerm name="x11:x57" coefficient="0.003137953332430775">
				<FieldRef field="x11"/>
				<FieldRef field="x57"/>
			</PredictorTerm>
			<PredictorTerm name="x11:x58" coefficient="0.0012945349728646321">
				<FieldRef field="x11"/>
				<FieldRef field="x58"/>
			</PredictorTerm>
			<PredictorTerm name="x11:x59" coefficient="0.01089788005805669">
				<FieldRef field="x11"/>
				<FieldRef field="x59"/>
			</PredictorTerm>
			<PredictorTerm name="x11:x60" coefficient="-0.02599838938634639">
				<FieldRef field="x11"/>
				<FieldRef field="x60"/>
			</PredictorTerm>
			<PredictorTerm name="x12:x13" coefficient="0.006667476545828702">
				<FieldRef field="x12"/>
				<FieldRef field="x13"/>
			</PredictorTerm>
			<PredictorTerm name="x12:x14" coefficient="-0.0012618554864174082">
				<FieldRef field="x12"/>
				<FieldRef field="x14"/>
			</PredictorTerm>
			<PredictorTerm name="x12:x15" coefficient="0.011732197877874637">
				<FieldRef field="x12"/>
				<FieldRef field="x15"/>
			</PredictorTerm>
			<PredictorTerm name="x12:x16" coefficient="0.0018641761685026514">
				<FieldRef field="x12"/>
				<FieldRef field="x16"/>
			</PredictorTerm>
			<PredictorTerm name="x12:x17" coefficient="-3.9007657113193043E-4">
				<FieldRef field="x12"/>
				<FieldRef field="x17"/>
			</PredictorTerm>
			<PredictorTerm name="x12:x18" coefficient="-0.005069588750504049">
				<FieldRef field="x12"/>
				<FieldRef field="x18"/>
			</PredictorTerm>
			<PredictorTerm name="x12:x19" coefficient="-0.013183280136664154">
				<FieldRef field="x12"/>
				<FieldRef field="x19"/>
			</PredictorTerm>
			<PredictorTerm name="x12:x20" coefficient="-0.001347481683335832">
				<FieldRef field="x12"/>
				<FieldRef field="x20"/>
			</PredictorTerm>
			<PredictorTerm name="x12:x21" coefficient="-0.015429230066884812">
				<FieldRef field="x12"/>
				<FieldRef field="x21"/>
			</PredictorTerm>
			<PredictorTerm name="x12:x22" coefficient="-0.004876544013326075">
				<FieldRef field="x12"/>
				<FieldRef field="x22"/>
			</PredictorTerm>
			<PredictorTerm name="x12:x23" coefficient="-0.004743024716507065">
				<FieldRef field="x12"/>
				<FieldRef field="x23"/>
			</PredictorTerm>
			<PredictorTerm name="x12:x24" coefficient="0.009831806864589584">
				<FieldRef field="x12"/>
				<FieldRef field="x24"/>
			</PredictorTerm>
			<PredictorTerm name="x12:x25" coefficient="0.0200385376053459">
				<FieldRef field="x12"/>
				<FieldRef field="x25"/>
			</PredictorTerm>
			<PredictorTerm name="x12:x26" coefficient="-0.007060241658325273">
				<FieldRef field="x12"/>
				<FieldRef field="x26"/>
			</PredictorTerm>
			<PredictorTerm name="x12:x27" coefficient="-0.0146855897536687">
				<FieldRef field="x12"/>
				<FieldRef field="x27"/>
			</PredictorTerm>
			<PredictorTerm name="x12:x28" coefficient="0.0036355476754013107">
				<FieldRef field="x12"/>
				<FieldRef field="x28"/>
			</PredictorTerm>
			<PredictorTerm name="x12:x29" coefficient="-6.051855696142243E-4">
				<FieldRef field="x12"/>
				<FieldRef field="x29"/>
			</PredictorTerm>
			<PredictorTerm name="x12:x30" coefficient="0.007495260259306974">
				<FieldRef field="x12"/>
				<FieldRef field="x30"/>
			</PredictorTerm>
			<PredictorTerm name="x12:x31" coefficient="-0.005479579052484055">
				<FieldRef field="x12"/>
				<FieldRef field="x31"/>
			</PredictorTerm>
			<PredictorTerm name="x12:x32" coefficient="0.008478679494838335">
				<FieldRef field="x12"/>
				<FieldRef field="x32"/>
			</PredictorTerm>
			<PredictorTerm name="x12:x33" coefficient="0.004599693335683293">
				<FieldRef field="x12"/>
				<FieldRef field="x33"/>
			</PredictorTerm>
			<PredictorTerm name="x12:x34" coefficient="0.0065281089511160986">
				<FieldRef field="x12"/>
				<FieldRef field="x34"/>
			</PredictorTerm>
			<PredictorTerm name="x12:x35" coefficient="0.0020221034444334457">
				<FieldRef field="x12"/>
				<FieldRef field="x35"/>
			</PredictorTerm>
			<PredictorTerm name="x12:x36" coefficient="-0.020187929194821874">
				<FieldRef field="x12"/>
				<FieldRef field="x36"/>
			</PredictorTerm>
			<PredictorTerm name="x12:x37" coefficient="-0.003113071388271578">
				<FieldRef field="x12"/>
				<FieldRef field="x37"/>
			</PredictorTerm>
			<PredictorTerm name="x12:x38" coefficient="0.0013801351002633087">
				<FieldRef field="x12"/>
				<FieldRef field="x38"/>
			</PredictorTerm>
			<PredictorTerm name="x12:x39" coefficient="-0.0011478373279772162">
				<FieldRef field="x12"/>
				<FieldRef field="x39"/>
			</PredictorTerm>
			<PredictorTerm name="x12:x40" coefficient="0.0042284342178154025">
				<FieldRef field="x12"/>
				<FieldRef field="x40"/>
			</PredictorTerm>
			<PredictorTerm name="x12:x41" coefficient="0.014702139312060694">
				<FieldRef field="x12"/>
				<FieldRef field="x41"/>
			</PredictorTerm>
			<PredictorTerm name="x12:x42" coefficient="-0.008037996649944697">
				<FieldRef field="x12"/>
				<FieldRef field="x42"/>
			</PredictorTerm>
			<PredictorTerm name="x12:x43" coefficient="-0.02651345616548317">
				<FieldRef field="x12"/>
				<FieldRef field="x43"/>
			</PredictorTerm>
			<PredictorTerm name="x12:x44" coefficient="-0.005136307444614558">
				<FieldRef field="x12"/>
				<FieldRef field="x44"/>
			</PredictorTerm>
			<PredictorTerm name="x12:x45" coefficient="0.006361502101123007">
				<FieldRef field="x12"/>
				<FieldRef field="x45"/>
			</PredictorTerm>
			<PredictorTerm name="x12:x46" coefficient="-0.006604512432922268">
				<FieldRef field="x12"/>
				<FieldRef field="x46"/>
			</PredictorTerm>
			<PredictorTerm name="x12:x47" coefficient="-0.0018201367302523423">
				<FieldRef field="x12"/>
				<FieldRef field="x47"/>
			</PredictorTerm>
			<PredictorTerm name="x12:x48" coefficient="0.006446113592994864">
				<FieldRef field="x12"/>
				<FieldRef field="x48"/>
			</PredictorTerm>
			<PredictorTerm name="x12:x49" coefficient="-0.007651364317746231">
				<FieldRef field="x12"/>
				<FieldRef field="x49"/>
			</PredictorTerm>
			<PredictorTerm name="x12:x50" coefficient="-3.3148397452775454E-4">
				<FieldRef field="x12"/>
				<FieldRef field="x50"/>
			</PredictorTerm>
			<PredictorTerm name="x12:x51" coefficient="3.749342376288122E-6">
				<FieldRef field="x12"/>
				<FieldRef field="x51"/>
			</PredictorTerm>
			<PredictorTerm name="x12:x52" coefficient="-0.0034185972418340127">
				<FieldRef field="x12"/>
				<FieldRef field="x52"/>
			</PredictorTerm>
			<PredictorTerm name="x12:x53" coefficient="3.1568846534472234E-5">
				<FieldRef field="x12"/>
				<FieldRef field="x53"/>
			</PredictorTerm>
			<PredictorTerm name="x12:x54" coefficient="-0.009858674948116633">
				<FieldRef field="x12"/>
				<FieldRef field="x54"/>
			</PredictorTerm>
			<PredictorTerm name="x12:x55" coefficient="-0.005779729181494021">
				<FieldRef field="x12"/>
				<FieldRef field="x55"/>
			</PredictorTerm>
			<PredictorTerm name="x12:x56" coefficient="0.007613103367743421">
				<FieldRef field="x12"/>
				<FieldRef field="x56"/>
			</PredictorTerm>
			<PredictorTerm name="x12:x57" coefficient="0.0027804209394167137">
				<FieldRef field="x12"/>
				<FieldRef field="x57"/>
			</PredictorTerm>
			<PredictorTerm name="x12:x58" coefficient="2.9500871977980285E-5">
				<FieldRef field="x12"/>
				<FieldRef field="x58"/>
			</PredictorTerm>
			<PredictorTerm name="x12:x59" coefficient="0.009296361994943825">
				<FieldRef field="x12"/>
				<FieldRef field="x59"/>
			</PredictorTerm>
			<PredictorTerm name="x12:x60" coefficient="3.531283050852863E-4">
				<FieldRef field="x12"/>
				<FieldRef field="x60"/>
			</PredictorTerm>
			<PredictorTerm name="x13:x14" coefficient="-7.535557465257709E-4">
				<FieldRef field="x13"/>
				<FieldRef field="x14"/>
			</PredictorTerm>
			<PredictorTerm name="x13:x15" coefficient="0.004121703777143828">
				<FieldRef field="x13"/>
				<FieldRef field="x15"/>
			</PredictorTerm>
			<PredictorTerm name="x13:x17" coefficient="3.7629364054275825E-4">
				<FieldRef field="x13"/>
				<FieldRef field="x17"/>
			</PredictorTerm>
			<PredictorTerm name="x13:x18" coefficient="-4.093589565472524E-4">
				<FieldRef field="x13"/>
				<FieldRef field="x18"/>
			</PredictorTerm>
			<PredictorTerm name="x13:x20" coefficient="1.1497155969559515E-4">
				<FieldRef field="x13"/>
				<FieldRef field="x20"/>
			</PredictorTerm>
			<PredictorTerm name="x13:x21" coefficient="0.004856185784983542">
				<FieldRef field="x13"/>
				<FieldRef field="x21"/>
			</PredictorTerm>
			<PredictorTerm name="x13:x22" coefficient="-9.029701750145201E-4">
				<FieldRef field="x13"/>
				<FieldRef field="x22"/>
			</PredictorTerm>
			<PredictorTerm name="x13:x23" coefficient="0.0032481414318517882">
				<FieldRef field="x13"/>
				<FieldRef field="x23"/>
			</PredictorTerm>
			<PredictorTerm name="x13:x25" coefficient="0.030920149907910248">
				<FieldRef field="x13"/>
				<FieldRef field="x25"/>
			</PredictorTerm>
			<PredictorTerm name="x13:x27" coefficient="0.0033600745494221564">
				<FieldRef field="x13"/>
				<FieldRef field="x27"/>
			</PredictorTerm>
			<PredictorTerm name="x13:x28" coefficient="0.00490954065344277">
				<FieldRef field="x13"/>
				<FieldRef field="x28"/>
			</PredictorTerm>
			<PredictorTerm name="x13:x29" coefficient="5.921448916770336E-5">
				<FieldRef field="x13"/>
				<FieldRef field="x29"/>
			</PredictorTerm>
			<PredictorTerm name="x13:x31" coefficient="0.003256462609743765">
				<FieldRef field="x13"/>
				<FieldRef field="x31"/>
			</PredictorTerm>
			<PredictorTerm name="x13:x32" coefficient="-0.0034954543748337685">
				<FieldRef field="x13"/>
				<FieldRef field="x32"/>
			</PredictorTerm>
			<PredictorTerm name="x13:x33" coefficient="-9.34535090837036E-4">
				<FieldRef field="x13"/>
				<FieldRef field="x33"/>
			</PredictorTerm>
			<PredictorTerm name="x13:x34" coefficient="0.00942774220671483">
				<FieldRef field="x13"/>
				<FieldRef field="x34"/>
			</PredictorTerm>
			<PredictorTerm name="x13:x35" coefficient="0.039083177186351716">
				<FieldRef field="x13"/>
				<FieldRef field="x35"/>
			</PredictorTerm>
			<PredictorTerm name="x13:x36" coefficient="0.0351702782222733">
				<FieldRef field="x13"/>
				<FieldRef field="x36"/>
			</PredictorTerm>
			<PredictorTerm name="x13:x37" coefficient="0.0012127904915407133">
				<FieldRef field="x13"/>
				<FieldRef field="x37"/>
			</PredictorTerm>
			<PredictorTerm name="x13:x38" coefficient="0.035488217646338936">
				<FieldRef field="x13"/>
				<FieldRef field="x38"/>
			</PredictorTerm>
			<PredictorTerm name="x13:x40" coefficient="0.007749323195629077">
				<FieldRef field="x13"/>
				<FieldRef field="x40"/>
			</PredictorTerm>
			<PredictorTerm name="x13:x41" coefficient="0.01402130290818057">
				<FieldRef field="x13"/>
				<FieldRef field="x41"/>
			</PredictorTerm>
			<PredictorTerm name="x13:x42" coefficient="6.17167578695206E-4">
				<FieldRef field="x13"/>
				<FieldRef field="x42"/>
			</PredictorTerm>
			<PredictorTerm name="x13:x43" coefficient="0.002438314277611027">
				<FieldRef field="x13"/>
				<FieldRef field="x43"/>
			</PredictorTerm>
			<PredictorTerm name="x13:x44" coefficient="-0.0023896687219012477">
				<FieldRef field="x13"/>
				<FieldRef field="x44"/>
			</PredictorTerm>
			<PredictorTerm name="x13:x46" coefficient="-0.0018620446244039775">
				<FieldRef field="x13"/>
				<FieldRef field="x46"/>
			</PredictorTerm>
			<PredictorTerm name="x13:x47" coefficient="6.62607415384827E-4">
				<FieldRef field="x13"/>
				<FieldRef field="x47"/>
			</PredictorTerm>
			<PredictorTerm name="x13:x49" coefficient="5.086932232407795E-4">
				<FieldRef field="x13"/>
				<FieldRef field="x49"/>
			</PredictorTerm>
			<PredictorTerm name="x13:x56" coefficient="0.00976171945451331">
				<FieldRef field="x13"/>
				<FieldRef field="x56"/>
			</PredictorTerm>
			<PredictorTerm name="x13:x59" coefficient="0.007184419013065289">
				<FieldRef field="x13"/>
				<FieldRef field="x59"/>
			</PredictorTerm>
			<PredictorTerm name="x13:x60" coefficient="0.03418887559260523">
				<FieldRef field="x13"/>
				<FieldRef field="x60"/>
			</PredictorTerm>
			<PredictorTerm name="x14:x15" coefficient="-0.019840143197655973">
				<FieldRef field="x14"/>
				<FieldRef field="x15"/>
			</PredictorTerm>
			<PredictorTerm name="x14:x16" coefficient="1.5175531886260478E-4">
				<FieldRef field="x14"/>
				<FieldRef field="x16"/>
			</PredictorTerm>
			<PredictorTerm name="x14:x17" coefficient="-0.003886921952594736">
				<FieldRef field="x14"/>
				<FieldRef field="x17"/>
			</PredictorTerm>
			<PredictorTerm name="x14:x18" coefficient="1.5440592971407023E-4">
				<FieldRef field="x14"/>
				<FieldRef field="x18"/>
			</PredictorTerm>
			<PredictorTerm name="x14:x19" coefficient="-0.0030325747442801415">
				<FieldRef field="x14"/>
				<FieldRef field="x19"/>
			</PredictorTerm>
			<PredictorTerm name="x14:x20" coefficient="9.83064588679078E-4">
				<FieldRef field="x14"/>
				<FieldRef field="x20"/>
			</PredictorTerm>
			<PredictorTerm name="x14:x21" coefficient="-0.007390459715765591">
				<FieldRef field="x14"/>
				<FieldRef field="x21"/>
			</PredictorTerm>
			<PredictorTerm name="x14:x22" coefficient="-0.001316629196127431">
				<FieldRef field="x14"/>
				<FieldRef field="x22"/>
			</PredictorTerm>
			<PredictorTerm name="x14:x23" coefficient="-8.387386038995756E-5">
				<FieldRef field="x14"/>
				<FieldRef field="x23"/>
			</PredictorTerm>
			<PredictorTerm name="x14:x24" coefficient="4.1123523364276597E-4">
				<FieldRef field="x14"/>
				<FieldRef field="x24"/>
			</PredictorTerm>
			<PredictorTerm name="x14:x25" coefficient="-0.04980298612133263">
				<FieldRef field="x14"/>
				<FieldRef field="x25"/>
			</PredictorTerm>
			<PredictorTerm name="x14:x26" coefficient="-5.406123313347073E-4">
				<FieldRef field="x14"/>
				<FieldRef field="x26"/>
			</PredictorTerm>
			<PredictorTerm name="x14:x27" coefficient="-0.008729076714823099">
				<FieldRef field="x14"/>
				<FieldRef field="x27"/>
			</PredictorTerm>
			<PredictorTerm name="x14:x28" coefficient="-0.0027850687563290843">
				<FieldRef field="x14"/>
				<FieldRef field="x28"/>
			</PredictorTerm>
			<PredictorTerm name="x14:x29" coefficient="-7.904203597489006E-4">
				<FieldRef field="x14"/>
				<FieldRef field="x29"/>
			</PredictorTerm>
			<PredictorTerm name="x14:x30" coefficient="0.0013470897444955142">
				<FieldRef field="x14"/>
				<FieldRef field="x30"/>
			</PredictorTerm>
			<PredictorTerm name="x14:x31" coefficient="-0.02638610207504092">
				<FieldRef field="x14"/>
				<FieldRef field="x31"/>
			</PredictorTerm>
			<PredictorTerm name="x14:x32" coefficient="8.558897094679357E-4">
				<FieldRef field="x14"/>
				<FieldRef field="x32"/>
			</PredictorTerm>
			<PredictorTerm name="x14:x33" coefficient="-0.0011928183941417965">
				<FieldRef field="x14"/>
				<FieldRef field="x33"/>
			</PredictorTerm>
			<PredictorTerm name="x14:x34" coefficient="-0.0059054083576003825">
				<FieldRef field="x14"/>
				<FieldRef field="x34"/>
			</PredictorTerm>
			<PredictorTerm name="x14:x35" coefficient="-0.058201269327614255">
				<FieldRef field="x14"/>
				<FieldRef field="x35"/>
			</PredictorTerm>
			<PredictorTerm name="x14:x36" coefficient="-0.03809695422214465">
				<FieldRef field="x14"/>
				<FieldRef field="x36"/>
			</PredictorTerm>
			<PredictorTerm name="x14:x37" coefficient="-0.0012386750007027402">
				<FieldRef field="x14"/>
				<FieldRef field="x37"/>
			</PredictorTerm>
			<PredictorTerm name="x14:x38" coefficient="-0.05707078745822847">
				<FieldRef field="x14"/>
				<FieldRef field="x38"/>
			</PredictorTerm>
			<PredictorTerm name="x14:x40" coefficient="-0.0031896841565227027">
				<FieldRef field="x14"/>
				<FieldRef field="x40"/>
			</PredictorTerm>
			<PredictorTerm name="x14:x41" coefficient="-0.0033548021286952633">
				<FieldRef field="x14"/>
				<FieldRef field="x41"/>
			</PredictorTerm>
			<PredictorTerm name="x14:x42" coefficient="-0.012357788747319791">
				<FieldRef field="x14"/>
				<FieldRef field="x42"/>
			</PredictorTerm>
			<PredictorTerm name="x14:x43" coefficient="-0.004862844552846296">
				<FieldRef field="x14"/>
				<FieldRef field="x43"/>
			</PredictorTerm>
			<PredictorTerm name="x14:x44" coefficient="-0.0011817178452304701">
				<FieldRef field="x14"/>
				<FieldRef field="x44"/>
			</PredictorTerm>
			<PredictorTerm name="x14:x45" coefficient="0.0010988022247449454">
				<FieldRef field="x14"/>
				<FieldRef field="x45"/>
			</PredictorTerm>
			<PredictorTerm name="x14:x46" coefficient="-0.007978880024925016">
				<FieldRef field="x14"/>
				<FieldRef field="x46"/>
			</PredictorTerm>
			<PredictorTerm name="x14:x47" coefficient="-0.0014359437662222743">
				<FieldRef field="x14"/>
				<FieldRef field="x47"/>
			</PredictorTerm>
			<PredictorTerm name="x14:x48" coefficient="-5.913557674279122E-4">
				<FieldRef field="x14"/>
				<FieldRef field="x48"/>
			</PredictorTerm>
			<PredictorTerm name="x14:x49" coefficient="-0.0057739577992377234">
				<FieldRef field="x14"/>
				<FieldRef field="x49"/>
			</PredictorTerm>
			<PredictorTerm name="x14:x50" coefficient="-0.0018769819382556325">
				<FieldRef field="x14"/>
				<FieldRef field="x50"/>
			</PredictorTerm>
			<PredictorTerm name="x14:x54" coefficient="4.628118678080581E-4">
				<FieldRef field="x14"/>
				<FieldRef field="x54"/>
			</PredictorTerm>
			<PredictorTerm name="x14:x55" coefficient="-0.0024813264739913378">
				<FieldRef field="x14"/>
				<FieldRef field="x55"/>
			</PredictorTerm>
			<PredictorTerm name="x14:x56" coefficient="2.81940543445563E-4">
				<FieldRef field="x14"/>
				<FieldRef field="x56"/>
			</PredictorTerm>
			<PredictorTerm name="x14:x58" coefficient="-1.0641476469778299E-4">
				<FieldRef field="x14"/>
				<FieldRef field="x58"/>
			</PredictorTerm>
			<PredictorTerm name="x14:x59" coefficient="-0.00661271575834078">
				<FieldRef field="x14"/>
				<FieldRef field="x59"/>
			</PredictorTerm>
			<PredictorTerm name="x14:x60" coefficient="-0.03800097638388132">
				<FieldRef field="x14"/>
				<FieldRef field="x60"/>
			</PredictorTerm>
			<PredictorTerm name="x15:x16" coefficient="-3.976414552913358E-4">
				<FieldRef field="x15"/>
				<FieldRef field="x16"/>
			</PredictorTerm>
			<PredictorTerm name="x15:x17" coefficient="0.0033397140533361364">
				<FieldRef field="x15"/>
				<FieldRef field="x17"/>
			</PredictorTerm>
			<PredictorTerm name="x15:x18" coefficient="-5.238121426140267E-4">
				<FieldRef field="x15"/>
				<FieldRef field="x18"/>
			</PredictorTerm>
			<PredictorTerm name="x15:x19" coefficient="-0.004268695535899425">
				<FieldRef field="x15"/>
				<FieldRef field="x19"/>
			</PredictorTerm>
			<PredictorTerm name="x15:x20" coefficient="-0.001928843204559006">
				<FieldRef field="x15"/>
				<FieldRef field="x20"/>
			</PredictorTerm>
			<PredictorTerm name="x15:x21" coefficient="0.00986753301136073">
				<FieldRef field="x15"/>
				<FieldRef field="x21"/>
			</PredictorTerm>
			<PredictorTerm name="x15:x22" coefficient="-0.0055601433705582196">
				<FieldRef field="x15"/>
				<FieldRef field="x22"/>
			</PredictorTerm>
			<PredictorTerm name="x15:x23" coefficient="0.007626692861878508">
				<FieldRef field="x15"/>
				<FieldRef field="x23"/>
			</PredictorTerm>
			<PredictorTerm name="x15:x24" coefficient="0.004543524374616388">
				<FieldRef field="x15"/>
				<FieldRef field="x24"/>
			</PredictorTerm>
