<?xml version="1.0" encoding="UTF-8" standalone="yes"?>
<PMML xmlns="http://www.dmg.org/PMML-4_3" xmlns:data="http://jpmml.org/jpmml-model/InlineTable" version="4.3">
	<Header>
		<Application name="JPMML-SkLearn" version="1.5.12"/>
		<Timestamp>2019-03-20T03:11:20Z</Timestamp>
	</Header>
	<MiningBuildTask>
		<Extension>PMMLPipeline(steps=[('svr_x', SVR(C=10, cache_size=200, coef0=0.0, degree=1, epsilon=0.5, gamma=0.001,
  kernel='poly', max_iter=-1, shrinking=True, tol=0.001, verbose=False))])</Extension>
	</MiningBuildTask>
	<DataDictionary>
		<DataField name="y" optype="continuous" dataType="double"/>
		<DataField name="x2" optype="continuous" dataType="double"/>
		<DataField name="x3" optype="continuous" dataType="double"/>
		<DataField name="x4" optype="continuous" dataType="double"/>
		<DataField name="x5" optype="continuous" dataType="double"/>
		<DataField name="x6" optype="continuous" dataType="double"/>
		<DataField name="x7" optype="continuous" dataType="double"/>
		<DataField name="x8" optype="continuous" dataType="double"/>
		<DataField name="x9" optype="continuous" dataType="double"/>
		<DataField name="x10" optype="continuous" dataType="double"/>
		<DataField name="x11" optype="continuous" dataType="double"/>
		<DataField name="x12" optype="continuous" dataType="double"/>
		<DataField name="x13" optype="continuous" dataType="double"/>
		<DataField name="x14" optype="continuous" dataType="double"/>
		<DataField name="x15" optype="continuous" dataType="double"/>
		<DataField name="x16" optype="continuous" dataType="double"/>
		<DataField name="x17" optype="continuous" dataType="double"/>
		<DataField name="x18" optype="continuous" dataType="double"/>
		<DataField name="x19" optype="continuous" dataType="double"/>
		<DataField name="x20" optype="continuous" dataType="double"/>
		<DataField name="x21" optype="continuous" dataType="double"/>
		<DataField name="x22" optype="continuous" dataType="double"/>
		<DataField name="x23" optype="continuous" dataType="double"/>
		<DataField name="x24" optype="continuous" dataType="double"/>
		<DataField name="x25" optype="continuous" dataType="double"/>
		<DataField name="x26" optype="continuous" dataType="double"/>
		<DataField name="x27" optype="continuous" dataType="double"/>
		<DataField name="x28" optype="continuous" dataType="double"/>
		<DataField name="x29" optype="continuous" dataType="double"/>
		<DataField name="x30" optype="continuous" dataType="double"/>
		<DataField name="x31" optype="continuous" dataType="double"/>
		<DataField name="x32" optype="continuous" dataType="double"/>
		<DataField name="x33" optype="continuous" dataType="double"/>
		<DataField name="x34" optype="continuous" dataType="double"/>
		<DataField name="x35" optype="continuous" dataType="double"/>
		<DataField name="x36" optype="continuous" dataType="double"/>
		<DataField name="x37" optype="continuous" dataType="double"/>
		<DataField name="x38" optype="continuous" dataType="double"/>
		<DataField name="x39" optype="continuous" dataType="double"/>
		<DataField name="x40" optype="continuous" dataType="double"/>
		<DataField name="x41" optype="continuous" dataType="double"/>
		<DataField name="x42" optype="continuous" dataType="double"/>
		<DataField name="x43" optype="continuous" dataType="double"/>
		<DataField name="x44" optype="continuous" dataType="double"/>
		<DataField name="x45" optype="continuous" dataType="double"/>
		<DataField name="x46" optype="continuous" dataType="double"/>
		<DataField name="x47" optype="continuous" dataType="double"/>
		<DataField name="x48" optype="continuous" dataType="double"/>
		<DataField name="x49" optype="continuous" dataType="double"/>
		<DataField name="x50" optype="continuous" dataType="double"/>
		<DataField name="x51" optype="continuous" dataType="double"/>
		<DataField name="x52" optype="continuous" dataType="double"/>
		<DataField name="x53" optype="continuous" dataType="double"/>
		<DataField name="x54" optype="continuous" dataType="double"/>
		<DataField name="x55" optype="continuous" dataType="double"/>
		<DataField name="x56" optype="continuous" dataType="double"/>
		<DataField name="x57" optype="continuous" dataType="double"/>
		<DataField name="x58" optype="continuous" dataType="double"/>
		<DataField name="x59" optype="continuous" dataType="double"/>
		<DataField name="x60" optype="continuous" dataType="double"/>
	</DataDictionary>
	<SupportVectorMachineModel functionName="regression">
		<MiningSchema>
			<MiningField name="y" usageType="target"/>
			<MiningField name="x2"/>
			<MiningField name="x3"/>
			<MiningField name="x4"/>
			<MiningField name="x5"/>
			<MiningField name="x6"/>
			<MiningField name="x7"/>
			<MiningField name="x8"/>
			<MiningField name="x9"/>
			<MiningField name="x10"/>
			<MiningField name="x11"/>
			<MiningField name="x12"/>
			<MiningField name="x13"/>
			<MiningField name="x14"/>
			<MiningField name="x15"/>
			<MiningField name="x16"/>
			<MiningField name="x17"/>
			<MiningField name="x18"/>
			<MiningField name="x19"/>
			<MiningField name="x20"/>
			<MiningField name="x21"/>
			<MiningField name="x22"/>
			<MiningField name="x23"/>
			<MiningField name="x24"/>
			<MiningField name="x25"/>
			<MiningField name="x26"/>
			<MiningField name="x27"/>
			<MiningField name="x28"/>
			<MiningField name="x29"/>
			<MiningField name="x30"/>
			<MiningField name="x31"/>
			<MiningField name="x32"/>
			<MiningField name="x33"/>
			<MiningField name="x34"/>
			<MiningField name="x35"/>
			<MiningField name="x36"/>
			<MiningField name="x37"/>
			<MiningField name="x38"/>
			<MiningField name="x39"/>
			<MiningField name="x40"/>
			<MiningField name="x41"/>
			<MiningField name="x42"/>
			<MiningField name="x43"/>
			<MiningField name="x44"/>
			<MiningField name="x45"/>
			<MiningField name="x46"/>
			<MiningField name="x47"/>
			<MiningField name="x48"/>
			<MiningField name="x49"/>
			<MiningField name="x50"/>
			<MiningField name="x51"/>
			<MiningField name="x52"/>
			<MiningField name="x53"/>
			<MiningField name="x54"/>
			<MiningField name="x55"/>
			<MiningField name="x56"/>
			<MiningField name="x57"/>
			<MiningField name="x58"/>
			<MiningField name="x59"/>
			<MiningField name="x60"/>
		</MiningSchema>
		<PolynomialKernelType gamma="0.001" coef0="0.0" degree="1.0"/>
		<VectorDictionary>
			<VectorFields>
				<FieldRef field="x2"/>
				<FieldRef field="x3"/>
				<FieldRef field="x4"/>
				<FieldRef field="x5"/>
				<FieldRef field="x6"/>
				<FieldRef field="x7"/>
				<FieldRef field="x8"/>
				<FieldRef field="x9"/>
				<FieldRef field="x10"/>
				<FieldRef field="x11"/>
				<FieldRef field="x12"/>
				<FieldRef field="x13"/>
				<FieldRef field="x14"/>
				<FieldRef field="x15"/>
				<FieldRef field="x16"/>
				<FieldRef field="x17"/>
				<FieldRef field="x18"/>
				<FieldRef field="x19"/>
				<FieldRef field="x20"/>
				<FieldRef field="x21"/>
				<FieldRef field="x22"/>
				<FieldRef field="x23"/>
				<FieldRef field="x24"/>
				<FieldRef field="x25"/>
				<FieldRef field="x26"/>
				<FieldRef field="x27"/>
				<FieldRef field="x28"/>
				<FieldRef field="x29"/>
				<FieldRef field="x30"/>
				<FieldRef field="x31"/>
				<FieldRef field="x32"/>
				<FieldRef field="x33"/>
				<FieldRef field="x34"/>
				<FieldRef field="x35"/>
				<FieldRef field="x36"/>
				<FieldRef field="x37"/>
				<FieldRef field="x38"/>
				<FieldRef field="x39"/>
				<FieldRef field="x40"/>
				<FieldRef field="x41"/>
				<FieldRef field="x42"/>
				<FieldRef field="x43"/>
				<FieldRef field="x44"/>
				<FieldRef field="x45"/>
				<FieldRef field="x46"/>
				<FieldRef field="x47"/>
				<FieldRef field="x48"/>
				<FieldRef field="x49"/>
				<FieldRef field="x50"/>
				<FieldRef field="x51"/>
				<FieldRef field="x52"/>
				<FieldRef field="x53"/>
				<FieldRef field="x54"/>
				<FieldRef field="x55"/>
				<FieldRef field="x56"/>
				<FieldRef field="x57"/>
				<FieldRef field="x58"/>
				<FieldRef field="x59"/>
				<FieldRef field="x60"/>
			</VectorFields>
			<VectorInstance id="0">
				<Array type="real">0.6868686868686869 0.0 0.0 0.0 0.0 0.0 0.0 0.0 0.0 0.7070707070707071 0.0 0.35353535353535354 0.3939393939393939 0.5050505050505051 0.0 0.0 0.0 0.0 0.0 0.0 0.0 0.0 0.0 0.6868686868686869 0.0 0.0 0.0 0.0 0.0 0.3939393939393939 0.0 0.3333333333333333 0.4444444444444444 1.0 0.5252525252525253 0.0 1.0 0.0 0.0 0.3333333333333333 0.26262626262626265 0.0 0.0 0.0 0.0 0.0 0.0 0.0 0.0 0.0 0.0 0.0 0.0 0.0 0.0 0.0 0.0 0.1919191919191919 0.21944444444444444</Array>
			</VectorInstance>
			<VectorInstance id="1">
				<Array type="real">0.6868686868686869 0.0 0.0 0.0 0.0 0.0 0.0 0.0 0.0 0.7070707070707071 0.0 0.35353535353535354 0.3939393939393939 0.5050505050505051 0.0 0.0 0.0 0.0 0.0 0.0 0.0 0.0 0.0 0.6868686868686869 0.0 0.0 0.0 0.0 0.0 0.3939393939393939 0.0 0.3333333333333333 0.4444444444444444 1.0 0.5252525252525253 0.0 1.0 0.0 0.0 0.3333333333333333 0.26262626262626265 0.0 0.0 0.0 0.0 0.0 0.0 0.0 0.0 0.0 0.0 0.0 0.0 0.0 0.0 0.0 0.0 0.1919191919191919 0.4638888888888889</Array>
			</VectorInstance>
			<VectorInstance id="2">
				<Array type="real">0.6868686868686869 0.0 0.0 0.0 0.0 0.0 0.0 0.0 0.0 0.7070707070707071 0.0 0.35353535353535354 0.3939393939393939 0.5050505050505051 0.0 0.0 0.0 0.0 0.0 0.0 0.0 0.0 0.0 0.6868686868686869 0.0 0.0 0.0 0.0 0.0 0.3939393939393939 0.0 0.3333333333333333 0.4444444444444444 1.0 0.5252525252525253 0.0 1.0 0.0 0.0 0.3333333333333333 0.26262626262626265 0.0 0.0 0.0 0.0 0.0 0.0 0.0 0.0 0.0 0.0 0.0 0.0 0.0 0.0 0.0 0.0 0.1919191919191919 0.7194444444444444</Array>
			</VectorInstance>
			<VectorInstance id="3">
				<REAL-SparseArray n="59" defaultValue="0.0">
					<Indices>1 10 12 13 14 24 30 33 34 37 58 59</Indices>
					<REAL-Entries>0.6868686868686869 0.7070707070707071 0.35353535353535354 0.3939393939393939 0.5050505050505051 0.6868686868686869 0.3939393939393939 0.4444444444444444 0.9090909090909091 0.7777777777777778 0.1919191919191919 0.9722222222222222</REAL-Entries>
				</REAL-SparseArray>
			</VectorInstance>
			<VectorInstance id="4">
				<REAL-SparseArray n="59" defaultValue="0.0">
					<Indices>1 2 10 12 14 24 30 31 33 34 37 43 48 59</Indices>
					<REAL-Entries>0.6161616161616161 0.30303030303030304 0.7272727272727273 0.48484848484848486 0.48484848484848486 0.797979797979798 0.41414141414141414 0.3333333333333333 0.5555555555555556 1.0 1.0 0.2222222222222222 0.35353535353535354 0.2111111111111111</REAL-Entries>
				</REAL-SparseArray>
			</VectorInstance>
			<VectorInstance id="5">
				<REAL-SparseArray n="59" defaultValue="0.0">
					<Indices>1 2 10 12 14 24 30 31 33 34 37 43 48 59</Indices>
					<REAL-Entries>0.6161616161616161 0.30303030303030304 0.7272727272727273 0.48484848484848486 0.48484848484848486 0.797979797979798 0.41414141414141414 0.3333333333333333 0.5555555555555556 1.0 1.0 0.2222222222222222 0.35353535353535354 0.4583333333333333</REAL-Entries>
				</REAL-SparseArray>
			</VectorInstance>
			<VectorInstance id="6">
				<Array type="real">0.6161616161616161 0.30303030303030304 0.0 0.0 0.0 0.0 0.0 0.0 0.0 0.6161616161616161 0.0 0.4444444444444444 0.0 0.48484848484848486 0.0 0.0 0.0 0.0 0.0 0.0 0.0 0.0 0.0 0.5252525252525253 0.0 0.0 0.0 0.0 0.0 0.41414141414141414 0.3333333333333333 0.0 0.37373737373737376 0.8888888888888888 0.3939393939393939 0.0 0.7070707070707071 0.0 0.0 0.0 0.0 0.0 0.2222222222222222 0.0 0.0 0.0 0.0 0.35353535353535354 0.0 0.0 0.0 0.0 0.0 0.0 0.0 0.0 0.0 0.0 0.7055555555555556</Array>
			</VectorInstance>
			<VectorInstance id="7">
				<Array type="real">0.6161616161616161 0.30303030303030304 0.0 0.0 0.0 0.0 0.0 0.0 0.0 0.6161616161616161 0.0 0.4444444444444444 0.0 0.48484848484848486 0.0 0.0 0.0 0.0 0.0 0.0 0.0 0.0 0.0 0.5252525252525253 0.0 0.0 0.0 0.0 0.0 0.41414141414141414 0.3333333333333333 0.0 0.37373737373737376 0.8888888888888888 0.3939393939393939 0.0 0.7070707070707071 0.0 0.0 0.0 0.0 0.0 0.2222222222222222 0.0 0.0 0.0 0.0 0.35353535353535354 0.0 0.0 0.0 0.0 0.0 0.0 0.0 0.0 0.0 0.0 0.9555555555555556</Array>
			</VectorInstance>
			<VectorInstance id="8">
				<Array type="real">0.6363636363636364 0.30303030303030304 0.0 0.0 0.0 0.0 0.0 0.0 0.0 0.6363636363636364 0.0 0.4444444444444444 0.0 0.30303030303030304 0.0 0.0 0.0 0.0 0.0 0.0 0.0 0.0 0.0 0.7474747474747475 0.0 0.0 0.0 0.0 0.0 0.26262626262626265 0.3333333333333333 0.0 0.37373737373737376 0.7777777777777778 0.3939393939393939 0.0 0.8888888888888888 0.0 0.0 0.35353535353535354 0.0 0.0 0.2222222222222222 0.0 0.0 0.0 0.0 0.0 0.0 0.0 0.0 0.0 0.0 0.0 0.0 0.0 0.0 0.0 0.2111111111111111</Array>
			</VectorInstance>
			<VectorInstance id="9">
				<Array type="real">0.46464646464646464 0.30303030303030304 0.0 0.0 0.0 0.0 0.0 0.0 0.0 0.6363636363636364 0.0 0.4444444444444444 0.0 0.30303030303030304 0.0 0.0 0.0 0.0 0.0 0.0 0.0 0.0 0.0 0.48484848484848486 0.0 0.0 0.0 0.0 0.0 0.26262626262626265 0.3333333333333333 0.0 0.37373737373737376 0.8181818181818182 0.3939393939393939 0.0 0.9696969696969697 0.0 0.0 0.35353535353535354 0.0 0.0 0.2222222222222222 0.0 0.0 0.0 0.0 0.0 0.0 0.0 0.0 0.0 0.0 0.0 0.0 0.0 0.0 0.1919191919191919 0.4527777777777778</Array>
			</VectorInstance>
			<VectorInstance id="10">
				<REAL-SparseArray n="59" defaultValue="0.0">
					<Indices>1 10 14 24 30 33 34 35 37 40 58 59</Indices>
					<REAL-Entries>0.6363636363636364 0.6363636363636364 0.41414141414141414 0.5555555555555556 0.26262626262626265 0.37373737373737376 0.7272727272727273 0.3939393939393939 0.7777777777777778 0.35353535353535354 0.1919191919191919 0.7027777777777777</REAL-Entries>
				</REAL-SparseArray>
			</VectorInstance>
			<VectorInstance id="11">
				<REAL-SparseArray n="59" defaultValue="0.0">
					<Indices>1 7 10 14 24 30 34 35 37 40 58 59</Indices>
					<REAL-Entries>0.7272727272727273 0.24242424242424243 0.5757575757575758 0.41414141414141414 0.5555555555555556 0.35353535353535354 0.7272727272727273 0.3939393939393939 0.7777777777777778 0.35353535353535354 0.1919191919191919 0.9666666666666667</REAL-Entries>
				</REAL-SparseArray>
			</VectorInstance>
			<VectorInstance id="12">
				<REAL-SparseArray n="59" defaultValue="0.0">
					<Indices>1 7 10 14 24 30 33 34 35 37 58 59</Indices>
					<REAL-Entries>0.6363636363636364 0.24242424242424243 0.5959595959595959 0.41414141414141414 0.5959595959595959 0.35353535353535354 0.3939393939393939 0.8888888888888888 0.5959595959595959 0.8888888888888888 0.1919191919191919 0.18611111111111112</REAL-Entries>
				</REAL-SparseArray>
			</VectorInstance>
			<VectorInstance id="13">
				<REAL-SparseArray n="59" defaultValue="0.0">
					<Indices>1 7 10 14 24 30 33 34 35 37 40 58 59</Indices>
					<REAL-Entries>0.5959595959595959 0.24242424242424243 0.3939393939393939 0.37373737373737376 0.5252525252525253 0.24242424242424243 0.3939393939393939 0.797979797979798 0.46464646464646464 1.0 0.1919191919191919 0.1919191919191919 0.4444444444444444</REAL-Entries>
				</REAL-SparseArray>
			</VectorInstance>
			<VectorInstance id="14">
				<REAL-SparseArray n="59" defaultValue="0.0">
					<Indices>1 7 10 14 24 30 33 34 35 37 40 58 59</Indices>
					<REAL-Entries>0.5959595959595959 0.1919191919191919 0.3939393939393939 0.37373737373737376 0.6161616161616161 0.24242424242424243 0.3939393939393939 0.9090909090909091 0.46464646464646464 0.8181818181818182 0.1919191919191919 0.1919191919191919 0.6888888888888889</REAL-Entries>
				</REAL-SparseArray>
			</VectorInstance>
			<VectorInstance id="15">
				<REAL-SparseArray n="59" defaultValue="0.0">
					<Indices>1 7 10 14 24 30 33 34 35 37 40 41 58 59</Indices>
					<REAL-Entries>0.5757575757575758 0.24242424242424243 0.6363636363636364 0.35353535353535354 0.7272727272727273 0.3939393939393939 0.3333333333333333 0.7070707070707071 0.5555555555555556 0.8181818181818182 0.1919191919191919 0.2222222222222222 0.1919191919191919 0.9444444444444444</REAL-Entries>
				</REAL-SparseArray>
			</VectorInstance>
			<VectorInstance id="20">
				<Array type="real">0.5555555555555556 0.0 0.0 0.0 0.0 0.0 0.1919191919191919 0.0 0.0 0.7272727272727273 0.0 0.46464646464646464 0.0 0.3333333333333333 0.0 0.0 0.0 0.0 0.0 0.0 0.0 0.2828282828282828 0.0 0.6161616161616161 0.0 0.0 0.0 0.0 0.0 0.26262626262626265 0.0 0.0 0.3333333333333333 0.9090909090909091 0.5555555555555556 0.0 0.8383838383838383 0.0 0.0 0.35353535353535354 0.24242424242424243 0.0 0.0 0.0 0.0 0.0 0.0 0.0 0.0 0.0 0.0 0.0 0.0 0.0 0.0 0.0 0.0 0.0 0.21388888888888888</Array>
			</VectorInstance>
			<VectorInstance id="21">
				<Array type="real">0.5555555555555556 0.0 0.0 0.0 0.0 0.0 0.1919191919191919 0.0 0.0 0.6868686868686869 0.0 0.46464646464646464 0.0 0.48484848484848486 0.0 0.0 0.0 0.0 0.0 0.0 0.0 0.2828282828282828 0.0 0.6161616161616161 0.0 0.0 0.0 0.0 0.0 0.35353535353535354 0.0 0.0 0.3333333333333333 0.797979797979798 0.48484848484848486 0.0 0.8383838383838383 0.0 0.0 0.3333333333333333 0.24242424242424243 0.0 0.0 0.0 0.0 0.0 0.0 0.0 0.0 0.0 0.0 0.0 0.0 0.0 0.0 0.0 0.0 0.0 0.45555555555555555</Array>
			</VectorInstance>
			<VectorInstance id="22">
				<Array type="real">0.5555555555555556 0.0 0.0 0.0 0.0 0.0 0.1919191919191919 0.0 0.0 0.6868686868686869 0.0 0.46464646464646464 0.0 0.48484848484848486 0.0 0.0 0.0 0.0 0.0 0.0 0.0 0.2828282828282828 0.0 0.6161616161616161 0.0 0.0 0.0 0.0 0.0 0.35353535353535354 0.0 0.0 0.3333333333333333 0.797979797979798 0.48484848484848486 0.0 0.8383838383838383 0.0 0.0 0.3333333333333333 0.24242424242424243 0.0 0.0 0.0 0.0 0.0 0.0 0.0 0.0 0.0 0.0 0.0 0.0 0.0 0.0 0.0 0.0 0.0 0.7027777777777777</Array>
			</VectorInstance>
			<VectorInstance id="23">
				<Array type="real">0.5959595959595959 0.0 0.0 0.0 0.0 0.0 0.1919191919191919 0.0 0.0 0.6161616161616161 0.0 0.46464646464646464 0.0 0.48484848484848486 0.0 0.0 0.0 0.0 0.0 0.0 0.0 0.2828282828282828 0.0 0.5757575757575758 0.0 0.0 0.0 0.0 0.0 0.35353535353535354 0.0 0.0 0.3333333333333333 0.8383838383838383 0.48484848484848486 0.0 0.7070707070707071 0.0 0.0 0.3333333333333333 0.24242424242424243 0.0 0.0 0.0 0.0 0.0 0.0 0.0 0.0 0.0 0.0 0.0 0.0 0.0 0.0 0.0 0.0 0.0 0.9583333333333334</Array>
			</VectorInstance>
			<VectorInstance id="24">
				<REAL-SparseArray n="59" defaultValue="0.0">
					<Indices>1 10 14 24 30 34 35 37 40 59</Indices>
					<REAL-Entries>0.7070707070707071 0.7070707070707071 0.2828282828282828 0.5757575757575758 0.26262626262626265 0.9696969696969697 0.6161616161616161 0.9292929292929293 0.35353535353535354 0.2861111111111111</REAL-Entries>
				</REAL-SparseArray>
			</VectorInstance>
			<VectorInstance id="25">
				<REAL-SparseArray n="59" defaultValue="0.0">
					<Indices>1 10 14 24 30 34 35 37 40 59</Indices>
					<REAL-Entries>0.7070707070707071 0.7070707070707071 0.2828282828282828 0.5757575757575758 0.26262626262626265 0.9696969696969697 0.6161616161616161 0.9292929292929293 0.35353535353535354 0.49722222222222223</REAL-Entries>
				</REAL-SparseArray>
			</VectorInstance>
			<VectorInstance id="26">
				<REAL-SparseArray n="59" defaultValue="0.0">
					<Indices>1 7 10 14 24 30 33 34 35 37 40 59</Indices>
					<REAL-Entries>0.5757575757575758 0.24242424242424243 0.6161616161616161 0.5050505050505051 0.5050505050505051 0.26262626262626265 0.30303030303030304 0.6868686868686869 0.6161616161616161 0.7777777777777778 0.35353535353535354 0.7305555555555555</REAL-Entries>
				</REAL-SparseArray>
			</VectorInstance>
			<VectorInstance id="27">
				<REAL-SparseArray n="59" defaultValue="0.0">
					<Indices>1 7 10 14 24 30 33 34 35 37 40 59</Indices>
					<REAL-Entries>0.5757575757575758 0.26262626262626265 0.5555555555555556 0.48484848484848486 0.5757575757575758 0.2222222222222222 0.30303030303030304 1.0 0.5757575757575758 0.7070707070707071 0.35353535353535354 0.9861111111111112</REAL-Entries>
				</REAL-SparseArray>
			</VectorInstance>
			<VectorInstance id="28">
				<REAL-SparseArray n="59" defaultValue="0.0">
					<Indices>1 7 10 12 14 22 24 30 34 35 37 40 58 59</Indices>
					<REAL-Entries>0.6666666666666666 0.37373737373737376 0.6161616161616161 0.4444444444444444 0.3333333333333333 0.30303030303030304 0.7070707070707071 0.41414141414141414 1.0 0.6868686868686869 0.9696969696969697 0.3939393939393939 0.30303030303030304 0.22777777777777777</REAL-Entries>
				</REAL-SparseArray>
			</VectorInstance>
			<VectorInstance id="29">
				<REAL-SparseArray n="59" defaultValue="0.0">
					<Indices>1 7 10 12 14 22 24 30 34 35 37 40 58 59</Indices>
					<REAL-Entries>0.5050505050505051 0.37373737373737376 0.6161616161616161 0.4444444444444444 0.3333333333333333 0.30303030303030304 0.5959595959595959 0.41414141414141414 0.8181818181818182 0.6868686868686869 0.6363636363636364 0.3939393939393939 0.30303030303030304 0.475</REAL-Entries>
				</REAL-SparseArray>
			</VectorInstance>
			<VectorInstance id="30">
				<Array type="real">0.5050505050505051 0.0 0.0 0.0 0.0 0.0 0.37373737373737376 0.0 0.0 0.3939393939393939 0.0 0.26262626262626265 0.0 0.24242424242424243 0.0 0.0 0.0 0.0 0.0 0.0 0.0 0.30303030303030304 0.0 0.3939393939393939 0.0 0.0 0.0 0.0 0.0 0.1717171717171717 0.0 0.0 0.1919191919191919 0.5555555555555556 0.6868686868686869 0.0 0.6363636363636364 0.0 0.0 0.3939393939393939 0.0 0.0 0.0 0.0 0.0 0.0 0.0 0.0 0.0 0.0 0.0 0.0 0.0 0.0 0.0 0.0 0.0 0.30303030303030304 0.7138888888888889</Array>
			</VectorInstance>
			<VectorInstance id="31">
				<Array type="real">0.5050505050505051 0.0 0.0 0.0 0.0 0.0 0.37373737373737376 0.0 0.0 0.3939393939393939 0.0 0.26262626262626265 0.0 0.24242424242424243 0.0 0.0 0.0 0.0 0.0 0.0 0.0 0.30303030303030304 0.0 0.3939393939393939 0.0 0.0 0.0 0.0 0.0 0.1717171717171717 0.0 0.0 0.1919191919191919 0.5555555555555556 0.6868686868686869 0.0 0.6363636363636364 0.0 0.0 0.3939393939393939 0.0 0.0 0.0 0.0 0.0 0.0 0.0 0.0 0.0 0.0 0.0 0.0 0.0 0.0 0.0 0.0 0.0 0.30303030303030304 0.9611111111111111</Array>
			</VectorInstance>
			<VectorInstance id="32">
				<REAL-SparseArray n="59" defaultValue="0.0">
					<Indices>1 10 14 24 30 33 34 35 37 40 59</Indices>
					<REAL-Entries>0.6161616161616161 0.5050505050505051 0.41414141414141414 0.5959595959595959 0.3333333333333333 0.3939393939393939 1.0 0.48484848484848486 1.0 0.3333333333333333 0.22777777777777777</REAL-Entries>
				</REAL-SparseArray>
			</VectorInstance>
			<VectorInstance id="33">
				<REAL-SparseArray n="59" defaultValue="0.0">
					<Indices>1 10 14 24 30 33 34 35 37 40 59</Indices>
					<REAL-Entries>0.5252525252525253 0.4444444444444444 0.35353535353535354 0.5959595959595959 0.3333333333333333 0.3939393939393939 0.6868686868686869 0.48484848484848486 1.0 0.1919191919191919 0.475</REAL-Entries>
				</REAL-SparseArray>
			</VectorInstance>
			<VectorInstance id="34">
				<REAL-SparseArray n="59" defaultValue="0.0">
					<Indices>1 10 14 24 30 33 34 35 37 40 59</Indices>
					<REAL-Entries>0.5252525252525253 0.4444444444444444 0.35353535353535354 0.5959595959595959 0.3333333333333333 0.3939393939393939 0.6868686868686869 0.48484848484848486 1.0 0.1919191919191919 0.7277777777777777</REAL-Entries>
				</REAL-SparseArray>
			</VectorInstance>
			<VectorInstance id="35">
				<REAL-SparseArray n="59" defaultValue="0.0">
					<Indices>1 10 14 24 30 33 34 35 37 40 59</Indices>
					<REAL-Entries>0.5252525252525253 0.4444444444444444 0.35353535353535354 0.5959595959595959 0.3333333333333333 0.3939393939393939 0.6868686868686869 0.48484848484848486 1.0 0.1919191919191919 0.9805555555555555</REAL-Entries>
				</REAL-SparseArray>
			</VectorInstance>
			<VectorInstance id="36">
				<Array type="real">0.7272727272727273 0.0 0.0 0.0 0.0 0.0 0.0 0.0 0.0 0.5050505050505051 0.30303030303030304 0.0 0.0 0.37373737373737376 0.0 0.0 0.3333333333333333 0.0 0.0 0.0 0.0 0.2828282828282828 0.0 0.6868686868686869 0.0 0.26262626262626265 0.0 0.0 0.0 0.37373737373737376 0.0 0.0 0.0 0.8585858585858586 0.7272727272727273 0.0 0.7777777777777778 0.0 0.0 0.35353535353535354 0.24242424242424243 0.0 0.0 0.0 0.0 0.0 0.0 0.1717171717171717 0.0 0.0 0.0 0.0 0.0 0.0 0.0 0.0 0.0 0.1919191919191919 0.24444444444444444</Array>
			</VectorInstance>
			<VectorInstance id="37">
				<Array type="real">0.7272727272727273 0.0 0.0 0.0 0.0 0.0 0.0 0.0 0.0 0.5050505050505051 0.30303030303030304 0.0 0.0 0.37373737373737376 0.0 0.0 0.3333333333333333 0.0 0.0 0.0 0.0 0.2828282828282828 0.0 0.6868686868686869 0.0 0.26262626262626265 0.0 0.0 0.0 0.37373737373737376 0.0 0.0 0.0 0.8585858585858586 0.7272727272727273 0.0 0.7777777777777778 0.0 0.0 0.35353535353535354 0.24242424242424243 0.0 0.0 0.0 0.0 0.0 0.0 0.1717171717171717 0.0 0.0 0.0 0.0 0.0 0.0 0.0 0.0 0.0 0.1919191919191919 0.5</Array>
			</VectorInstance>
			<VectorInstance id="38">
				<Array type="real">0.7272727272727273 0.0 0.0 0.0 0.0 0.0 0.0 0.0 0.0 0.35353535353535354 0.30303030303030304 0.0 0.0 0.37373737373737376 0.0 0.0 0.3333333333333333 0.0 0.0 0.0 0.0 0.2828282828282828 0.0 0.6868686868686869 0.0 0.26262626262626265 0.0 0.0 0.0 0.37373737373737376 0.0 0.0 0.0 0.6363636363636364 0.7272727272727273 0.0 0.5050505050505051 0.0 0.0 0.35353535353535354 0.24242424242424243 0.0 0.0 0.0 0.0 0.0 0.0 0.1717171717171717 0.0 0.0 0.0 0.0 0.0 0.0 0.0 0.0 0.0 0.0 0.7472222222222222</Array>
			</VectorInstance>
			<VectorInstance id="39">
				<Array type="real">0.2828282828282828 0.0 0.0 0.0 0.0 0.0 0.0 0.0 0.0 0.41414141414141414 0.0 0.0 0.0 0.37373737373737376 0.0 0.0 0.3333333333333333 0.0 0.0 0.0 0.0 0.2828282828282828 0.0 0.4444444444444444 0.0 0.26262626262626265 0.0 0.0 0.0 0.37373737373737376 0.0 0.0 0.0 0.7070707070707071 0.7272727272727273 0.0 0.5050505050505051 0.0 0.0 0.35353535353535354 0.24242424242424243 0.0 0.0 0.0 0.0 0.0 0.0 0.1717171717171717 0.0 0.0 0.0 0.0 0.0 0.0 0.0 0.0 0.0 0.0 0.005555555555555556</Array>
			</VectorInstance>
			<VectorInstance id="40">
				<REAL-SparseArray n="59" defaultValue="0.0">
					<Indices>1 10 12 14 24 30 33 34 37 40 59</Indices>
					<REAL-Entries>0.5555555555555556 0.5252525252525253 0.3333333333333333 0.3333333333333333 0.5757575757575758 0.2828282828282828 0.48484848484848486 0.797979797979798 0.7474747474747475 0.26262626262626265 0.2388888888888889</REAL-Entries>
				</REAL-SparseArray>
			</VectorInstance>
			<VectorInstance id="41">
				<REAL-SparseArray n="59" defaultValue="0.0">
					<Indices>1 10 12 14 24 30 33 34 37 40 59</Indices>
					<REAL-Entries>0.5555555555555556 0.41414141414141414 0.3333333333333333 0.3333333333333333 0.37373737373737376 0.2828282828282828 0.48484848484848486 0.4444444444444444 0.5757575757575758 0.2828282828282828 0.5027777777777778</REAL-Entries>
				</REAL-SparseArray>
			</VectorInstance>
			<VectorInstance id="42">
				<REAL-SparseArray n="59" defaultValue="0.0">
					<Indices>1 10 12 14 24 30 33 34 37 40 59</Indices>
					<REAL-Entries>0.5555555555555556 0.41414141414141414 0.3333333333333333 0.3333333333333333 0.37373737373737376 0.2828282828282828 0.48484848484848486 0.4444444444444444 0.5757575757575758 0.2828282828282828 0.75</REAL-Entries>
				</REAL-SparseArray>
			</VectorInstance>
			<VectorInstance id="43">
				<REAL-SparseArray n="59" defaultValue="0.0">
					<Indices>1 10 12 14 24 30 33 34 37 40</Indices>
					<REAL-Entries>0.5555555555555556 0.41414141414141414 0.3333333333333333 0.3333333333333333 0.37373737373737376 0.2828282828282828 0.48484848484848486 0.4444444444444444 0.5757575757575758 0.2828282828282828</REAL-Entries>
				</REAL-SparseArray>
			</VectorInstance>
			<VectorInstance id="44">
				<REAL-SparseArray n="59" defaultValue="0.0">
					<Indices>10 14 24 34 37 40 59</Indices>
					<REAL-Entries>0.41414141414141414 0.2828282828282828 0.37373737373737376 0.5757575757575758 0.6161616161616161 0.2828282828282828 0.22777777777777777</REAL-Entries>
				</REAL-SparseArray>
			</VectorInstance>
			<VectorInstance id="45">
				<REAL-SparseArray n="59" defaultValue="0.0">
					<Indices>10 14 24 34 37 40 59</Indices>
					<REAL-Entries>0.41414141414141414 0.2828282828282828 0.37373737373737376 0.5757575757575758 0.6161616161616161 0.2828282828282828 0.4888888888888889</REAL-Entries>
				</REAL-SparseArray>
			</VectorInstance>
			<VectorInstance id="46">
				<REAL-SparseArray n="59" defaultValue="0.0">
					<Indices>10 14 24 34 37 40 59</Indices>
					<REAL-Entries>0.41414141414141414 0.2828282828282828 0.37373737373737376 0.5757575757575758 0.6161616161616161 0.2828282828282828 0.7333333333333333</REAL-Entries>
				</REAL-SparseArray>
			</VectorInstance>
			<VectorInstance id="47">
				<REAL-SparseArray n="59" defaultValue="0.0">
					<Indices>10 14 24 34 37 40 59</Indices>
					<REAL-Entries>0.41414141414141414 0.2828282828282828 0.37373737373737376 0.5757575757575758 0.6161616161616161 0.2828282828282828 0.9944444444444445</REAL-Entries>
				</REAL-SparseArray>
			</VectorInstance>
			<VectorInstance id="48">
				<REAL-SparseArray n="59" defaultValue="0.0">
					<Indices>1 10 14 24 34 35 37 59</Indices>
					<REAL-Entries>0.35353535353535354 0.41414141414141414 0.2828282828282828 0.35353535353535354 0.5252525252525253 0.35353535353535354 0.4444444444444444 0.24444444444444444</REAL-Entries>
				</REAL-SparseArray>
			</VectorInstance>
			<VectorInstance id="49">
				<REAL-SparseArray n="59" defaultValue="0.0">
					<Indices>1 10 14 24 34 35 37 59</Indices>
					<REAL-Entries>0.35353535353535354 0.3939393939393939 0.2828282828282828 0.35353535353535354 0.6161616161616161 0.35353535353535354 0.5757575757575758 0.5111111111111111</REAL-Entries>
				</REAL-SparseArray>
			</VectorInstance>
			<VectorInstance id="50">
				<REAL-SparseArray n="59" defaultValue="0.0">
					<Indices>1 10 14 24 34 35 37 59</Indices>
					<REAL-Entries>0.35353535353535354 0.3939393939393939 0.2222222222222222 0.2828282828282828 0.46464646464646464 0.35353535353535354 0.5757575757575758 0.7694444444444445</REAL-Entries>
				</REAL-SparseArray>
			</VectorInstance>
			<VectorInstance id="51">
				<REAL-SparseArray n="59" defaultValue="0.0">
					<Indices>1 10 14 24 34 35 37 59</Indices>
					<REAL-Entries>0.35353535353535354 0.3939393939393939 0.2222222222222222 0.2828282828282828 0.5959595959595959 0.35353535353535354 0.4444444444444444 0.005555555555555556</REAL-Entries>
				</REAL-SparseArray>
			</VectorInstance>
			<VectorInstance id="52">
				<REAL-SparseArray n="59" defaultValue="0.0">
					<Indices>1 10 14 24 34 35 37 59</Indices>
					<REAL-Entries>0.35353535353535354 0.30303030303030304 0.2828282828282828 0.2828282828282828 0.5959595959595959 0.35353535353535354 0.4444444444444444 0.2638888888888889</REAL-Entries>
				</REAL-SparseArray>
			</VectorInstance>
			<VectorInstance id="53">
				<REAL-SparseArray n="59" defaultValue="0.0">
					<Indices>1 10 14 24 34 35 37 59</Indices>
					<REAL-Entries>0.35353535353535354 0.30303030303030304 0.2828282828282828 0.2828282828282828 0.5959595959595959 0.35353535353535354 0.4444444444444444 0.5166666666666667</REAL-Entries>
				</REAL-SparseArray>
			</VectorInstance>
			<VectorInstance id="54">
				<REAL-SparseArray n="59" defaultValue="0.0">
					<Indices>1 10 14 24 34 35 37 59</Indices>
					<REAL-Entries>0.35353535353535354 0.30303030303030304 0.2828282828282828 0.2828282828282828 0.5050505050505051 0.35353535353535354 0.2828282828282828 0.7611111111111111</REAL-Entries>
				</REAL-SparseArray>
			</VectorInstance>
			<VectorInstance id="55">
				<REAL-SparseArray n="59" defaultValue="0.0">
					<Indices>1 10 14 24 34 37 59</Indices>
					<REAL-Entries>0.2828282828282828 0.2828282828282828 0.3333333333333333 0.41414141414141414 0.5959595959595959 0.2828282828282828 0.005555555555555556</REAL-Entries>
				</REAL-SparseArray>
			</VectorInstance>
			<VectorInstance id="56">
				<Array type="real">0.8181818181818182 0.0 0.0 0.0 0.0 0.0 0.30303030303030304 0.0 0.0 0.6868686868686869 0.0 0.0 0.0 0.3939393939393939 0.0 0.0 0.0 0.0 0.0 0.0 0.0 0.24242424242424243 0.0 0.6666666666666666 0.0 0.2222222222222222 0.0 0.0 0.0 0.3939393939393939 0.0 0.0 0.46464646464646464 1.0 0.7272727272727273 0.0 1.0 0.0 0.0 0.35353535353535354 0.0 0.0 0.0 0.0 0.0 0.0 0.0 0.24242424242424243 0.0 0.0 0.0 0.0 0.0 0.0 0.0 0.0 0.0 0.0 0.2722222222222222</Array>
			</VectorInstance>
			<VectorInstance id="57">
				<Array type="real">0.8181818181818182 0.0 0.0 0.0 0.0 0.0 0.30303030303030304 0.0 0.0 0.6868686868686869 0.0 0.0 0.0 0.3939393939393939 0.0 0.0 0.0 0.0 0.0 0.0 0.0 0.24242424242424243 0.0 0.6666666666666666 0.0 0.2222222222222222 0.0 0.0 0.0 0.3939393939393939 0.0 0.0 0.46464646464646464 1.0 0.7272727272727273 0.0 1.0 0.0 0.0 0.35353535353535354 0.0 0.0 0.0 0.0 0.0 0.0 0.0 0.24242424242424243 0.0 0.0 0.0 0.0 0.0 0.0 0.0 0.0 0.0 0.0 0.5333333333333333</Array>
			</VectorInstance>
			<VectorInstance id="58">
				<Array type="real">0.8181818181818182 0.0 0.0 0.0 0.0 0.0 0.30303030303030304 0.0 0.0 0.6868686868686869 0.0 0.0 0.0 0.3939393939393939 0.0 0.0 0.0 0.0 0.0 0.0 0.0 0.24242424242424243 0.0 0.6666666666666666 0.0 0.2222222222222222 0.0 0.0 0.0 0.3939393939393939 0.0 0.0 0.46464646464646464 1.0 0.7272727272727273 0.0 0.6666666666666666 0.0 0.0 0.35353535353535354 0.0 0.0 0.0 0.0 0.0 0.0 0.0 0.24242424242424243 0.0 0.0 0.0 0.0 0.0 0.0 0.0 0.0 0.0 0.0 0.7666666666666667</Array>
			</VectorInstance>
			<VectorInstance id="59">
				<REAL-SparseArray n="59" defaultValue="0.0">
					<Indices>1 7 10 14 22 24 30 34 35 37 40 48 59</Indices>
					<REAL-Entries>0.6161616161616161 0.1919191919191919 0.7777777777777778 0.41414141414141414 0.24242424242424243 0.797979797979798 0.35353535353535354 0.9090909090909091 0.7272727272727273 0.6666666666666666 0.35353535353535354 0.24242424242424243 0.008333333333333333</REAL-Entries>
				</REAL-SparseArray>
			</VectorInstance>
			<VectorInstance id="60">
				<REAL-SparseArray n="59" defaultValue="0.0">
					<Indices>1 7 10 14 22 24 30 34 35 37 40 48 59</Indices>
					<REAL-Entries>0.6161616161616161 0.1919191919191919 0.7777777777777778 0.41414141414141414 0.24242424242424243 0.797979797979798 0.35353535353535354 0.9090909090909091 0.7272727272727273 0.6666666666666666 0.35353535353535354 0.24242424242424243 0.24722222222222223</REAL-Entries>
				</REAL-SparseArray>
			</VectorInstance>
			<VectorInstance id="61">
				<REAL-SparseArray n="59" defaultValue="0.0">
					<Indices>1 7 10 14 24 30 34 35 37 40 59</Indices>
					<REAL-Entries>0.7070707070707071 0.1919191919191919 0.5959595959595959 0.48484848484848486 0.5757575757575758 0.24242424242424243 0.7777777777777778 0.5252525252525253 0.8383838383838383 0.2828282828282828 0.4888888888888889</REAL-Entries>
				</REAL-SparseArray>
			</VectorInstance>
			<VectorInstance id="62">
				<REAL-SparseArray n="59" defaultValue="0.0">
					<Indices>1 7 10 14 24 30 34 35 37 40 59</Indices>
					<REAL-Entries>0.5252525252525253 0.1919191919191919 0.7474747474747475 0.4444444444444444 0.4444444444444444 0.35353535353535354 0.8888888888888888 0.5050505050505051 0.8181818181818182 0.2828282828282828 0.725</REAL-Entries>
				</REAL-SparseArray>
			</VectorInstance>
			<VectorInstance id="63">
				<REAL-SparseArray n="59" defaultValue="0.0">
					<Indices>1 7 10 14 24 30 34 35 37 40 59</Indices>
					<REAL-Entries>0.5252525252525253 0.1919191919191919 0.7474747474747475 0.4444444444444444 0.4444444444444444 0.35353535353535354 0.8888888888888888 0.5050505050505051 0.8181818181818182 0.2828282828282828 0.9583333333333334</REAL-Entries>
				</REAL-SparseArray>
			</VectorInstance>
			<VectorInstance id="68">
				<REAL-SparseArray n="59" defaultValue="0.0">
					<Indices>1 7 10 14 24 30 33 34 35 37 59</Indices>
					<REAL-Entries>0.48484848484848486 0.15151515151515152 0.5555555555555556 0.3333333333333333 0.5959595959595959 0.2222222222222222 0.35353535353535354 1.0 0.48484848484848486 1.0 0.225</REAL-Entries>
				</REAL-SparseArray>
			</VectorInstance>
			<VectorInstance id="69">
				<REAL-SparseArray n="59" defaultValue="0.0">
					<Indices>1 7 10 14 24 30 33 34 35 37 59</Indices>
					<REAL-Entries>0.6161616161616161 0.15151515151515152 0.5555555555555556 0.3333333333333333 0.7272727272727273 0.2222222222222222 0.35353535353535354 0.9696969696969697 0.48484848484848486 1.0 0.4722222222222222</REAL-Entries>
				</REAL-SparseArray>
			</VectorInstance>
			<VectorInstance id="70">
				<REAL-SparseArray n="59" defaultValue="0.0">
					<Indices>1 7 10 14 24 30 33 34 35 37 40 59</Indices>
					<REAL-Entries>0.5252525252525253 0.15151515151515152 0.46464646464646464 0.35353535353535354 0.5555555555555556 0.2828282828282828 0.35353535353535354 0.7474747474747475 0.48484848484848486 1.0 0.24242424242424243 0.7111111111111111</REAL-Entries>
				</REAL-SparseArray>
			</VectorInstance>
			<VectorInstance id="71">
				<REAL-SparseArray n="59" defaultValue="0.0">
					<Indices>1 10 14 24 30 33 34 35 37 40 59</Indices>
					<REAL-Entries>0.5252525252525253 0.5555555555555556 0.35353535353535354 0.5959595959595959 0.37373737373737376 0.35353535353535354 1.0 0.46464646464646464 0.7474747474747475 0.3939393939393939 0.9583333333333334</REAL-Entries>
				</REAL-SparseArray>
			</VectorInstance>
			<VectorInstance id="72">
				<REAL-SparseArray n="59" defaultValue="0.0">
					<Indices>1 10 14 24 30 34 35 37 40 48 59</Indices>
					<REAL-Entries>0.7070707070707071 0.5555555555555556 0.35353535353535354 0.6666666666666666 0.35353535353535354 1.0 0.7272727272727273 1.0 0.37373737373737376 0.30303030303030304 0.21944444444444444</REAL-Entries>
				</REAL-SparseArray>
			</VectorInstance>
			<VectorInstance id="73">
				<REAL-SparseArray n="59" defaultValue="0.0">
					<Indices>1 10 14 24 30 34 35 37 40 48 59</Indices>
					<REAL-Entries>0.7070707070707071 0.5555555555555556 0.35353535353535354 0.6666666666666666 0.35353535353535354 1.0 0.7272727272727273 1.0 0.37373737373737376 0.30303030303030304 0.4777777777777778</REAL-Entries>
				</REAL-SparseArray>
			</VectorInstance>
			<VectorInstance id="74">
				<REAL-SparseArray n="59" defaultValue="0.0">
					<Indices>1 10 14 24 30 34 35 37 40 48 59</Indices>
					<REAL-Entries>0.7070707070707071 0.5555555555555556 0.35353535353535354 0.6666666666666666 0.35353535353535354 1.0 0.7272727272727273 1.0 0.37373737373737376 0.30303030303030304 0.7</REAL-Entries>
				</REAL-SparseArray>
			</VectorInstance>
			<VectorInstance id="75">
				<REAL-SparseArray n="59" defaultValue="0.0">
					<Indices>1 10 14 24 30 34 35 37 40 48 59</Indices>
					<REAL-Entries>0.7070707070707071 0.5555555555555556 0.35353535353535354 0.6666666666666666 0.35353535353535354 1.0 0.7272727272727273 1.0 0.37373737373737376 0.30303030303030304 0.9638888888888889</REAL-Entries>
				</REAL-SparseArray>
			</VectorInstance>
			<VectorInstance id="76">
				<Array type="real">0.6666666666666666 0.0 0.0 0.0 0.1919191919191919 0.0 0.3939393939393939 0.0 0.0 0.5555555555555556 0.0 0.0 0.0 0.3939393939393939 0.0 0.0 0.0 0.0 0.0 0.0 0.0 0.2828282828282828 0.0 0.7474747474747475 0.0 0.24242424242424243 0.0 0.0 0.0 0.37373737373737376 0.0 0.0 0.5252525252525253 0.9494949494949495 0.6363636363636364 0.0 1.0 0.0 0.0 0.35353535353535354 0.0 0.0 0.0 0.0 0.0 0.0 0.0 0.0 0.0 0.0 0.0 0.0 0.0 0.1717171717171717 0.0 0.0 0.0 0.0 0.2388888888888889</Array>
			</VectorInstance>
			<VectorInstance id="77">
				<Array type="real">0.6666666666666666 0.0 0.0 0.0 0.1919191919191919 0.0 0.3939393939393939 0.0 0.0 0.5555555555555556 0.0 0.0 0.0 0.3939393939393939 0.0 0.0 0.0 0.0 0.0 0.0 0.0 0.2828282828282828 0.0 0.7474747474747475 0.0 0.24242424242424243 0.0 0.0 0.0 0.37373737373737376 0.0 0.0 0.5252525252525253 0.9494949494949495 0.6363636363636364 0.0 1.0 0.0 0.0 0.35353535353535354 0.0 0.0 0.0 0.0 0.0 0.0 0.0 0.0 0.0 0.0 0.0 0.0 0.0 0.1717171717171717 0.0 0.0 0.0 0.0 0.49444444444444446</Array>
			</VectorInstance>
			<VectorInstance id="78">
				<Array type="real">0.6666666666666666 0.0 0.0 0.0 0.1919191919191919 0.0 0.3939393939393939 0.0 0.0 0.5555555555555556 0.0 0.0 0.0 0.3939393939393939 0.0 0.0 0.0 0.0 0.0 0.0 0.0 0.2828282828282828 0.0 0.7474747474747475 0.0 0.24242424242424243 0.0 0.0 0.0 0.37373737373737376 0.0 0.0 0.5252525252525253 0.9494949494949495 0.6363636363636364 0.0 1.0 0.0 0.0 0.35353535353535354 0.0 0.0 0.0 0.0 0.0 0.0 0.0 0.0 0.0 0.0 0.0 0.0 0.0 0.1717171717171717 0.0 0.0 0.0 0.0 0.7305555555555555</Array>
			</VectorInstance>
			<VectorInstance id="79">
				<Array type="real">0.6666666666666666 0.0 0.0 0.0 0.1919191919191919 0.0 0.3939393939393939 0.0 0.0 0.5555555555555556 0.0 0.0 0.0 0.3939393939393939 0.0 0.0 0.0 0.0 0.0 0.0 0.0 0.2828282828282828 0.0 0.7474747474747475 0.0 0.24242424242424243 0.0 0.0 0.0 0.37373737373737376 0.0 0.0 0.5252525252525253 0.8888888888888888 0.6363636363636364 0.0 0.9292929292929293 0.0 0.0 0.35353535353535354 0.0 0.0 0.0 0.0 0.0 0.0 0.0 0.0 0.0 0.0 0.0 0.0 0.0 0.1717171717171717 0.0 0.0 0.0 0.0 0.9694444444444444</Array>
			</VectorInstance>
			<VectorInstance id="80">
				<REAL-SparseArray n="59" defaultValue="0.0">
					<Indices>1 7 10 14 24 30 34 35 37 40 54 59</Indices>
					<REAL-Entries>0.5252525252525253 0.24242424242424243 0.6666666666666666 0.3333333333333333 0.6363636363636364 0.2828282828282828 0.9090909090909091 0.5252525252525253 0.8383838383838383 0.2828282828282828 0.1717171717171717 0.2388888888888889</REAL-Entries>
				</REAL-SparseArray>
			</VectorInstance>
			<VectorInstance id="81">
				<REAL-SparseArray n="59" defaultValue="0.0">
					<Indices>1 7 10 12 14 22 24 30 34 35 37 40 59</Indices>
					<REAL-Entries>0.5959595959595959 0.2222222222222222 0.5252525252525253 0.26262626262626265 0.37373737373737376 0.13131313131313133 0.6161616161616161 0.24242424242424243 0.9494949494949495 0.5252525252525253 1.0 0.2828282828282828 0.49722222222222223</REAL-Entries>
				</REAL-SparseArray>
			</VectorInstance>
			<VectorInstance id="82">
				<REAL-SparseArray n="59" defaultValue="0.0">
					<Indices>1 7 10 12 14 22 24 30 34 35 37 40 59</Indices>
					<REAL-Entries>0.5959595959595959 0.2222222222222222 0.5252525252525253 0.26262626262626265 0.37373737373737376 0.13131313131313133 0.6161616161616161 0.24242424242424243 0.9494949494949495 0.5252525252525253 1.0 0.2828282828282828 0.7388888888888889</REAL-Entries>
				</REAL-SparseArray>
			</VectorInstance>
			<VectorInstance id="83">
				<REAL-SparseArray n="59" defaultValue="0.0">
					<Indices>1 7 10 12 13 14 22 24 30 34 35 37 40 59</Indices>
					<REAL-Entries>0.5959595959595959 0.2222222222222222 0.6868686868686869 0.26262626262626265 0.2222222222222222 0.37373737373737376 0.13131313131313133 0.8181818181818182 0.24242424242424243 0.9696969696969697 0.5252525252525253 0.797979797979798 0.2828282828282828 0.9805555555555555</REAL-Entries>
				</REAL-SparseArray>
			</VectorInstance>
			<VectorInstance id="88">
				<REAL-SparseArray n="59" defaultValue="0.0">
					<Indices>1 10 14 24 30 34 35 37 40 59</Indices>
					<REAL-Entries>0.5555555555555556 0.6868686868686869 0.6363636363636364 0.46464646464646464 0.5555555555555556 0.9090909090909091 0.5555555555555556 0.7777777777777778 0.3939393939393939 0.25555555555555554</REAL-Entries>
				</REAL-SparseArray>
			</VectorInstance>
			<VectorInstance id="89">
				<REAL-SparseArray n="59" defaultValue="0.0">
					<Indices>1 10 14 24 30 34 35 37 40 59</Indices>
					<REAL-Entries>0.5555555555555556 0.6868686868686869 0.6363636363636364 0.46464646464646464 0.5555555555555556 0.9090909090909091 0.5555555555555556 0.7777777777777778 0.3939393939393939 0.5222222222222223</REAL-Entries>
				</REAL-SparseArray>
			</VectorInstance>
			<VectorInstance id="90">
				<REAL-SparseArray n="59" defaultValue="0.0">
					<Indices>1 7 10 13 14 24 30 34 35 37 40 59</Indices>
					<REAL-Entries>0.41414141414141414 0.1717171717171717 0.7777777777777778 0.15151515151515152 0.5555555555555556 0.6161616161616161 0.37373737373737376 0.9494949494949495 0.37373737373737376 0.7272727272727273 0.30303030303030304 0.7555555555555555</REAL-Entries>
				</REAL-SparseArray>
			</VectorInstance>
			<VectorInstance id="91">
				<REAL-SparseArray n="59" defaultValue="0.0">
					<Indices>1 7 10 13 14 24 30 34 35 37 40</Indices>
					<REAL-Entries>0.41414141414141414 0.1717171717171717 0.7777777777777778 0.15151515151515152 0.5555555555555556 0.6161616161616161 0.37373737373737376 0.9494949494949495 0.37373737373737376 0.7272727272727273 0.30303030303030304</REAL-Entries>
				</REAL-SparseArray>
			</VectorInstance>
			<VectorInstance id="92">
				<REAL-SparseArray n="59" defaultValue="0.0">
					<Indices>1 7 10 13 14 24 30 33 34 35 37 40 59</Indices>
					<REAL-Entries>0.8888888888888888 0.2828282828282828 0.46464646464646464 0.37373737373737376 0.41414141414141414 0.5959595959595959 0.26262626262626265 0.4444444444444444 1.0 0.37373737373737376 0.8383838383838383 0.26262626262626265 0.2833333333333333</REAL-Entries>
				</REAL-SparseArray>
			</VectorInstance>
			<VectorInstance id="93">
				<REAL-SparseArray n="59" defaultValue="0.0">
					<Indices>1 7 10 13 14 24 30 33 34 35 37 40 59</Indices>
					<REAL-Entries>0.8888888888888888 0.2828282828282828 0.46464646464646464 0.37373737373737376 0.41414141414141414 0.5959595959595959 0.26262626262626265 0.35353535353535354 0.8383838383838383 0.5959595959595959 0.9494949494949495 0.26262626262626265 0.5611111111111111</REAL-Entries>
				</REAL-SparseArray>
			</VectorInstance>
			<VectorInstance id="94">
				<REAL-SparseArray n="59" defaultValue="0.0">
					<Indices>1 7 10 12 13 14 24 30 33 34 35 37 40 59</Indices>
					<REAL-Entries>0.797979797979798 0.26262626262626265 0.48484848484848486 0.2222222222222222 0.37373737373737376 0.30303030303030304 0.5555555555555556 0.1717171717171717 0.35353535353535354 0.797979797979798 0.5050505050505051 0.9494949494949495 0.2222222222222222 0.7944444444444444</REAL-Entries>
				</REAL-SparseArray>
			</VectorInstance>
			<VectorInstance id="95">
				<REAL-SparseArray n="59" defaultValue="0.0">
					<Indices>1 7 10 12 13 14 24 30 33 34 35 37 40 59</Indices>
					<REAL-Entries>0.9090909090909091 0.26262626262626265 0.48484848484848486 0.2222222222222222 0.30303030303030304 0.30303030303030304 0.7272727272727273 0.1717171717171717 0.35353535353535354 1.0 0.7272727272727273 0.8585858585858586 0.46464646464646464 0.027777777777777776</REAL-Entries>
				</REAL-SparseArray>
			</VectorInstance>
			<VectorInstance id="96">
				<Array type="real">0.7777777777777778 0.0 0.0 0.0 0.0 0.0 0.35353535353535354 0.0 0.0 0.7070707070707071 0.0 0.37373737373737376 0.2222222222222222 0.4444444444444444 0.0 0.0 0.0 0.0 0.0 0.0 0.0 0.1717171717171717 0.0 0.6161616161616161 0.0 0.24242424242424243 0.0 0.0 0.0 0.2828282828282828 0.1919191919191919 0.0 0.0 1.0 0.7272727272727273 0.0 0.8585858585858586 0.0 0.15151515151515152 0.37373737373737376 0.0 0.0 0.2828282828282828 0.0 0.0 0.0 0.0 0.0 0.0 0.0 0.0 0.0 0.0 0.0 0.0 0.0 0.0 0.0 0.25</Array>
			</VectorInstance>
			<VectorInstance id="97">
				<Array type="real">0.7777777777777778 0.0 0.0 0.0 0.0 0.0 0.35353535353535354 0.0 0.0 0.7070707070707071 0.0 0.37373737373737376 0.2222222222222222 0.4444444444444444 0.0 0.0 0.0 0.0 0.0 0.0 0.0 0.1717171717171717 0.0 0.6161616161616161 0.0 0.24242424242424243 0.0 0.0 0.0 0.2828282828282828 0.1919191919191919 0.0 0.0 1.0 0.7272727272727273 0.0 0.8585858585858586 0.0 0.15151515151515152 0.37373737373737376 0.0 0.0 0.2828282828282828 0.0 0.0 0.0 0.0 0.0 0.0 0.0 0.0 0.0 0.0 0.0 0.0 0.0 0.0 0.0 0.5</Array>
			</VectorInstance>
			<VectorInstance id="98">
				<Array type="real">0.7777777777777778 0.0 0.0 0.0 0.0 0.0 0.35353535353535354 0.0 0.0 0.7070707070707071 0.0 0.37373737373737376 0.2222222222222222 0.4444444444444444 0.0 0.0 0.0 0.0 0.0 0.0 0.0 0.1717171717171717 0.0 0.6161616161616161 0.0 0.24242424242424243 0.0 0.0 0.0 0.2828282828282828 0.1919191919191919 0.0 0.0 1.0 0.7272727272727273 0.0 0.8585858585858586 0.0 0.15151515151515152 0.37373737373737376 0.0 0.0 0.2828282828282828 0.0 0.0 0.0 0.0 0.0 0.0 0.0 0.0 0.0 0.0 0.0 0.0 0.0 0.0 0.0 0.7361111111111112</Array>
			</VectorInstance>
			<VectorInstance id="99">
				<Array type="real">0.5959595959595959 0.0 0.0 0.0 0.0 0.0 0.35353535353535354 0.0 0.0 0.7070707070707071 0.0 0.37373737373737376 0.2222222222222222 0.26262626262626265 0.0 0.0 0.0 0.0 0.0 0.0 0.0 0.1717171717171717 0.0 0.5959595959595959 0.0 0.24242424242424243 0.0 0.0 0.0 0.35353535353535354 0.1919191919191919 0.0 0.30303030303030304 0.9696969696969697 0.7272727272727273 0.0 0.6868686868686869 0.0 0.15151515151515152 0.2828282828282828 0.0 0.0 0.2828282828282828 0.0 0.0 0.0 0.0 0.0 0.0 0.0 0.0 0.0 0.0 0.0 0.0 0.0 0.0 0.0 0.9611111111111111</Array>
			</VectorInstance>
			<VectorInstance id="100">
				<Array type="real">0.797979797979798 0.0 0.0 0.0 0.0 0.0 0.4444444444444444 0.0 0.0 0.6363636363636364 0.0 0.0 0.2222222222222222 0.46464646464646464 0.0 0.0 0.0 0.0 0.0 0.0 0.0 0.0 0.0 0.797979797979798 0.0 0.24242424242424243 0.0 0.0 0.0 0.3939393939393939 0.1919191919191919 0.0 0.30303030303030304 0.9090909090909091 0.797979797979798 0.0 0.7070707070707071 0.0 0.15151515151515152 0.2828282828282828 0.0 0.0 0.1919191919191919 0.0 0.0 0.0 0.0 0.0 0.0 0.0 0.0 0.0 0.0 0.0 0.0 0.0 0.0 0.0 0.25555555555555554</Array>
			</VectorInstance>
			<VectorInstance id="101">
				<Array type="real">0.797979797979798 0.0 0.0 0.0 0.0 0.0 0.4444444444444444 0.0 0.0 0.6363636363636364 0.0 0.0 0.2222222222222222 0.46464646464646464 0.0 0.0 0.0 0.0 0.0 0.0 0.0 0.0 0.0 0.7777777777777778 0.0 0.24242424242424243 0.0 0.0 0.0 0.3939393939393939 0.1919191919191919 0.0 0.30303030303030304 0.9494949494949495 0.797979797979798 0.0 0.9292929292929293 0.0 0.15151515151515152 0.2828282828282828 0.0 0.0 0.1919191919191919 0.0 0.0 0.0 0.0 0.0 0.0 0.0 0.0 0.0 0.0 0.0 0.0 0.0 0.0 0.0 0.525</Array>
			</VectorInstance>
			<VectorInstance id="102">
				<REAL-SparseArray n="59" defaultValue="0.0">
					<Indices>1 7 10 14 24 30 33 34 35 37 40 43 59</Indices>
					<REAL-Entries>0.48484848484848486 0.4444444444444444 0.5555555555555556 0.2828282828282828 0.5050505050505051 0.2222222222222222 0.30303030303030304 0.8585858585858586 0.5555555555555556 0.9292929292929293 0.2222222222222222 0.1919191919191919 0.7583333333333333</REAL-Entries>
				</REAL-SparseArray>
			</VectorInstance>
			<VectorInstance id="103">
				<REAL-SparseArray n="59" defaultValue="0.0">
					<Indices>1 7 10 14 24 30 33 34 35 37 40 43</Indices>
					<REAL-Entries>0.48484848484848486 0.4444444444444444 0.5555555555555556 0.2828282828282828 0.5050505050505051 0.2222222222222222 0.30303030303030304 0.8585858585858586 0.5555555555555556 0.9292929292929293 0.2222222222222222 0.1919191919191919</REAL-Entries>
				</REAL-SparseArray>
			</VectorInstance>
			<VectorInstance id="108">
				<Array type="real">0.7474747474747475 0.0 0.0 0.0 0.0 0.0 0.2828282828282828 0.0 0.0 0.7070707070707071 0.0 0.2222222222222222 0.30303030303030304 0.3333333333333333 0.0 0.0 0.0 0.0 0.0 0.0 0.0 0.1717171717171717 0.0 0.9696969696969697 0.0 0.24242424242424243 0.0 0.0 0.0 0.46464646464646464 0.0 0.0 0.30303030303030304 0.9090909090909091 0.7070707070707071 0.0 0.9292929292929293 0.0 0.0 0.48484848484848486 0.0 0.0 0.1919191919191919 0.0 0.24242424242424243 0.0 0.0 0.0 0.0 0.0 0.0 0.0 0.0 0.0 0.0 0.0 0.0 0.0 0.24722222222222223</Array>
			</VectorInstance>
			<VectorInstance id="109">
				<Array type="real">0.7272727272727273 0.0 0.0 0.0 0.0 0.0 0.0 0.0 0.0 0.6161616161616161 0.0 0.2222222222222222 0.30303030303030304 0.3939393939393939 0.0 0.0 0.0 0.0 0.0 0.0 0.0 0.1717171717171717 0.0 0.6161616161616161 0.0 0.24242424242424243 0.0 0.0 0.0 0.46464646464646464 0.0 0.0 0.30303030303030304 1.0 0.5757575757575758 0.0 0.9292929292929293 0.0 0.0 0.35353535353535354 0.0 0.0 0.0 0.0 0.24242424242424243 0.0 0.0 0.0 0.0 0.0 0.0 0.0 0.0 0.0 0.0 0.0 0.0 0.0 0.5</Array>
			</VectorInstance>
			<VectorInstance id="110">
				<Array type="real">0.7272727272727273 0.0 0.0 0.0 0.0 0.0 0.0 0.0 0.0 0.6161616161616161 0.0 0.2222222222222222 0.30303030303030304 0.3939393939393939 0.0 0.0 0.0 0.0 0.0 0.0 0.0 0.1717171717171717 0.0 0.6161616161616161 0.0 0.24242424242424243 0.0 0.0 0.0 0.46464646464646464 0.0 0.0 0.30303030303030304 1.0 0.5757575757575758 0.0 0.9292929292929293 0.0 0.0 0.35353535353535354 0.0 0.0 0.0 0.0 0.24242424242424243 0.0 0.0 0.0 0.0 0.0 0.0 0.0 0.0 0.0 0.0 0.0 0.0 0.0 0.7361111111111112</Array>
			</VectorInstance>
			<VectorInstance id="111">
				<Array type="real">0.7272727272727273 0.0 0.0 0.0 0.0 0.0 0.0 0.0 0.0 0.6161616161616161 0.0 0.2222222222222222 0.30303030303030304 0.41414141414141414 0.0 0.0 0.0 0.0 0.0 0.0 0.0 0.1717171717171717 0.0 0.6161616161616161 0.0 0.24242424242424243 0.0 0.0 0.0 0.46464646464646464 0.0 0.0 0.30303030303030304 1.0 0.5757575757575758 0.0 0.9292929292929293 0.0 0.0 0.35353535353535354 0.0 0.0 0.0 0.0 0.24242424242424243 0.0 0.0 0.0 0.0 0.0 0.0 0.0 0.0 0.0 0.0 0.0 0.0 0.0 0.975</Array>
			</VectorInstance>
			<VectorInstance id="112">
				<Array type="real">0.6363636363636364 0.0 0.0 0.0 0.0 0.0 0.0 0.0 0.0 0.6161616161616161 0.0 0.0 0.30303030303030304 0.5050505050505051 0.0 0.0 0.0 0.0 0.0 0.0 0.0 0.1717171717171717 0.0 0.6161616161616161 0.0 0.24242424242424243 0.0 0.0 0.0 0.37373737373737376 0.0 0.0 0.30303030303030304 0.8585858585858586 0.5757575757575758 0.0 0.9292929292929293 0.0 0.0 0.35353535353535354 0.26262626262626265 0.0 0.0 0.0 0.24242424242424243 0.0 0.0 0.0 0.0 0.0 0.0 0.0 0.0 0.0 0.0 0.0 0.0 0.0 0.2388888888888889</Array>
			</VectorInstance>
			<VectorInstance id="113">
				<Array type="real">0.6363636363636364 0.0 0.0 0.0 0.0 0.0 0.0 0.0 0.0 0.6161616161616161 0.0 0.0 0.30303030303030304 0.5050505050505051 0.0 0.0 0.0 0.0 0.0 0.0 0.0 0.1717171717171717 0.0 0.6161616161616161 0.0 0.24242424242424243 0.0 0.0 0.0 0.37373737373737376 0.0 0.0 0.30303030303030304 0.8585858585858586 0.5757575757575758 0.0 0.9292929292929293 0.0 0.0 0.35353535353535354 0.26262626262626265 0.0 0.0 0.0 0.24242424242424243 0.0 0.0 0.0 0.0 0.0 0.0 0.0 0.0 0.0 0.0 0.0 0.0 0.0 0.49722222222222223</Array>
			</VectorInstance>
			<VectorInstance id="114">
				<Array type="real">0.6363636363636364 0.0 0.0 0.0 0.0 0.0 0.0 0.0 0.0 0.6161616161616161 0.0 0.0 0.30303030303030304 0.5050505050505051 0.0 0.0 0.0 0.0 0.0 0.0 0.0 0.1717171717171717 0.0 0.5050505050505051 0.0 0.24242424242424243 0.0 0.0 0.0 0.37373737373737376 0.0 0.0 0.30303030303030304 0.8181818181818182 0.5757575757575758 0.0 0.8383838383838383 0.0 0.0 0.35353535353535354 0.26262626262626265 0.0 0.0 0.0 0.24242424242424243 0.0 0.0 0.0 0.0 0.0 0.0 0.0 0.0 0.0 0.0 0.0 0.0 0.0 0.7361111111111112</Array>
			</VectorInstance>
			<VectorInstance id="115">
				<REAL-SparseArray n="59" defaultValue="0.0">
					<Indices>1 10 11 14 24 26 30 34 35 37 40 41 59</Indices>
					<REAL-Entries>0.5959595959595959 0.5252525252525253 0.26262626262626265 0.41414141414141414 0.7070707070707071 0.24242424242424243 0.3939393939393939 1.0 0.5252525252525253 1.0 0.2828282828282828 0.26262626262626265 0.975</REAL-Entries>
				</REAL-SparseArray>
			</VectorInstance>
			<VectorInstance id="116">
				<REAL-SparseArray n="59" defaultValue="0.0">
					<Indices>1 10 11 14 22 24 30 33 34 35 37 40 59</Indices>
					<REAL-Entries>0.8181818181818182 0.8383838383838383 0.3333333333333333 0.5555555555555556 0.24242424242424243 0.7777777777777778 0.41414141414141414 0.2828282828282828 1.0 0.6363636363636364 1.0 0.3333333333333333 0.24722222222222223</REAL-Entries>
				</REAL-SparseArray>
			</VectorInstance>
			<VectorInstance id="117">
				<REAL-SparseArray n="59" defaultValue="0.0">
					<Indices>1 10 11 14 24 30 33 34 35 37 40 59</Indices>
					<REAL-Entries>0.5555555555555556 0.5252525252525253 0.3333333333333333 0.41414141414141414 0.6161616161616161 0.30303030303030304 0.2828282828282828 0.9090909090909091 0.6161616161616161 1.0 0.3333333333333333 0.5055555555555555</REAL-Entries>
				</REAL-SparseArray>
			</VectorInstance>
			<VectorInstance id="118">
				<REAL-SparseArray n="59" defaultValue="0.0">
					<Indices>1 10 11 14 24 30 33 34 35 37 40 59</Indices>
					<REAL-Entries>0.5555555555555556 0.5252525252525253 0.3333333333333333 0.41414141414141414 0.6161616161616161 0.30303030303030304 0.2828282828282828 0.9090909090909091 0.6161616161616161 1.0 0.3333333333333333 0.7333333333333333</REAL-Entries>
				</REAL-SparseArray>
			</VectorInstance>
			<VectorInstance id="119">
				<REAL-SparseArray n="59" defaultValue="0.0">
					<Indices>1 10 11 14 24 30 33 34 35 37 40 58 59</Indices>
					<REAL-Entries>0.5555555555555556 0.6161616161616161 0.3333333333333333 0.41414141414141414 0.6161616161616161 0.30303030303030304 0.2828282828282828 0.9090909090909091 0.6161616161616161 0.9292929292929293 0.3333333333333333 0.35353535353535354 0.9833333333333333</REAL-Entries>
				</REAL-SparseArray>
			</VectorInstance>
			<VectorInstance id="120">
				<REAL-SparseArray n="59" defaultValue="0.0">
					<Indices>1 7 10 13 14 24 30 34 35 37 40 43 58 59</Indices>
					<REAL-Entries>0.6161616161616161 0.3939393939393939 0.8181818181818182 0.3939393939393939 0.4444444444444444 0.8383838383838383 0.48484848484848486 0.9494949494949495 0.7070707070707071 1.0 0.37373737373737376 0.30303030303030304 0.35353535353535354 0.2361111111111111</REAL-Entries>
				</REAL-SparseArray>
			</VectorInstance>
			<VectorInstance id="121">
				<REAL-SparseArray n="59" defaultValue="0.0">
					<Indices>1 7 10 13 14 24 30 34 35 37 40 43 58 59</Indices>
					<REAL-Entries>0.6161616161616161 0.3939393939393939 0.8181818181818182 0.3939393939393939 0.4444444444444444 0.8383838383838383 0.48484848484848486 0.9494949494949495 0.7070707070707071 1.0 0.37373737373737376 0.30303030303030304 0.35353535353535354 0.49444444444444446</REAL-Entries>
				</REAL-SparseArray>
			</VectorInstance>
			<VectorInstance id="122">
				<REAL-SparseArray n="59" defaultValue="0.0">
					<Indices>1 7 10 13 14 24 30 34 35 37 40 43 58 59</Indices>
					<REAL-Entries>0.6161616161616161 0.3939393939393939 0.8181818181818182 0.3939393939393939 0.4444444444444444 0.8383838383838383 0.48484848484848486 0.9494949494949495 0.7070707070707071 1.0 0.37373737373737376 0.30303030303030304 0.35353535353535354 0.7333333333333333</REAL-Entries>
				</REAL-SparseArray>
			</VectorInstance>
			<VectorInstance id="123">
				<REAL-SparseArray n="59" defaultValue="0.0">
					<Indices>1 7 10 13 14 24 30 34 35 37 40 43 58 59</Indices>
					<REAL-Entries>0.8585858585858586 0.3939393939393939 0.8181818181818182 0.3939393939393939 0.4444444444444444 0.8888888888888888 0.41414141414141414 1.0 0.7272727272727273 0.7272727272727273 0.37373737373737376 0.30303030303030304 0.35353535353535354 0.9777777777777777</REAL-Entries>
				</REAL-SparseArray>
			</VectorInstance>
			<VectorInstance id="128">
				<Array type="real">0.7777777777777778 0.0 0.0 0.0 0.0 0.0 0.41414141414141414 0.0 0.0 0.6868686868686869 0.37373737373737376 0.0 0.3939393939393939 0.41414141414141414 0.0 0.0 0.0 0.0 0.3333333333333333 0.0 0.0 0.15151515151515152 0.0 0.8181818181818182 0.0 0.0 0.0 0.0 0.0 0.37373737373737376 0.0 0.0 0.5252525252525253 1.0 0.6666666666666666 0.0 0.9494949494949495 0.0 0.0 0.35353535353535354 0.0 0.0 0.0 0.0 0.0 0.0 0.0 0.0 0.0 0.0 0.0 0.0 0.0 0.0 0.3939393939393939 0.0 0.0 0.2222222222222222 0.2388888888888889</Array>
			</VectorInstance>
			<VectorInstance id="129">
				<Array type="real">0.7777777777777778 0.0 0.0 0.0 0.0 0.0 0.41414141414141414 0.0 0.0 0.6868686868686869 0.37373737373737376 0.0 0.3939393939393939 0.41414141414141414 0.0 0.0 0.0 0.0 0.3333333333333333 0.0 0.0 0.15151515151515152 0.0 0.797979797979798 0.0 0.0 0.0 0.0 0.0 0.37373737373737376 0.0 0.0 0.5252525252525253 1.0 0.6666666666666666 0.0 0.9494949494949495 0.0 0.0 0.35353535353535354 0.0 0.0 0.0 0.0 0.0 0.0 0.0 0.0 0.0 0.0 0.0 0.0 0.0 0.0 0.3939393939393939 0.0 0.0 0.2222222222222222 0.48055555555555557</Array>
			</VectorInstance>
			<VectorInstance id="130">
				<Array type="real">0.5252525252525253 0.0 0.0 0.0 0.0 0.0 0.41414141414141414 0.0 0.0 0.5757575757575758 0.1919191919191919 0.0 0.3939393939393939 0.41414141414141414 0.0 0.0 0.0 0.0 0.3333333333333333 0.0 0.0 0.0 0.0 0.5252525252525253 0.0 0.0 0.0 0.0 0.0 0.37373737373737376 0.0 0.0 0.5252525252525253 0.7777777777777778 0.4444444444444444 0.0 0.9494949494949495 0.0 0.0 0.35353535353535354 0.0 0.0 0.0 0.0 0.0 0.0 0.0 0.0 0.0 0.0 0.0 0.0 0.0 0.0 0.3939393939393939 0.0 0.0 0.2222222222222222 0.7</Array>
			</VectorInstance>
			<VectorInstance id="131">
				<Array type="real">0.7070707070707071 0.0 0.0 0.0 0.0 0.0 0.13131313131313133 0.0 0.0 0.7272727272727273 0.30303030303030304 0.0 0.2828282828282828 0.4444444444444444 0.0 0.0 0.0 0.0 0.3333333333333333 0.0 0.0 0.1717171717171717 0.0 0.8181818181818182 0.0 0.0 0.0 0.0 0.0 0.3333333333333333 0.0 0.0 0.0 1.0 0.5757575757575758 0.0 0.8585858585858586 0.0 0.13131313131313133 0.35353535353535354 0.0 0.0 0.0 0.0 0.0 0.0 0.0 0.0 0.0 0.0 0.0 0.0 0.0 0.0 0.0 0.0 0.0 0.2222222222222222 0.9666666666666667</Array>
			</VectorInstance>
			<VectorInstance id="132">
				<Array type="real">0.5050505050505051 0.0 0.0 0.0 0.0 0.0 0.13131313131313133 0.0 0.30303030303030304 0.8585858585858586 0.3333333333333333 0.0 0.26262626262626265 0.41414141414141414 0.0 0.0 0.0 0.0 0.0 0.0 0.0 0.1717171717171717 0.0 0.9090909090909091 0.0 0.3333333333333333 0.0 0.0 0.0 0.48484848484848486 0.0 0.0 0.0 1.0 0.6868686868686869 0.0 0.9090909090909091 0.0 0.13131313131313133 0.3939393939393939 0.0 0.0 0.0 0.0 0.0 0.0 0.0 0.0 0.0 0.0 0.0 0.0 0.0 0.0 0.37373737373737376 0.0 0.0 0.2222222222222222 0.24166666666666667</Array>
			</VectorInstance>
			<VectorInstance id="133">
				<Array type="real">0.5050505050505051 0.0 0.0 0.0 0.0 0.0 0.13131313131313133 0.0 0.30303030303030304 0.8585858585858586 0.3333333333333333 0.0 0.26262626262626265 0.41414141414141414 0.0 0.0 0.0 0.0 0.0 0.0 0.0 0.1717171717171717 0.0 0.9090909090909091 0.0 0.3333333333333333 0.0 0.0 0.0 0.48484848484848486 0.0 0.0 0.0 1.0 0.6868686868686869 0.0 0.9090909090909091 0.0 0.13131313131313133 0.3939393939393939 0.0 0.0 0.0 0.0 0.0 0.0 0.0 0.0 0.0 0.0 0.0 0.0 0.0 0.0 0.37373737373737376 0.0 0.0 0.2222222222222222 0.48055555555555557</Array>
			</VectorInstance>
			<VectorInstance id="134">
				<Array type="real">0.5050505050505051 0.0 0.0 0.0 0.0 0.0 0.13131313131313133 0.0 0.30303030303030304 0.8585858585858586 0.3333333333333333 0.0 0.26262626262626265 0.41414141414141414 0.0 0.0 0.0 0.0 0.0 0.0 0.0 0.1717171717171717 0.0 0.9090909090909091 0.0 0.3333333333333333 0.0 0.0 0.0 0.48484848484848486 0.0 0.0 0.0 1.0 0.6868686868686869 0.0 0.9090909090909091 0.0 0.13131313131313133 0.3939393939393939 0.0 0.0 0.0 0.0 0.0 0.0 0.0 0.0 0.0 0.0 0.0 0.0 0.0 0.0 0.37373737373737376 0.0 0.0 0.2222222222222222 0.7083333333333334</Array>
			</VectorInstance>
			<VectorInstance id="135">
				<Array type="real">0.5050505050505051 0.0 0.0 0.0 0.0 0.0 0.13131313131313133 0.0 0.30303030303030304 0.6666666666666666 0.3333333333333333 0.0 0.26262626262626265 0.41414141414141414 0.0 0.0 0.0 0.0 0.0 0.0 0.0 0.1717171717171717 0.0 0.7474747474747475 0.0 0.3333333333333333 0.0 0.0 0.0 0.48484848484848486 0.0 0.0 0.0 1.0 0.6868686868686869 0.0 0.8383838383838383 0.0 0.13131313131313133 0.3939393939393939 0.0 0.0 0.0 0.0 0.0 0.0 0.0 0.0 0.0 0.0 0.0 0.0 0.0 0.0 0.37373737373737376 0.0 0.0 0.0 0.9638888888888889</Array>
			</VectorInstance>
			<VectorInstance id="136">
				<Array type="real">0.7474747474747475 0.0 0.0 0.0 0.0 0.0 0.2222222222222222 0.0 0.30303030303030304 0.6666666666666666 0.2828282828282828 0.0 0.26262626262626265 0.37373737373737376 0.0 0.0 0.0 0.0 0.0 0.0 0.0 0.0 0.0 0.797979797979798 0.0 0.15151515151515152 0.0 0.0 0.0 0.41414141414141414 0.0 0.0 0.0 1.0 0.46464646464646464 0.0 0.9696969696969697 0.0 0.0 0.2828282828282828 0.2222222222222222 0.0 0.0 0.0 0.0 0.0 0.0 0.0 0.0 0.0 0.0 0.0 0.0 0.0 0.0 0.0 0.0 0.15151515151515152 0.225</Array>
			</VectorInstance>
			<VectorInstance id="137">
				<Array type="real">0.6161616161616161 0.0 0.0 0.0 0.0 0.0 0.2222222222222222 0.0 0.0 0.6666666666666666 0.2828282828282828 0.0 0.24242424242424243 0.37373737373737376 0.0 0.0 0.0 0.0 0.0 0.0 0.0 0.0 0.0 0.797979797979798 0.0 0.15151515151515152 0.0 0.0 0.0 0.41414141414141414 0.0 0.0 0.0 1.0 0.46464646464646464 0.0 0.9090909090909091 0.0 0.0 0.2828282828282828 0.2222222222222222 0.0 0.0 0.0 0.0 0.0 0.0 0.0 0.0 0.0 0.0 0.0 0.0 0.0 0.0 0.0 0.0 0.15151515151515152 0.46944444444444444</Array>
			</VectorInstance>
			<VectorInstance id="138">
				<Array type="real">0.7070707070707071 0.0 0.0 0.0 0.0 0.0 0.0 0.0 0.0 0.6161616161616161 0.2828282828282828 0.0 0.24242424242424243 0.30303030303030304 0.0 0.0 0.0 0.0 0.0 0.0 0.0 0.0 0.0 0.7777777777777778 0.0 0.15151515151515152 0.0 0.0 0.0 0.24242424242424243 0.0 0.0 0.0 0.8888888888888888 0.5555555555555556 0.0 0.8383838383838383 0.0 0.0 0.3333333333333333 0.2222222222222222 0.0 0.0 0.0 0.0 0.0 0.0 0.0 0.0 0.0 0.0 0.0 0.0 0.0 0.3333333333333333 0.0 0.0 0.15151515151515152 0.6861111111111111</Array>
			</VectorInstance>
			<VectorInstance id="139">
				<Array type="real">0.7070707070707071 0.0 0.0 0.0 0.0 0.0 0.0 0.0 0.0 0.6161616161616161 0.2828282828282828 0.0 0.24242424242424243 0.30303030303030304 0.0 0.0 0.0 0.0 0.0 0.0 0.0 0.0 0.0 0.7777777777777778 0.0 0.15151515151515152 0.0 0.0 0.0 0.24242424242424243 0.0 0.0 0.0 0.8888888888888888 0.5555555555555556 0.0 0.8383838383838383 0.0 0.0 0.3333333333333333 0.2222222222222222 0.0 0.0 0.0 0.0 0.0 0.0 0.0 0.0 0.0 0.0 0.0 0.0 0.0 0.3333333333333333 0.0 0.0 0.15151515151515152 0.95</Array>
			</VectorInstance>
			<VectorInstance id="140">
				<REAL-SparseArray n="59" defaultValue="0.0">
					<Indices>1 10 11 13 14 24 30 34 35 37 40 55 58 59</Indices>
					<REAL-Entries>0.797979797979798 0.797979797979798 0.3333333333333333 0.35353535353535354 0.30303030303030304 0.8383838383838383 0.3939393939393939 0.9696969696969697 0.797979797979798 0.9696969696969697 0.3333333333333333 0.30303030303030304 0.15151515151515152 0.23055555555555557</REAL-Entries>
				</REAL-SparseArray>
			</VectorInstance>
			<VectorInstance id="141">
				<Array type="real">0.8888888888888888 0.0 0.0 0.0 0.0 0.0 0.0 0.0 0.0 0.8383838383838383 0.30303030303030304 0.0 0.35353535353535354 0.5252525252525253 0.0 0.0 0.0 0.0 0.0 0.0 0.0 0.24242424242424243 0.0 0.8181818181818182 0.0 0.0 0.0 0.0 0.0 0.3939393939393939 0.0 0.0 0.0 1.0 0.797979797979798 0.0 0.9696969696969697 0.0 0.0 0.4444444444444444 0.0 0.0 0.1717171717171717 0.0 0.0 0.0 0.0 0.0 0.0 0.0 0.0 0.0 0.0 0.0 0.30303030303030304 0.0 0.0 0.15151515151515152 0.46111111111111114</Array>
			</VectorInstance>
			<VectorInstance id="142">
				<Array type="real">0.797979797979798 0.0 0.0 0.0 0.0 0.0 0.0 0.0 0.0 0.8383838383838383 0.30303030303030304 0.0 0.35353535353535354 0.5252525252525253 0.0 0.0 0.0 0.0 0.0 0.0 0.0 0.24242424242424243 0.0 0.8181818181818182 0.0 0.0 0.0 0.0 0.0 0.3939393939393939 0.0 0.0 0.0 0.9090909090909091 0.797979797979798 0.0 0.8383838383838383 0.0 0.0 0.4444444444444444 0.0 0.0 0.1717171717171717 0.0 0.0 0.0 0.0 0.0 0.0 0.0 0.0 0.0 0.0 0.0 0.0 0.0 0.0 0.15151515151515152 0.6944444444444444</Array>
			</VectorInstance>
			<VectorInstance id="143">
				<Array type="real">0.5252525252525253 0.0 0.0 0.0 0.0 0.0 0.0 0.0 0.1717171717171717 0.9090909090909091 0.30303030303030304 0.0 0.35353535353535354 0.5252525252525253 0.0 0.0 0.2222222222222222 0.0 0.0 0.0 0.0 0.24242424242424243 0.0 0.8383838383838383 0.0 0.15151515151515152 0.0 0.0 0.0 0.48484848484848486 0.0 0.0 0.0 0.9494949494949495 0.6161616161616161 0.0 0.8383838383838383 0.0 0.0 0.35353535353535354 0.0 0.0 0.1717171717171717 0.0 0.0 0.0 0.0 0.0 0.0 0.0 0.0 0.0 0.0 0.0 0.35353535353535354 0.0 0.0 0.15151515151515152 0.9527777777777777</Array>
			</VectorInstance>
			<VectorInstance id="148">
				<Array type="real">0.6666666666666666 0.0 0.0 0.0 0.0 0.0 0.0 0.0 0.0 0.7070707070707071 0.30303030303030304 0.0 0.15151515151515152 0.6363636363636364 0.0 0.1717171717171717 0.0 0.0 0.0 0.0 0.0 0.0 0.0 0.8888888888888888 0.0 0.0 0.0 0.0 0.0 0.46464646464646464 0.3333333333333333 0.0 0.0 1.0 0.797979797979798 0.0 1.0 0.0 0.0 0.46464646464646464 0.37373737373737376 0.0 0.0 0.0 0.0 0.0 0.0 0.0 0.0 0.0 0.0 0.0 0.0 0.0 0.0 0.0 0.0 0.24242424242424243 0.25</Array>
			</VectorInstance>
			<VectorInstance id="149">
				<Array type="real">0.7777777777777778 0.0 0.0 0.0 0.26262626262626265 0.0 0.0 0.0 0.0 0.6161616161616161 0.30303030303030304 0.0 0.2828282828282828 0.37373737373737376 0.0 0.1717171717171717 0.0 0.0 0.0 0.0 0.0 0.0 0.0 0.6666666666666666 0.0 0.1717171717171717 0.0 0.0 0.0 0.41414141414141414 0.3333333333333333 0.0 0.0 1.0 0.7474747474747475 0.0 1.0 0.0 0.0 0.26262626262626265 0.2828282828282828 0.0 0.0 0.0 0.0 0.0 0.0 0.0 0.0 0.0 0.0 0.0 0.0 0.0 0.0 0.0 0.0 0.24242424242424243 0.49166666666666664</Array>
			</VectorInstance>
			<VectorInstance id="150">
				<Array type="real">0.5959595959595959 0.0 0.0 0.0 0.26262626262626265 0.0 0.0 0.0 0.0 0.7070707070707071 0.30303030303030304 0.0 0.2828282828282828 0.37373737373737376 0.0 0.1717171717171717 0.0 0.0 0.0 0.0 0.0 0.0 0.0 0.5959595959595959 0.0 0.1919191919191919 0.0 0.0 0.0 0.41414141414141414 0.3333333333333333 0.0 0.0 0.8585858585858586 0.5555555555555556 0.0 1.0 0.0 0.0 0.26262626262626265 0.2828282828282828 0.0 0.0 0.0 0.0 0.0 0.0 0.0 0.0 0.0 0.0 0.0 0.0 0.0 0.0 0.0 0.0 0.24242424242424243 0.725</Array>
			</VectorInstance>
			<VectorInstance id="151">
				<Array type="real">0.5959595959595959 0.0 0.0 0.0 0.26262626262626265 0.0 0.0 0.0 0.0 0.7070707070707071 0.30303030303030304 0.0 0.3333333333333333 0.37373737373737376 0.0 0.1717171717171717 0.0 0.0 0.0 0.0 0.0 0.0 0.0 0.8383838383838383 0.0 0.1919191919191919 0.0 0.0 0.0 0.41414141414141414 0.3333333333333333 0.0 0.0 1.0 0.5555555555555556 0.0 0.9292929292929293 0.0 0.0 0.26262626262626265 0.2828282828282828 0.0 0.0 0.0 0.0 0.0 0.0 0.0 0.0 0.0 0.0 0.0 0.0 0.0 0.0 0.0 0.0 0.24242424242424243 0.9833333333333333</Array>
			</VectorInstance>
			<VectorInstance id="152">
				<Array type="real">0.5959595959595959 0.0 0.0 0.0 0.26262626262626265 0.0 0.0 0.0 0.0 0.6161616161616161 0.30303030303030304 0.0 0.30303030303030304 0.46464646464646464 0.0 0.0 0.0 0.0 0.0 0.0 0.0 0.0 0.0 0.9090909090909091 0.0 0.13131313131313133 0.0 0.0 0.0 0.3333333333333333 0.0 0.0 0.30303030303030304 1.0 0.7070707070707071 0.0 1.0 0.0 0.0 0.26262626262626265 0.2828282828282828 0.0 0.0 0.0 0.0 0.0 0.0 0.0 0.0 0.0 0.0 0.0 0.0 0.0 0.0 0.0 0.0 0.0 0.25</Array>
			</VectorInstance>
			<VectorInstance id="153">
				<REAL-SparseArray n="59" defaultValue="0.0">
					<Indices>1 10 13 14 24 26 30 31 33 34 35 37 40 59</Indices>
					<REAL-Entries>0.5757575757575758 0.6161616161616161 0.2222222222222222 0.46464646464646464 0.797979797979798 0.13131313131313133 0.3333333333333333 0.13131313131313133 0.30303030303030304 1.0 0.5555555555555556 1.0 0.3333333333333333 0.49444444444444446</REAL-Entries>
				</REAL-SparseArray>
			</VectorInstance>
			<VectorInstance id="154">
				<Array type="real">0.5555555555555556 0.0 0.0 0.0 0.0 0.0 0.0 0.0 0.0 0.6161616161616161 0.15151515151515152 0.0 0.26262626262626265 0.48484848484848486 0.0 0.0 0.0 0.0 0.0 0.0 0.0 0.0 0.0 0.6868686868686869 0.0 0.13131313131313133 0.0 0.0 0.0 0.1919191919191919 0.13131313131313133 0.0 0.30303030303030304 0.9696969696969697 0.5555555555555556 0.0 0.8383838383838383 0.0 0.0 0.26262626262626265 0.0 0.0 0.0 0.0 0.0 0.0 0.0 0.0 0.0 0.0 0.0 0.0 0.0 0.0 0.0 0.0 0.0 0.0 0.7277777777777777</Array>
			</VectorInstance>
			<VectorInstance id="155">
				<Array type="real">0.5555555555555556 0.0 0.0 0.0 0.0 0.0 0.0 0.0 0.0 0.6161616161616161 0.15151515151515152 0.0 0.26262626262626265 0.48484848484848486 0.0 0.0 0.0 0.0 0.0 0.0 0.0 0.0 0.0 0.6868686868686869 0.0 0.13131313131313133 0.0 0.0 0.0 0.1919191919191919 0.13131313131313133 0.0 0.30303030303030304 0.9696969696969697 0.5555555555555556 0.0 0.8383838383838383 0.0 0.0 0.26262626262626265 0.0 0.0 0.0 0.0 0.0 0.0 0.0 0.0 0.0 0.0 0.0 0.0 0.0 0.0 0.0 0.0 0.0 0.0 0.9916666666666667</Array>
			</VectorInstance>
			<VectorInstance id="156">
				<Array type="real">0.5555555555555556 0.0 0.0 0.0 0.0 0.0 0.3939393939393939 0.0 0.0 0.797979797979798 0.26262626262626265 0.0 0.41414141414141414 0.5252525252525253 0.0 0.0 0.0 0.0 0.0 0.0 0.1919191919191919 0.0 0.0 0.7474747474747475 0.0 0.1919191919191919 0.0 0.0 0.0 0.46464646464646464 0.0 0.0 0.0 1.0 0.0 0.0 1.0 0.0 0.1717171717171717 0.3939393939393939 0.1919191919191919 0.0 0.0 0.0 0.0 0.0 0.0 0.0 0.0 0.0 0.0 0.0 0.0 0.0 0.0 0.0 0.0 0.0 0.26944444444444443</Array>
			</VectorInstance>
			<VectorInstance id="157">
				<Array type="real">0.5555555555555556 0.0 0.0 0.0 0.0 0.0 0.3939393939393939 0.0 0.0 0.797979797979798 0.26262626262626265 0.0 0.41414141414141414 0.5252525252525253 0.0 0.0 0.0 0.0 0.0 0.0 0.1919191919191919 0.0 0.0 0.8585858585858586 0.0 0.1919191919191919 0.0 0.0 0.0 0.46464646464646464 0.0 0.0 0.0 1.0 0.5959595959595959 0.0 1.0 0.0 0.1717171717171717 0.3939393939393939 0.1919191919191919 0.0 0.0 0.0 0.0 0.0 0.0 0.0 0.0 0.0 0.0 0.0 0.0 0.0 0.0 0.0 0.0 0.0 0.5194444444444445</Array>
			</VectorInstance>
			<VectorInstance id="158">
				<REAL-SparseArray n="59" defaultValue="0.0">
					<Indices>1 7 10 13 14 21 24 26 30 34 35 37 40 59</Indices>
					<REAL-Entries>0.5555555555555556 0.3939393939393939 0.797979797979798 0.41414141414141414 0.5252525252525253 0.1919191919191919 0.8585858585858586 0.1919191919191919 0.46464646464646464 1.0 0.5959595959595959 0.8888888888888888 0.30303030303030304 0.7527777777777778</REAL-Entries>
				</REAL-SparseArray>
			</VectorInstance>
			<VectorInstance id="159">
				<REAL-SparseArray n="59" defaultValue="0.0">
					<Indices>1 7 10 13 14 21 24 26 30 34 35 37 40 59</Indices>
					<REAL-Entries>0.5555555555555556 0.3939393939393939 0.797979797979798 0.41414141414141414 0.5252525252525253 0.1919191919191919 0.8585858585858586 0.1919191919191919 0.46464646464646464 1.0 0.5959595959595959 0.8888888888888888 0.30303030303030304 0.016666666666666666</REAL-Entries>
				</REAL-SparseArray>
			</VectorInstance>
			<VectorInstance id="160">
				<Array type="real">0.797979797979798 0.0 0.0 0.0 0.13131313131313133 0.0 0.35353535353535354 0.0 0.1919191919191919 0.8585858585858586 0.35353535353535354 0.0 0.35353535353535354 0.41414141414141414 0.0 0.0 0.41414141414141414 0.0 0.0 0.0 0.0 0.0 0.0 1.0 0.0 0.24242424242424243 0.0 0.0 0.0 0.5050505050505051 0.1919191919191919 0.0 0.0 1.0 0.7272727272727273 0.0 1.0 0.0 0.0 0.5757575757575758 0.0 0.26262626262626265 0.0 0.0 0.0 0.0 0.0 0.0 0.0 0.0 0.0 0.0 0.0 0.0 0.0 0.0 0.0 0.2222222222222222 0.25277777777777777</Array>
			</VectorInstance>
			<VectorInstance id="161">
				<Array type="real">0.7777777777777778 0.0 0.0 0.0 0.13131313131313133 0.0 0.35353535353535354 0.0 0.1919191919191919 0.8383838383838383 0.35353535353535354 0.0 0.35353535353535354 0.5252525252525253 0.0 0.0 0.41414141414141414 0.0 0.0 0.0 0.0 0.0 0.0 0.9292929292929293 0.0 0.24242424242424243 0.0 0.0 0.0 0.4444444444444444 0.1919191919191919 0.0 0.0 1.0 0.7272727272727273 0.0 1.0 0.0 0.0 0.41414141414141414 0.0 0.26262626262626265 0.0 0.0 0.0 0.0 0.0 0.0 0.0 0.0 0.0 0.0 0.0 0.0 0.0 0.0 0.0 0.2222222222222222 0.4888888888888889</Array>
			</VectorInstance>
			<VectorInstance id="162">
				<Array type="real">0.7777777777777778 0.0 0.0 0.0 0.13131313131313133 0.0 0.35353535353535354 0.0 0.1919191919191919 0.8383838383838383 0.35353535353535354 0.0 0.35353535353535354 0.5252525252525253 0.0 0.0 0.41414141414141414 0.0 0.0 0.0 0.0 0.0 0.0 0.9292929292929293 0.0 0.24242424242424243 0.0 0.0 0.0 0.4444444444444444 0.1919191919191919 0.0 0.0 1.0 0.7272727272727273 0.0 1.0 0.0 0.0 0.41414141414141414 0.0 0.26262626262626265 0.0 0.0 0.0 0.0 0.0 0.0 0.0 0.0 0.0 0.0 0.0 0.0 0.0 0.0 0.0 0.2222222222222222 0.725</Array>
			</VectorInstance>
			<VectorInstance id="163">
				<Array type="real">0.8181818181818182 0.0 0.0 0.0 0.13131313131313133 0.0 0.24242424242424243 0.0 0.1919191919191919 0.9292929292929293 0.0 0.0 0.0 0.4444444444444444 0.0 0.0 0.1919191919191919 0.0 0.0 0.1919191919191919 0.0 0.0 0.0 0.797979797979798 0.0 0.13131313131313133 0.0 0.0 0.0 0.4444444444444444 0.0 0.0 0.26262626262626265 1.0 0.7777777777777778 0.0 0.9292929292929293 0.0 0.0 0.35353535353535354 0.24242424242424243 0.26262626262626265 0.0 0.0 0.0 0.0 0.0 0.0 0.0 0.0 0.0 0.0 0.0 0.0 0.0 0.0 0.0 0.2222222222222222 0.9888888888888889</Array>
			</VectorInstance>
			<VectorInstance id="168">
				<Array type="real">0.6868686868686869 0.0 0.0 0.0 0.0 0.0 0.0 0.0 0.0 0.8181818181818182 0.2222222222222222 0.0 0.24242424242424243 0.3939393939393939 0.0 0.0 0.0 0.0 0.0 0.0 0.0 0.0 0.0 0.8181818181818182 0.0 0.0 0.0 0.0 0.0 0.24242424242424243 0.2222222222222222 0.0 0.0 0.9696969696969697 0.5757575757575758 0.0 0.9292929292929293 0.0 0.0 0.3939393939393939 0.24242424242424243 0.0 0.0 0.0 0.0 0.0 0.0 0.1717171717171717 0.0 0.0 0.0 0.0 0.0 0.0 0.0 0.0 0.0 0.1919191919191919 0.25833333333333336</Array>
			</VectorInstance>
			<VectorInstance id="169">
				<REAL-SparseArray n="59" defaultValue="0.0">
					<Indices>1 10 11 13 14 24 30 34 35 37 40 48 58 59</Indices>
					<REAL-Entries>0.6868686868686869 0.8181818181818182 0.2222222222222222 0.24242424242424243 0.3939393939393939 0.8181818181818182 0.26262626262626265 0.8383838383838383 0.5757575757575758 0.8383838383838383 0.3939393939393939 0.1717171717171717 0.1919191919191919 0.5027777777777778</REAL-Entries>
				</REAL-SparseArray>
			</VectorInstance>
			<VectorInstance id="170">
				<REAL-SparseArray n="59" defaultValue="0.0">
					<Indices>1 10 11 14 24 30 34 35 37 40 43 48 58 59</Indices>
					<REAL-Entries>0.6868686868686869 0.5252525252525253 0.1919191919191919 0.5252525252525253 0.6868686868686869 0.1717171717171717 0.7474747474747475 0.4444444444444444 0.8383838383838383 0.26262626262626265 0.1111111111111111 0.1717171717171717 0.1919191919191919 0.7361111111111112</REAL-Entries>
				</REAL-SparseArray>
			</VectorInstance>
			<VectorInstance id="171">
				<REAL-SparseArray n="59" defaultValue="0.0">
					<Indices>1 10 11 14 24 30 34 35 37 40 43 48 58 59</Indices>
					<REAL-Entries>0.6868686868686869 0.5252525252525253 0.1919191919191919 0.5252525252525253 0.6868686868686869 0.1717171717171717 0.7474747474747475 0.4444444444444444 0.8383838383838383 0.26262626262626265 0.1111111111111111 0.1717171717171717 0.1919191919191919 0.9972222222222222</REAL-Entries>
				</REAL-SparseArray>
			</VectorInstance>
			<VectorInstance id="172">
				<REAL-SparseArray n="59" defaultValue="0.0">
					<Indices>1 10 11 14 24 30 34 35 37 40 43 48 58 59</Indices>
					<REAL-Entries>0.7474747474747475 0.5252525252525253 0.1919191919191919 0.797979797979798 0.6868686868686869 0.1717171717171717 1.0 0.4444444444444444 0.8888888888888888 0.26262626262626265 0.1111111111111111 0.1717171717171717 0.1919191919191919 0.2611111111111111</REAL-Entries>
				</REAL-SparseArray>
			</VectorInstance>
			<VectorInstance id="173">
				<Array type="real">0.5959595959595959 0.0 0.0 0.1717171717171717 0.0 0.0 0.0 0.0 0.0 0.8585858585858586 0.2828282828282828 0.0 0.0 0.797979797979798 0.0 0.0 0.0 0.0 0.0 0.0 0.0 0.0 0.0 0.8181818181818182 0.0 0.0 0.0 0.0 0.0 0.37373737373737376 0.0 0.0 0.0 1.0 0.7777777777777778 0.0 0.8888888888888888 0.0 0.0 0.4444444444444444 0.35353535353535354 0.0 0.1111111111111111 0.0 0.0 0.0 0.0 0.0 0.0 0.0 0.0 0.0 0.0 0.0 0.0 0.0 0.0 0.1919191919191919 0.49166666666666664</Array>
			</VectorInstance>
			<VectorInstance id="174">
				<Array type="real">0.5050505050505051 0.0 0.0 0.1717171717171717 0.0 0.0 0.0 0.0 0.0 0.6161616161616161 0.2828282828282828 0.0 0.0 0.41414141414141414 0.0 0.0 0.0 0.0 0.0 0.0 0.0 0.0 0.0 0.6363636363636364 0.0 0.0 0.0 0.0 0.0 0.26262626262626265 0.0 0.0 0.0 0.9090909090909091 0.5050505050505051 0.0 0.8888888888888888 0.0 0.0 0.4444444444444444 0.35353535353535354 0.0 0.15151515151515152 0.0 0.0 0.0 0.0 0.0 0.0 0.0 0.0 0.0 0.0 0.0 0.0 0.0 0.0 0.1919191919191919 0.7194444444444444</Array>
			</VectorInstance>
			<VectorInstance id="175">
				<Array type="real">0.5050505050505051 0.0 0.0 0.1717171717171717 0.0 0.0 0.0 0.0 0.0 0.6161616161616161 0.2828282828282828 0.0 0.0 0.5959595959595959 0.0 0.0 0.0 0.0 0.0 0.0 0.0 0.0 0.0 0.8181818181818182 0.0 0.0 0.0 0.0 0.0 0.26262626262626265 0.0 0.0 0.0 0.9696969696969697 0.5050505050505051 0.0 0.8585858585858586 0.0 0.0 0.4444444444444444 0.35353535353535354 0.0 0.15151515151515152 0.0 0.0 0.0 0.0 0.0 0.0 0.0 0.0 0.0 0.0 0.0 0.37373737373737376 0.0 0.0 0.24242424242424243 0.9694444444444444</Array>
			</VectorInstance>
			<VectorInstance id="176">
				<Array type="real">0.797979797979798 0.0 0.0 0.0 0.1919191919191919 0.0 0.0 0.0 0.1717171717171717 0.8585858585858586 0.30303030303030304 0.2828282828282828 0.0 0.6868686868686869 0.0 0.0 0.0 0.0 0.0 0.0 0.0 0.0 0.0 0.8383838383838383 0.0 0.2222222222222222 0.0 0.0 0.0 0.35353535353535354 0.26262626262626265 0.0 0.3939393939393939 1.0 0.5959595959595959 0.1919191919191919 1.0 0.0 0.0 0.41414141414141414 0.24242424242424243 0.0 0.0 0.0 0.0 0.0 0.0 0.0 0.0 0.0 0.0 0.0 0.0 0.0 0.0 0.0 0.0 0.24242424242424243 0.3</Array>
			</VectorInstance>
			<VectorInstance id="177">
				<Array type="real">0.6363636363636364 0.0 0.0 0.0 0.1919191919191919 0.0 0.0 0.0 0.1717171717171717 0.7777777777777778 0.30303030303030304 0.2828282828282828 0.0 0.6868686868686869 0.0 0.0 0.0 0.0 0.0 0.0 0.0 0.0 0.0 0.5252525252525253 0.0 0.2222222222222222 0.0 0.0 0.0 0.30303030303030304 0.26262626262626265 0.0 0.3939393939393939 0.7474747474747475 0.48484848484848486 0.1919191919191919 0.9292929292929293 0.0 0.0 0.41414141414141414 0.24242424242424243 0.0 0.0 0.0 0.0 0.0 0.0 0.0 0.0 0.0 0.0 0.0 0.0 0.0 0.0 0.0 0.0 0.0 0.5333333333333333</Array>
			</VectorInstance>
			<VectorInstance id="178">
				<Array type="real">0.6363636363636364 0.0 0.0 0.0 0.1919191919191919 0.0 0.0 0.0 0.1717171717171717 0.7777777777777778 0.30303030303030304 0.2828282828282828 0.0 0.6868686868686869 0.0 0.0 0.0 0.0 0.0 0.0 0.0 0.0 0.0 0.5252525252525253 0.0 0.2222222222222222 0.0 0.0 0.0 0.30303030303030304 0.26262626262626265 0.0 0.3939393939393939 0.7474747474747475 0.48484848484848486 0.1919191919191919 0.9292929292929293 0.0 0.0 0.41414141414141414 0.24242424242424243 0.0 0.0 0.0 0.0 0.0 0.0 0.0 0.0 0.0 0.0 0.0 0.0 0.0 0.0 0.0 0.0 0.0 0.7611111111111111</Array>
			</VectorInstance>
			<VectorInstance id="179">
				<Array type="real">0.6363636363636364 0.0 0.0 0.0 0.1919191919191919 0.0 0.0 0.0 0.1717171717171717 0.7777777777777778 0.30303030303030304 0.2828282828282828 0.0 0.6868686868686869 0.0 0.0 0.0 0.0 0.0 0.0 0.0 0.0 0.0 0.5252525252525253 0.0 0.2222222222222222 0.0 0.0 0.0 0.30303030303030304 0.26262626262626265 0.0 0.3939393939393939 0.7474747474747475 0.48484848484848486 0.1919191919191919 0.9292929292929293 0.0 0.0 0.41414141414141414 0.24242424242424243 0.0 0.0 0.0 0.0 0.0 0.0 0.0 0.0 0.0 0.0 0.0 0.0 0.0 0.0 0.0 0.0 0.0 0.019444444444444445</Array>
			</VectorInstance>
			<VectorInstance id="180">
				<REAL-SparseArray n="59" defaultValue="0.0">
					<Indices>1 7 10 14 24 30 34 35 36 37 39 40 59</Indices>
					<REAL-Entries>0.9494949494949495 0.2828282828282828 0.8888888888888888 0.6868686868686869 0.9090909090909091 0.35353535353535354 1.0 0.6666666666666666 0.1919191919191919 0.9696969696969697 0.26262626262626265 0.5050505050505051 0.2833333333333333</REAL-Entries>
				</REAL-SparseArray>
			</VectorInstance>
			<VectorInstance id="181">
				<REAL-SparseArray n="59" defaultValue="0.0">
					<Indices>1 7 10 14 24 30 34 35 36 37 39 40 59</Indices>
					<REAL-Entries>0.9494949494949495 0.2828282828282828 0.8888888888888888 0.6868686868686869 0.9090909090909091 0.35353535353535354 1.0 0.6666666666666666 0.1919191919191919 0.9696969696969697 0.26262626262626265 0.5050505050505051 0.5194444444444445</REAL-Entries>
				</REAL-SparseArray>
			</VectorInstance>
			<VectorInstance id="182">
				<REAL-SparseArray n="59" defaultValue="0.0">
					<Indices>1 7 10 14 24 30 34 35 36 37 39 40 59</Indices>
					<REAL-Entries>0.9494949494949495 0.2828282828282828 0.8888888888888888 0.6868686868686869 0.9090909090909091 0.35353535353535354 1.0 0.6666666666666666 0.1919191919191919 0.9696969696969697 0.26262626262626265 0.5050505050505051 0.7472222222222222</REAL-Entries>
				</REAL-SparseArray>
			</VectorInstance>
			<VectorInstance id="183">
				<Array type="real">0.5757575757575758 0.0 0.0 0.0 0.0 0.0 0.2828282828282828 0.0 0.0 0.8888888888888888 0.26262626262626265 0.0 0.0 0.6363636363636364 0.0 0.0 0.0 0.0 0.0 0.0 0.0 0.0 0.0 0.8888888888888888 0.0 0.0 0.0 0.0 0.0 0.35353535353535354 0.0 0.0 0.0 0.8888888888888888 0.5757575757575758 0.1919191919191919 0.9292929292929293 0.0 0.26262626262626265 0.5050505050505051 0.2828282828282828 0.0 0.0 0.0 0.0 0.0 0.0 0.0 0.0 0.0 0.0 0.0 0.0 0.0 0.0 0.0 0.0 0.0 0.011111111111111112</Array>
			</VectorInstance>
			<VectorInstance id="188">
				<Array type="real">0.5555555555555556 0.0 0.0 0.0 0.15151515151515152 0.0 0.35353535353535354 0.0 0.0 1.0 0.37373737373737376 0.0 0.0 0.5555555555555556 0.0 0.0 0.0 0.0 0.0 0.0 0.0 0.0 0.0 1.0 0.0 0.24242424242424243 0.0 0.0 0.0 0.5757575757575758 0.0 0.0 0.0 1.0 0.7272727272727273 0.0 0.9696969696969697 0.0 0.24242424242424243 0.41414141414141414 0.0 0.1919191919191919 0.0 0.0 0.0 0.0 0.0 0.3333333333333333 0.0 0.0 0.0 0.0 0.0 0.0 0.0 0.0 0.0 0.0 0.2611111111111111</Array>
			</VectorInstance>
			<VectorInstance id="189">
				<Array type="real">0.5555555555555556 0.0 0.0 0.0 0.0 0.0 0.35353535353535354 0.0 0.08080808080808081 0.9090909090909091 0.37373737373737376 0.0 0.0 0.37373737373737376 0.0 0.0 0.0 0.0 0.0 0.0 0.0 0.0 0.0 0.8181818181818182 0.0 0.2222222222222222 0.0 0.0 0.0 0.4444444444444444 0.0 0.0 0.0 0.9696969696969697 0.41414141414141414 0.0 1.0 0.0 0.24242424242424243 0.3333333333333333 0.0 0.1919191919191919 0.0 0.0 0.0 0.0 0.0 0.3333333333333333 0.0 0.0 0.0 0.0 0.0 0.0 0.0 0.0 0.0 0.0 0.5138888888888888</Array>
			</VectorInstance>
			<VectorInstance id="190">
				<Array type="real">0.5555555555555556 0.0 0.0 0.0 0.0 0.0 0.35353535353535354 0.0 0.08080808080808081 0.9090909090909091 0.26262626262626265 0.0 0.0 0.37373737373737376 0.0 0.0 0.0 0.0 0.0 0.0 0.0 0.0 0.0 0.8181818181818182 0.0 0.2222222222222222 0.0 0.0 0.0 0.4444444444444444 0.0 0.0 0.0 1.0 0.41414141414141414 0.0 0.9494949494949495 0.0 0.24242424242424243 0.3333333333333333 0.0 0.1919191919191919 0.0 0.0 0.0 0.0 0.0 0.3333333333333333 0.0 0.0 0.0 0.0 0.0 0.0 0.0 0.0 0.0 0.0 0.75</Array>
			</VectorInstance>
			<VectorInstance id="191">
				<REAL-SparseArray n="59" defaultValue="0.0">
					<Indices>7 9 10 11 14 24 26 30 34 35 37 40 48 59</Indices>
					<REAL-Entries>0.26262626262626265 0.08080808080808081 0.797979797979798 0.1919191919191919 0.4444444444444444 0.5959595959595959 0.2222222222222222 0.41414141414141414 0.9090909090909091 0.5050505050505051 0.9494949494949495 0.2828282828282828 0.3333333333333333 0.011111111111111112</REAL-Entries>
				</REAL-SparseArray>
			</VectorInstance>
			<VectorInstance id="192">
				<Array type="real">0.7777777777777778 0.0 0.0 0.0 0.0 0.0 0.24242424242424243 0.0 0.08080808080808081 0.5555555555555556 0.1919191919191919 0.0 0.0 0.26262626262626265 0.0 0.0 0.0 0.0 0.0 0.0 0.0 0.0 0.0 0.8383838383838383 0.0 0.2222222222222222 0.0 0.0 0.0 0.48484848484848486 0.0 0.0 0.0 0.9292929292929293 0.5050505050505051 0.0 0.9292929292929293 0.0 0.0 0.3333333333333333 0.37373737373737376 0.0 0.0 0.0 0.0 0.0 0.0 0.0 0.0 0.0 0.0 0.0 0.0 0.0 0.0 0.0 0.0 0.30303030303030304 0.2722222222222222</Array>
			</VectorInstance>
			<VectorInstance id="193">
				<Array type="real">0.797979797979798 0.0 0.0 0.0 0.0 0.0 0.24242424242424243 0.0 0.0 0.797979797979798 0.1919191919191919 0.0 0.0 0.37373737373737376 0.0 0.0 0.0 0.0 0.0 0.0 0.0 0.0 0.0 0.797979797979798 0.0 0.2222222222222222 0.0 0.0 0.0 0.35353535353535354 0.0 0.0 0.0 1.0 0.797979797979798 0.0 1.0 0.0 0.0 0.3333333333333333 0.37373737373737376 0.0 0.1919191919191919 0.0 0.0 0.0 0.0 0.0 0.0 0.0 0.0 0.0 0.0 0.0 0.0 0.0 0.0 0.30303030303030304 0.5166666666666667</Array>
			</VectorInstance>
			<VectorInstance id="194">
				<Array type="real">0.797979797979798 0.0 0.0 0.0 0.0 0.0 0.24242424242424243 0.0 0.0 0.797979797979798 0.1919191919191919 0.0 0.0 0.37373737373737376 0.0 0.0 0.0 0.0 0.0 0.0 0.0 0.0 0.0 0.797979797979798 0.0 0.2222222222222222 0.0 0.0 0.0 0.35353535353535354 0.0 0.0 0.0 1.0 0.797979797979798 0.0 1.0 0.0 0.0 0.3333333333333333 0.37373737373737376 0.0 0.1919191919191919 0.0 0.0 0.0 0.0 0.0 0.0 0.0 0.0 0.0 0.0 0.0 0.0 0.0 0.0 0.30303030303030304 0.7555555555555555</Array>
			</VectorInstance>
			<VectorInstance id="195">
				<Array type="real">0.797979797979798 0.0 0.0 0.0 0.0 0.0 0.24242424242424243 0.0 0.0 0.797979797979798 0.1919191919191919 0.0 0.0 0.37373737373737376 0.0 0.0 0.0 0.0 0.0 0.0 0.0 0.0 0.0 0.797979797979798 0.0 0.2222222222222222 0.0 0.0 0.0 0.35353535353535354 0.0 0.0 0.0 1.0 0.797979797979798 0.0 1.0 0.0 0.0 0.3333333333333333 0.37373737373737376 0.0 0.1919191919191919 0.0 0.0 0.0 0.0 0.0 0.0 0.0 0.0 0.0 0.0 0.0 0.0 0.0 0.0 0.30303030303030304 0.008333333333333333</Array>
			</VectorInstance>
			<VectorInstance id="196">
				<Array type="real">0.6363636363636364 0.0 0.0 0.0 0.0 0.0 0.41414141414141414 0.0 0.0 0.9494949494949495 0.35353535353535354 0.2828282828282828 0.0 0.5555555555555556 0.0 0.0 0.3939393939393939 0.0 0.0 0.26262626262626265 0.2828282828282828 0.0 0.0 1.0 0.0 0.24242424242424243 0.0 0.0 0.0 0.5050505050505051 0.0 0.0 0.26262626262626265 1.0 0.797979797979798 0.0 1.0 0.0 0.0 0.46464646464646464 0.30303030303030304 0.0 0.2828282828282828 0.0 0.0 0.0 0.0 0.0 0.0 0.0 0.0 0.0 0.0 0.0 0.0 0.0 0.0 0.2222222222222222 0.2722222222222222</Array>
			</VectorInstance>
			<VectorInstance id="197">
				<Array type="real">0.6363636363636364 0.0 0.0 0.0 0.0 0.0 0.41414141414141414 0.0 0.0 0.9494949494949495 0.35353535353535354 0.2828282828282828 0.0 0.5555555555555556 0.0 0.0 0.3939393939393939 0.0 0.0 0.26262626262626265 0.2828282828282828 0.0 0.0 1.0 0.0 0.24242424242424243 0.0 0.0 0.0 0.5050505050505051 0.0 0.0 0.26262626262626265 1.0 0.797979797979798 0.0 1.0 0.0 0.0 0.46464646464646464 0.30303030303030304 0.0 0.2828282828282828 0.0 0.0 0.0 0.0 0.0 0.0 0.0 0.0 0.0 0.0 0.0 0.0 0.0 0.0 0.2222222222222222 0.5083333333333333</Array>
			</VectorInstance>
			<VectorInstance id="198">
				<Array type="real">0.6363636363636364 0.0 0.0 0.0 0.0 0.0 0.41414141414141414 0.0 0.0 0.9494949494949495 0.35353535353535354 0.2828282828282828 0.0 0.5555555555555556 0.0 0.0 0.3939393939393939 0.0 0.0 0.26262626262626265 0.2828282828282828 0.0 0.0 1.0 0.0 0.24242424242424243 0.0 0.0 0.0 0.5050505050505051 0.0 0.0 0.26262626262626265 1.0 0.797979797979798 0.0 1.0 0.0 0.0 0.46464646464646464 0.30303030303030304 0.0 0.2828282828282828 0.0 0.0 0.0 0.0 0.0 0.0 0.0 0.0 0.0 0.0 0.0 0.0 0.0 0.0 0.2222222222222222 0.7777777777777778</Array>
			</VectorInstance>
			<VectorInstance id="199">
				<Array type="real">0.6363636363636364 0.0 0.0 0.0 0.0 0.0 0.41414141414141414 0.0 0.0 0.9494949494949495 0.35353535353535354 0.2828282828282828 0.0 0.5050505050505051 0.0 0.0 0.3939393939393939 0.0 0.0 0.26262626262626265 0.2828282828282828 0.0 0.0 0.6666666666666666 0.0 0.24242424242424243 0.0 0.0 0.0 0.5050505050505051 0.0 0.0 0.26262626262626265 1.0 0.797979797979798 0.0 0.9292929292929293 0.0 0.0 0.46464646464646464 0.30303030303030304 0.0 0.2828282828282828 0.0 0.0 0.0 0.0 0.0 0.0 0.0 0.0 0.0 0.0 0.0 0.0 0.0 0.0 0.2222222222222222 0.005555555555555556</Array>
			</VectorInstance>
			<VectorInstance id="200">
				<Array type="real">0.8888888888888888 0.0 0.0 0.0 0.0 0.0 0.26262626262626265 0.0 0.30303030303030304 0.7272727272727273 0.48484848484848486 0.0 0.0 0.5252525252525253 0.0 0.0 0.0 0.0 0.0 0.35353535353535354 0.0 0.0 0.0 0.9292929292929293 0.0 0.37373737373737376 0.0 0.0 0.0 0.37373737373737376 0.0 0.0 0.24242424242424243 1.0 0.8383838383838383 0.0 1.0 0.0 0.0 0.3939393939393939 0.0 0.0 0.0 0.0 0.0 0.0 0.0 0.1717171717171717 0.0 0.0 0.0 0.0 0.0 0.0 0.0 0.0 0.0 0.0 0.275</Array>
			</VectorInstance>
			<VectorInstance id="201">
				<Array type="real">0.8888888888888888 0.0 0.0 0.0 0.0 0.0 0.26262626262626265 0.0 0.30303030303030304 0.7272727272727273 0.48484848484848486 0.0 0.0 0.5252525252525253 0.0 0.0 0.0 0.0 0.0 0.35353535353535354 0.0 0.0 0.0 0.9292929292929293 0.0 0.37373737373737376 0.0 0.0 0.0 0.37373737373737376 0.0 0.0 0.24242424242424243 1.0 0.8383838383838383 0.0 1.0 0.0 0.0 0.3939393939393939 0.0 0.0 0.0 0.0 0.0 0.0 0.0 0.1717171717171717 0.0 0.0 0.0 0.0 0.0 0.0 0.0 0.0 0.0 0.0 0.5361111111111111</Array>
			</VectorInstance>
			<VectorInstance id="202">
				<Array type="real">0.8888888888888888 0.0 0.0 0.0 0.0 0.0 0.26262626262626265 0.0 0.30303030303030304 0.7272727272727273 0.48484848484848486 0.0 0.0 0.5252525252525253 0.0 0.0 0.0 0.0 0.0 0.35353535353535354 0.0 0.0 0.0 0.9292929292929293 0.0 0.37373737373737376 0.0 0.0 0.0 0.37373737373737376 0.0 0.0 0.24242424242424243 1.0 0.8383838383838383 0.0 1.0 0.0 0.0 0.3939393939393939 0.0 0.0 0.0 0.0 0.0 0.0 0.0 0.1717171717171717 0.0 0.0 0.0 0.0 0.0 0.0 0.0 0.0 0.0 0.0 0.7583333333333333</Array>
			</VectorInstance>
			<VectorInstance id="203">
				<Array type="real">0.8585858585858586 0.0 0.0 0.0 0.0 0.0 0.26262626262626265 0.0 0.30303030303030304 0.7272727272727273 0.3939393939393939 0.0 0.0 0.6161616161616161 0.0 0.0 0.0 0.0 0.0 0.35353535353535354 0.0 0.0 0.0 0.797979797979798 0.0 0.1919191919191919 0.0 0.0 0.0 0.46464646464646464 0.0 0.0 0.24242424242424243 0.9090909090909091 0.8383838383838383 0.0 1.0 0.0 0.0 0.3939393939393939 0.0 0.0 0.0 0.0 0.0 0.0 0.0 0.1717171717171717 0.0 0.0 0.0 0.0 0.0 0.0 0.0 0.0 0.0 0.15151515151515152 0.0</Array>
			</VectorInstance>
			<VectorInstance id="208">
				<Array type="real">0.8585858585858586 0.0 0.0 0.0 0.30303030303030304 0.0 0.37373737373737376 0.0 0.1717171717171717 0.8181818181818182 0.35353535353535354 0.0 0.24242424242424243 0.6666666666666666 0.0 0.0 0.0 0.0 0.0 0.26262626262626265 0.0 0.0 0.0 0.8383838383838383 0.0 0.0 0.0 0.0 0.0 0.46464646464646464 0.0 0.0 0.2828282828282828 0.8585858585858586 0.8181818181818182 0.0 0.8181818181818182 0.0 0.2222222222222222 0.35353535353535354 0.0 0.0 0.0 0.0 0.0 0.0 0.0 0.30303030303030304 0.0 0.0 0.0 0.0 0.0 0.0 0.0 0.0 0.0 0.0 0.2833333333333333</Array>
			</VectorInstance>
			<VectorInstance id="209">
				<Array type="real">0.7777777777777778 0.0 0.0 0.0 0.30303030303030304 0.0 0.37373737373737376 0.0 0.1717171717171717 0.797979797979798 0.35353535353535354 0.0 0.24242424242424243 0.6666666666666666 0.0 0.0 0.0 0.0 0.0 0.26262626262626265 0.0 0.0 0.0 0.8888888888888888 0.0 0.0 0.0 0.0 0.0 0.46464646464646464 0.0 0.0 0.2828282828282828 1.0 0.7777777777777778 0.0 0.8181818181818182 0.0 0.2222222222222222 0.35353535353535354 0.0 0.0 0.0 0.0 0.0 0.0 0.0 0.30303030303030304 0.0 0.0 0.0 0.0 0.0 0.0 0.0 0.0 0.0 0.0 0.5277777777777778</Array>
			</VectorInstance>
			<VectorInstance id="210">
				<Array type="real">0.9090909090909091 0.0 0.0 0.0 0.0 0.0 0.35353535353535354 0.0 0.0 0.797979797979798 0.35353535353535354 0.0 0.1919191919191919 0.7070707070707071 0.0 0.0 0.0 0.0 0.0 0.26262626262626265 0.0 0.0 0.0 0.8888888888888888 0.0 0.2222222222222222 0.0 0.0 0.0 0.48484848484848486 0.0 0.0 0.2828282828282828 0.7474747474747475 0.8585858585858586 0.0 0.8181818181818182 0.0 0.2222222222222222 0.4444444444444444 0.1919191919191919 0.0 0.1919191919191919 0.0 0.0 0.0 0.0 0.30303030303030304 0.0 0.0 0.0 0.0 0.0 0.0 0.0 0.0 0.0 0.0 0.7638888888888888</Array>
			</VectorInstance>
			<VectorInstance id="211">
				<Array type="real">0.8383838383838383 0.0 0.0 0.0 0.0 0.0 0.35353535353535354 0.0 0.0 0.6161616161616161 0.35353535353535354 0.0 0.1919191919191919 0.5050505050505051 0.0 0.0 0.0 0.0 0.0 0.26262626262626265 0.0 0.0 0.0 0.8181818181818182 0.0 0.2222222222222222 0.0 0.0 0.0 0.5252525252525253 0.0 0.0 0.2828282828282828 0.8585858585858586 0.8585858585858586 0.0 0.9292929292929293 0.0 0.2222222222222222 0.41414141414141414 0.2828282828282828 0.0 0.1919191919191919 0.0 0.0 0.0 0.0 0.30303030303030304 0.0 0.0 0.0 0.0 0.0 0.0 0.0 0.0 0.0 0.0 0.016666666666666666</Array>
			</VectorInstance>
			<VectorInstance id="212">
				<Array type="real">0.8888888888888888 0.0 0.0 0.0 0.0 0.0 0.46464646464646464 0.0 0.0 0.8888888888888888 0.0 0.0 0.1919191919191919 0.7070707070707071 0.0 0.0 0.0 0.0 0.0 0.0 0.0 0.0 0.0 0.8585858585858586 0.0 0.2222222222222222 0.0 0.0 0.0 0.4444444444444444 0.0 0.0 0.0 1.0 0.5959595959595959 0.0 0.797979797979798 0.0 0.2222222222222222 0.30303030303030304 0.1919191919191919 0.0 0.30303030303030304 0.0 0.0 0.0 0.0 0.0 0.0 0.0 0.0 0.0 0.0 0.0 0.0 0.0 0.0 0.0 0.3138888888888889</Array>
			</VectorInstance>
			<VectorInstance id="213">
				<Array type="real">0.8888888888888888 0.0 0.0 0.0 0.0 0.0 0.46464646464646464 0.0 0.0 0.8888888888888888 0.0 0.0 0.1919191919191919 0.7070707070707071 0.0 0.0 0.0 0.0 0.0 0.0 0.0 0.0 0.0 0.8585858585858586 0.0 0.2222222222222222 0.0 0.0 0.0 0.4444444444444444 0.0 0.0 0.0 1.0 0.5959595959595959 0.0 0.797979797979798 0.0 0.2222222222222222 0.30303030303030304 0.1919191919191919 0.0 0.30303030303030304 0.0 0.0 0.0 0.0 0.0 0.0 0.0 0.0 0.0 0.0 0.0 0.0 0.0 0.0 0.0 0.55</Array>
			</VectorInstance>
			<VectorInstance id="214">
				<Array type="real">0.8888888888888888 0.0 0.0 0.0 0.0 0.0 0.46464646464646464 0.0 0.0 0.8888888888888888 0.0 0.0 0.1919191919191919 0.7070707070707071 0.0 0.0 0.0 0.0 0.0 0.0 0.0 0.0 0.0 0.6363636363636364 0.0 0.2222222222222222 0.0 0.0 0.0 0.4444444444444444 0.0 0.0 0.0 1.0 0.7272727272727273 0.0 0.9090909090909091 0.0 0.2222222222222222 0.30303030303030304 0.1919191919191919 0.0 0.30303030303030304 0.0 0.0 0.0 0.0 0.0 0.0 0.0 0.0 0.0 0.0 0.0 0.3939393939393939 0.0 0.0 0.0 0.7583333333333333</Array>
			</VectorInstance>
			<VectorInstance id="215">
				<Array type="real">0.7474747474747475 0.0 0.0 0.0 0.0 0.0 0.46464646464646464 0.0 0.0 0.8383838383838383 0.0 0.0 0.0 0.5252525252525253 0.0 0.0 0.0 0.0 0.0 0.0 0.0 0.0 0.0 0.7272727272727273 0.0 0.24242424242424243 0.0 0.0 0.0 0.4444444444444444 0.0 0.0 0.0 1.0 0.7272727272727273 0.0 0.9090909090909091 0.0 0.0 0.3333333333333333 0.2828282828282828 0.0 0.30303030303030304 0.0 0.0 0.0 0.0 0.0 0.0 0.0 0.0 0.0 0.0 0.0 0.3939393939393939 0.0 0.0 0.0 0.03611111111111111</Array>
			</VectorInstance>
			<VectorInstance id="216">
				<Array type="real">0.8888888888888888 0.0 0.0 0.0 0.0 0.0 0.3333333333333333 0.0 0.1919191919191919 0.6666666666666666 0.0 0.0 0.0 0.5757575757575758 0.0 0.0 0.0 0.0 0.0 0.0 0.0 0.0 0.0 0.7777777777777778 0.0 0.1919191919191919 0.2828282828282828 0.0 0.0 0.5959595959595959 0.0 0.0 0.0 1.0 0.8383838383838383 0.0 0.8383838383838383 0.0 0.0 0.3939393939393939 0.3333333333333333 0.0 0.3333333333333333 0.0 0.0 0.0 0.0 0.35353535353535354 0.0 0.0 0.0 0.0 0.0 0.0 0.0 0.0 0.0 0.3333333333333333 0.28888888888888886</Array>
			</VectorInstance>
			<VectorInstance id="217">
				<Array type="real">0.8888888888888888 0.0 0.0 0.0 0.0 0.0 0.3333333333333333 0.0 0.1919191919191919 0.6666666666666666 0.0 0.0 0.0 0.5757575757575758 0.0 0.0 0.0 0.0 0.0 0.0 0.0 0.0 0.0 0.7777777777777778 0.0 0.1919191919191919 0.2828282828282828 0.0 0.0 0.5959595959595959 0.0 0.0 0.0 1.0 0.8383838383838383 0.0 0.8383838383838383 0.0 0.0 0.3939393939393939 0.3333333333333333 0.0 0.3333333333333333 0.0 0.0 0.0 0.0 0.35353535353535354 0.0 0.0 0.0 0.0 0.0 0.0 0.0 0.0 0.0 0.3333333333333333 0.5388888888888889</Array>
			</VectorInstance>
			<VectorInstance id="218">
				<Array type="real">0.8888888888888888 0.0 0.0 0.0 0.0 0.0 0.3333333333333333 0.0 0.0 0.7070707070707071 0.37373737373737376 0.0 0.0 0.46464646464646464 0.0 0.0 0.0 0.0 0.0 0.0 0.0 0.15151515151515152 0.0 0.7474747474747475 0.0 0.2222222222222222 0.0 0.0 0.0 0.4444444444444444 0.0 0.0 0.0 0.9494949494949495 0.7070707070707071 0.0 0.8383838383838383 0.0 0.0 0.3939393939393939 0.24242424242424243 0.0 0.0 0.0 0.0 0.0 0.0 0.0 0.0 0.0 0.0 0.0 0.0 0.0 0.0 0.0 0.0 0.3333333333333333 0.775</Array>
			</VectorInstance>
			<VectorInstance id="219">
